Subnet: [6, 6, 6, 6, 6, 6, 6, 6, 6, 6, 6, 6, 6, 6, 6, 6, 6, 6, 6, 6], [4, 4, 4, 4, 4]
Weight Matrix shape: (168, 672, 1, 1)
[[[[ 7.07450956e-02]]

  [[ 4.36985604e-02]]

  [[ 3.67127694e-02]]

  [[ 5.21755256e-02]]

  [[ 6.87424019e-02]]

  [[ 2.67033055e-02]]

  [[ 1.61262229e-02]]

  [[ 1.55105451e-02]]

  [[ 4.25058976e-02]]

  [[ 1.49814188e-02]]

  [[ 6.10847510e-02]]

  [[ 5.03795557e-02]]

  [[ 5.63083924e-02]]

  [[ 3.98706384e-02]]

  [[ 4.80011217e-02]]

  [[-1.96892843e-02]]

  [[ 5.05665094e-02]]

  [[ 7.38229007e-02]]

  [[ 3.92399877e-02]]

  [[-9.32971202e-03]]

  [[ 4.23440076e-02]]

  [[ 2.87793837e-02]]

  [[ 6.21822551e-02]]

  [[-4.90623824e-02]]

  [[ 4.91639450e-02]]

  [[ 1.50899533e-02]]

  [[-1.30015323e-02]]

  [[ 5.68675660e-02]]

  [[ 6.74627125e-02]]

  [[ 2.09991317e-02]]

  [[ 3.47016230e-02]]

  [[ 1.07462881e-02]]

  [[ 9.77025181e-02]]

  [[ 1.12424046e-02]]

  [[ 3.27511728e-02]]

  [[ 6.86980784e-02]]

  [[ 4.71593179e-02]]

  [[ 2.92582028e-02]]

  [[ 6.95937052e-02]]

  [[-5.00898734e-02]]

  [[-5.38647436e-02]]

  [[ 7.22854352e-03]]

  [[ 2.08150875e-03]]

  [[ 6.09312318e-02]]

  [[-2.67284848e-02]]

  [[-6.95428438e-03]]

  [[-1.87009166e-03]]

  [[ 4.91874218e-02]]

  [[ 5.40565029e-02]]

  [[ 8.05875286e-02]]

  [[ 6.44511916e-03]]

  [[ 3.25127020e-02]]

  [[ 2.11361460e-02]]

  [[ 1.77986007e-02]]

  [[-7.90858828e-03]]

  [[-1.47237685e-02]]

  [[-1.58103369e-02]]

  [[ 4.25549410e-02]]

  [[ 1.37666892e-02]]

  [[-6.09801747e-02]]

  [[ 2.04548873e-02]]

  [[ 5.63850477e-02]]

  [[ 3.75198536e-02]]

  [[ 1.71043053e-02]]

  [[ 1.05841747e-02]]

  [[ 3.39666419e-02]]

  [[-1.12074884e-02]]

  [[ 4.90425713e-02]]

  [[-6.68611452e-02]]

  [[-1.71839411e-03]]

  [[-1.64382141e-02]]

  [[ 5.43117598e-02]]

  [[ 5.16924001e-02]]

  [[ 7.81817436e-02]]

  [[-4.86443168e-04]]

  [[ 3.32987905e-02]]

  [[-3.20743918e-02]]

  [[ 4.77748513e-02]]

  [[-1.26112113e-02]]

  [[ 3.50875445e-02]]

  [[ 1.33503065e-01]]

  [[ 2.90979561e-03]]

  [[ 4.34383564e-02]]

  [[ 2.83761844e-02]]

  [[-1.22485999e-02]]

  [[ 2.15806980e-02]]

  [[ 3.00006545e-03]]

  [[ 7.05984561e-03]]

  [[-5.49378432e-03]]

  [[ 2.51292605e-02]]

  [[ 3.87865268e-02]]

  [[ 8.10081232e-03]]

  [[ 5.60032949e-03]]

  [[ 2.27756836e-02]]

  [[-4.69078310e-02]]

  [[ 4.71577235e-02]]

  [[ 3.78965400e-02]]

  [[ 2.47345604e-02]]

  [[-1.72073822e-02]]

  [[ 7.24924207e-02]]

  [[ 2.36579645e-02]]

  [[ 1.71253923e-02]]

  [[ 1.68169402e-02]]

  [[ 8.53636302e-03]]

  [[ 3.76347415e-02]]

  [[ 3.26731503e-02]]

  [[ 2.41961051e-02]]

  [[ 1.49565041e-01]]

  [[ 3.59193534e-02]]

  [[ 9.89920925e-03]]

  [[ 2.44281553e-02]]

  [[ 1.40131079e-02]]

  [[ 8.46302137e-03]]

  [[ 2.90916059e-02]]

  [[ 1.86143238e-02]]

  [[ 4.03716974e-03]]

  [[ 2.11218242e-02]]

  [[-3.34328078e-02]]

  [[ 9.29414481e-02]]

  [[-5.78452973e-03]]

  [[ 3.33981514e-02]]

  [[-1.92525554e-02]]

  [[ 1.24069437e-01]]

  [[-9.80245881e-03]]

  [[ 7.34603629e-02]]

  [[ 1.38049163e-02]]

  [[-5.09786839e-03]]

  [[ 1.33855604e-02]]

  [[ 1.09982840e-03]]

  [[ 5.03947884e-02]]

  [[ 5.35382926e-02]]

  [[ 1.95752420e-02]]

  [[ 1.24915354e-02]]

  [[ 3.12316529e-02]]

  [[ 1.27118707e-01]]

  [[ 3.94064076e-02]]

  [[ 4.13545072e-02]]

  [[-4.00383398e-02]]

  [[ 6.24769134e-03]]

  [[ 3.21777516e-05]]

  [[ 2.28206664e-02]]

  [[ 3.13385725e-02]]

  [[ 4.57663946e-02]]

  [[ 3.13022584e-02]]

  [[-4.68030060e-03]]

  [[ 5.30539006e-02]]

  [[ 1.17591454e-03]]

  [[ 7.07338080e-02]]

  [[ 4.10310328e-02]]

  [[ 3.39611024e-02]]

  [[-1.47792958e-02]]

  [[-2.79079285e-02]]

  [[-7.75145891e-05]]

  [[-2.58179680e-02]]

  [[ 6.44413696e-04]]

  [[ 3.28588709e-02]]

  [[-6.62455801e-04]]

  [[ 6.91026449e-02]]

  [[ 1.34123847e-01]]

  [[ 3.09514739e-02]]

  [[ 1.34027049e-01]]

  [[ 3.43906730e-02]]

  [[ 3.40817943e-02]]

  [[ 7.29973018e-02]]

  [[ 1.10800825e-02]]

  [[-6.78570941e-02]]

  [[ 1.76854926e-04]]

  [[-1.19769080e-02]]

  [[ 7.11104795e-02]]

  [[-1.31487306e-02]]

  [[ 4.48816642e-02]]

  [[ 4.09080200e-02]]

  [[ 8.09552893e-02]]

  [[ 1.36777721e-02]]

  [[-1.07545052e-02]]

  [[ 2.05529165e-02]]

  [[ 4.25519794e-02]]

  [[ 2.12738309e-02]]

  [[ 7.83801824e-03]]

  [[ 2.27364395e-02]]

  [[-2.59489100e-02]]

  [[ 2.79182084e-02]]

  [[ 1.09893400e-02]]

  [[ 2.47826688e-02]]

  [[ 2.79870033e-02]]

  [[ 4.41460088e-02]]

  [[ 2.49582250e-02]]

  [[ 4.20778915e-02]]

  [[ 4.90994155e-02]]

  [[-4.69254814e-02]]

  [[ 3.13279554e-02]]

  [[ 5.41645959e-02]]

  [[ 1.15553765e-02]]

  [[-1.47706261e-02]]

  [[ 1.59974217e-01]]

  [[ 3.48010957e-02]]

  [[ 5.69947623e-02]]

  [[ 1.86333694e-02]]

  [[ 3.00224796e-02]]

  [[ 1.01032080e-02]]

  [[ 3.10073812e-02]]

  [[ 5.34747317e-02]]

  [[ 1.18119545e-01]]

  [[-1.23663014e-02]]

  [[ 6.02557603e-03]]

  [[ 7.65095204e-02]]

  [[ 4.67921421e-02]]

  [[ 8.00966099e-02]]

  [[-5.75226545e-03]]

  [[ 5.75306676e-02]]

  [[ 1.15482748e-01]]

  [[-9.17274505e-03]]

  [[ 4.25712839e-02]]

  [[ 1.91829335e-02]]

  [[ 2.15797890e-02]]

  [[ 2.16231421e-02]]

  [[ 1.48428027e-02]]

  [[ 4.90720896e-03]]

  [[ 3.24497595e-02]]

  [[-8.36359188e-02]]

  [[ 5.17928973e-02]]

  [[ 3.50172482e-02]]

  [[ 2.92302687e-02]]

  [[ 2.16789860e-02]]

  [[ 8.20937566e-03]]

  [[ 6.78679422e-02]]

  [[ 5.36054336e-02]]

  [[ 2.94388235e-02]]

  [[-9.56573710e-03]]

  [[ 3.73738110e-02]]

  [[ 8.46178923e-03]]

  [[-1.15725482e-02]]

  [[ 1.57812517e-02]]

  [[ 5.13076335e-02]]

  [[ 8.56360346e-02]]

  [[ 8.58901534e-03]]

  [[-1.15774527e-01]]

  [[ 3.65969427e-02]]

  [[ 5.44598550e-02]]

  [[ 1.00909285e-01]]

  [[ 5.39503694e-02]]

  [[ 5.81729785e-02]]

  [[ 1.11932028e-02]]

  [[-2.03770436e-02]]

  [[ 6.39000759e-02]]

  [[ 2.44120304e-02]]

  [[ 5.06200418e-02]]

  [[-1.80368926e-02]]

  [[ 1.65311396e-02]]

  [[ 3.96938659e-02]]

  [[ 3.03121693e-02]]

  [[ 5.52803986e-02]]

  [[ 4.47532609e-02]]

  [[-8.62381607e-03]]

  [[-4.36079204e-02]]

  [[-4.03604545e-02]]

  [[ 6.35821698e-03]]

  [[ 7.72194266e-02]]

  [[ 3.14448625e-02]]

  [[-1.67400520e-02]]

  [[-4.39073518e-02]]

  [[ 2.09293664e-02]]

  [[-6.32771524e-03]]

  [[-3.37338485e-02]]

  [[ 2.42106766e-02]]

  [[ 4.04592641e-02]]

  [[ 3.11980359e-02]]

  [[-3.17828581e-02]]

  [[ 4.73032817e-02]]

  [[ 3.10215019e-02]]

  [[ 5.43938056e-02]]

  [[ 5.35787456e-02]]

  [[ 1.35572627e-02]]

  [[ 2.97343414e-02]]

  [[ 2.29255948e-02]]

  [[ 4.56985980e-02]]

  [[ 4.22952771e-02]]

  [[ 4.79973853e-02]]

  [[ 2.72895321e-02]]

  [[ 1.14899404e-01]]

  [[-2.70786285e-02]]

  [[ 1.33183658e-01]]

  [[-1.86122078e-02]]

  [[ 4.76473570e-02]]

  [[ 1.75520815e-02]]

  [[-7.13656191e-03]]

  [[ 5.87953366e-02]]

  [[ 9.64149460e-02]]

  [[ 2.43590511e-02]]

  [[ 2.63135545e-02]]

  [[-5.79145411e-03]]

  [[ 1.19483545e-02]]

  [[ 5.26006753e-03]]

  [[ 2.44124979e-02]]

  [[-2.57116016e-02]]

  [[ 4.65023005e-03]]

  [[-2.48840218e-03]]

  [[-1.83556434e-02]]

  [[-5.50686270e-02]]

  [[ 3.41607779e-02]]

  [[-1.79252382e-02]]

  [[-4.19816338e-02]]

  [[ 4.05862555e-02]]

  [[ 1.28486399e-02]]

  [[ 7.57053774e-03]]

  [[-5.36812693e-02]]

  [[-1.07116522e-02]]

  [[ 1.63281895e-02]]

  [[ 1.13877527e-01]]

  [[ 3.75550389e-02]]

  [[-8.36281553e-02]]

  [[-5.61226085e-02]]

  [[-4.69732843e-03]]

  [[ 4.46482049e-03]]

  [[ 3.08471490e-02]]

  [[-3.97420228e-02]]

  [[ 5.75449169e-02]]

  [[ 7.81552717e-02]]

  [[-4.95973043e-03]]

  [[-9.80566069e-03]]

  [[-7.52895419e-03]]

  [[ 9.65976063e-03]]

  [[-2.81879175e-02]]

  [[-7.58201070e-03]]

  [[-1.55861164e-02]]

  [[ 1.63717996e-02]]

  [[-1.45873986e-02]]

  [[-4.11984064e-02]]

  [[-6.09073639e-02]]

  [[ 4.53439988e-02]]

  [[ 2.54280809e-02]]

  [[ 7.84471184e-02]]

  [[ 3.66931781e-02]]

  [[ 3.08243860e-03]]

  [[ 1.74419973e-02]]

  [[-9.81487613e-03]]

  [[ 5.30552715e-02]]

  [[-2.43246946e-02]]

  [[-2.08138283e-02]]

  [[-9.13790148e-03]]

  [[ 5.76183610e-02]]

  [[ 2.30971295e-02]]

  [[-2.43549552e-02]]

  [[-3.84981632e-02]]

  [[ 1.90560520e-02]]

  [[ 2.26248298e-02]]

  [[ 2.49922574e-02]]

  [[ 1.21077327e-02]]

  [[ 5.28486893e-02]]

  [[-9.61852539e-03]]

  [[ 1.68169290e-02]]

  [[ 5.76318875e-02]]

  [[-2.65991576e-02]]

  [[ 7.52982199e-02]]

  [[ 2.76613478e-02]]

  [[ 8.41806754e-02]]

  [[ 4.77900915e-02]]

  [[ 1.38410705e-03]]

  [[-1.50682479e-02]]

  [[ 5.29836901e-02]]

  [[ 3.54998894e-02]]

  [[ 4.42560948e-02]]

  [[-1.30510470e-02]]

  [[-6.38738498e-02]]

  [[ 2.74280179e-02]]

  [[ 6.04781397e-02]]

  [[ 2.53897477e-02]]

  [[ 5.19613735e-04]]

  [[ 4.21553627e-02]]

  [[-3.62267457e-02]]

  [[ 1.38283679e-02]]

  [[-9.39055404e-04]]

  [[-3.15252729e-02]]

  [[-2.03401819e-02]]

  [[ 8.22767392e-02]]

  [[ 1.96356587e-02]]

  [[ 8.69086385e-02]]

  [[-3.42683420e-02]]

  [[ 3.70755233e-02]]

  [[-2.15623770e-02]]

  [[ 5.36493696e-02]]

  [[ 1.01238124e-01]]

  [[-2.96700504e-02]]

  [[ 5.77003472e-02]]

  [[-6.66232556e-02]]

  [[ 5.85793592e-02]]

  [[-9.32288840e-02]]

  [[ 3.80978696e-02]]

  [[ 2.37291143e-03]]

  [[-7.22096628e-03]]

  [[ 2.05331109e-02]]

  [[ 8.64271726e-03]]

  [[ 1.83113609e-02]]

  [[ 4.08241674e-02]]

  [[ 4.31744233e-02]]

  [[-2.24060938e-02]]

  [[ 1.01404246e-02]]

  [[ 3.26433219e-02]]

  [[ 2.22928766e-02]]

  [[ 4.94821146e-02]]

  [[ 4.29144539e-02]]

  [[ 3.37105766e-02]]

  [[-1.32438736e-02]]

  [[ 9.04331042e-04]]

  [[ 3.25815286e-04]]

  [[ 7.27363005e-02]]

  [[ 3.63557301e-02]]

  [[ 5.79121970e-02]]

  [[-2.84132939e-02]]

  [[ 2.85701398e-02]]

  [[ 2.74263564e-02]]

  [[ 7.20439628e-02]]

  [[-3.13663743e-02]]

  [[ 2.16175499e-03]]

  [[-6.75278949e-03]]

  [[-3.87199689e-03]]

  [[ 4.15300839e-02]]

  [[ 3.05278469e-02]]

  [[ 3.81224826e-02]]

  [[-6.80386648e-02]]

  [[ 4.67304699e-02]]

  [[ 7.25506712e-03]]

  [[ 1.99310631e-02]]

  [[ 1.72421075e-02]]

  [[-1.62860248e-02]]

  [[ 2.49857940e-02]]

  [[-2.55095307e-03]]

  [[ 6.66471124e-02]]

  [[-3.93560529e-03]]

  [[ 3.84723209e-02]]

  [[ 3.06229610e-02]]

  [[ 2.49562878e-02]]

  [[ 6.01341296e-03]]

  [[ 9.45606083e-03]]

  [[ 5.81616238e-02]]

  [[ 3.01087126e-02]]

  [[ 1.29566863e-02]]

  [[ 4.56380695e-02]]

  [[ 1.16146110e-01]]

  [[-3.33689824e-02]]

  [[ 2.05651615e-02]]

  [[ 4.19269167e-02]]

  [[ 1.09319359e-01]]

  [[ 4.20727208e-02]]

  [[ 1.46823395e-02]]

  [[ 1.07938619e-02]]

  [[-6.94794431e-02]]

  [[ 1.42875239e-02]]

  [[ 2.11090501e-02]]

  [[ 4.57432540e-03]]

  [[-2.00186539e-02]]

  [[-8.28714576e-03]]

  [[ 9.65680480e-02]]

  [[ 1.21068442e-03]]

  [[ 7.34101934e-03]]

  [[-1.50883161e-02]]

  [[ 8.90898798e-03]]

  [[ 1.55409556e-02]]

  [[ 3.83094884e-02]]

  [[-4.75879535e-02]]

  [[ 7.28911385e-02]]

  [[-1.96689740e-02]]

  [[-1.03577022e-02]]

  [[-5.80773056e-02]]

  [[ 6.13913201e-02]]

  [[ 8.11081082e-02]]

  [[ 4.77035530e-02]]

  [[ 2.58867885e-03]]

  [[ 8.96892771e-02]]

  [[ 5.94179425e-03]]

  [[-2.28137933e-02]]

  [[ 3.43197323e-02]]

  [[ 2.40586302e-03]]

  [[ 2.25735847e-02]]

  [[ 9.40751750e-03]]

  [[ 2.76903678e-02]]

  [[-1.03112087e-02]]

  [[ 4.81896810e-02]]

  [[-4.68036868e-02]]

  [[ 5.08832932e-02]]

  [[ 1.88795011e-02]]

  [[-9.76581406e-03]]

  [[ 1.83252320e-02]]

  [[-4.05511074e-03]]

  [[-4.09076884e-02]]

  [[-2.02244744e-02]]

  [[-5.26626175e-03]]

  [[-6.00586645e-03]]

  [[ 5.86191304e-02]]

  [[ 1.46611026e-02]]

  [[ 3.63132283e-02]]

  [[-1.24505407e-03]]

  [[-1.89724732e-02]]

  [[ 1.53444503e-02]]

  [[ 1.22598484e-02]]

  [[-2.60429997e-02]]

  [[ 2.91943867e-02]]

  [[ 2.36193202e-02]]

  [[ 4.03485857e-02]]

  [[-5.98748624e-02]]

  [[ 5.25996685e-02]]

  [[-1.95198245e-02]]

  [[-1.84242753e-03]]

  [[ 3.12542468e-02]]

  [[-1.42956255e-02]]

  [[ 7.40988413e-03]]

  [[ 2.76977327e-02]]

  [[ 6.59182221e-02]]

  [[-7.47777820e-02]]

  [[-6.58759549e-02]]

  [[ 1.98547281e-02]]

  [[-3.61996368e-02]]

  [[ 7.77811781e-02]]

  [[ 3.01549956e-03]]

  [[-8.46350333e-04]]

  [[ 1.10993013e-02]]

  [[-5.24315424e-02]]

  [[ 3.40306871e-02]]

  [[ 1.34298289e-02]]

  [[ 1.78463235e-02]]

  [[-1.77886207e-02]]

  [[ 2.78278198e-02]]

  [[-1.63549893e-02]]

  [[-4.52744924e-02]]

  [[ 4.30059992e-03]]

  [[ 6.97255284e-02]]

  [[ 3.92417870e-02]]

  [[-1.15084173e-02]]

  [[ 1.57331135e-02]]

  [[ 5.67527451e-02]]

  [[ 3.46645750e-02]]

  [[ 4.89884764e-02]]

  [[ 1.08912289e-02]]

  [[ 1.49242803e-02]]

  [[ 3.07345223e-02]]

  [[-3.82912392e-03]]

  [[ 4.55671065e-02]]

  [[-5.06546311e-02]]

  [[ 8.19360744e-03]]

  [[-3.78786353e-03]]

  [[ 5.56063168e-02]]

  [[ 1.37718404e-02]]

  [[ 1.18564498e-02]]

  [[-3.42289843e-02]]

  [[ 1.91764757e-02]]

  [[-3.19169313e-02]]

  [[-1.97307728e-02]]

  [[ 4.82756123e-02]]

  [[-1.18840700e-02]]

  [[-3.43449600e-02]]

  [[ 1.18716538e-01]]

  [[ 3.48624624e-02]]

  [[ 3.54696857e-03]]

  [[ 4.35246266e-02]]

  [[-2.71465853e-02]]

  [[ 1.92519708e-03]]

  [[ 2.17672456e-02]]

  [[ 1.24595672e-01]]

  [[-1.08234495e-01]]

  [[-3.04410197e-02]]

  [[-1.38705615e-02]]

  [[-4.28048037e-02]]

  [[-1.94451527e-03]]

  [[-2.75081769e-02]]

  [[ 1.43493097e-02]]

  [[-3.91796743e-03]]

  [[-4.62573804e-02]]

  [[-2.07862221e-02]]

  [[ 7.70452172e-02]]

  [[ 4.90551405e-02]]

  [[ 4.58327075e-03]]

  [[ 1.39325317e-02]]

  [[ 1.08369235e-02]]

  [[-3.81863490e-03]]

  [[ 1.20272160e-01]]

  [[ 4.12766077e-02]]

  [[-4.23461087e-02]]

  [[ 8.39222036e-03]]

  [[ 1.60789024e-03]]

  [[-1.10203156e-03]]

  [[ 4.06652354e-02]]

  [[-6.15900643e-02]]

  [[ 8.64135399e-02]]

  [[ 3.56725268e-02]]

  [[ 3.96850891e-02]]

  [[ 4.82376702e-02]]

  [[ 4.05496284e-02]]

  [[-1.21967793e-02]]

  [[ 5.10809459e-02]]

  [[ 1.29583618e-02]]

  [[ 5.63865863e-02]]

  [[ 4.42389473e-02]]

  [[ 1.88538320e-02]]

  [[ 2.11149715e-02]]

  [[-3.93054187e-02]]

  [[ 5.30932173e-02]]

  [[ 7.47109875e-02]]

  [[ 4.75271977e-02]]

  [[-1.05967652e-02]]

  [[-5.55931553e-02]]

  [[ 3.11271902e-02]]

  [[ 4.98011895e-02]]

  [[ 1.27735566e-02]]

  [[ 4.59893085e-02]]

  [[ 5.12558185e-02]]

  [[-3.50589887e-03]]

  [[ 4.17889245e-02]]

  [[ 3.56628187e-02]]

  [[ 5.53717911e-02]]

  [[-4.34602989e-04]]

  [[ 1.09038188e-03]]

  [[ 3.76519747e-03]]

  [[ 1.35478377e-02]]

  [[-4.28293608e-02]]

  [[-6.43380210e-02]]

  [[-1.47620905e-02]]

  [[-9.88892978e-04]]

  [[ 6.92962343e-03]]

  [[-4.43795919e-02]]

  [[ 4.49570687e-03]]

  [[ 5.39319590e-02]]

  [[-4.73258086e-02]]

  [[ 3.73527743e-02]]

  [[ 6.37317821e-02]]

  [[ 4.95326295e-02]]

  [[ 3.60140130e-02]]

  [[ 7.26847053e-02]]

  [[ 5.88407107e-02]]

  [[ 9.88973537e-04]]

  [[-4.91555855e-02]]

  [[ 1.70540661e-02]]

  [[ 1.42497625e-02]]

  [[ 6.74627302e-03]]

  [[-1.50645915e-02]]

  [[ 1.55156180e-02]]

  [[ 5.71113303e-02]]

  [[-1.26681449e-02]]

  [[-3.62629965e-02]]

  [[ 6.79841191e-02]]

  [[ 1.74330905e-01]]

  [[ 2.14256551e-02]]

  [[-4.29626554e-03]]

  [[ 2.87029725e-02]]

  [[-1.00848414e-02]]

  [[ 3.49019356e-02]]

  [[ 3.81604508e-02]]

  [[ 2.58308537e-02]]

  [[-5.07444842e-03]]

  [[-4.57573719e-02]]

  [[-1.69150904e-02]]

  [[-8.22134782e-03]]

  [[ 7.21501186e-03]]

  [[ 3.17777507e-02]]

  [[ 6.15919232e-01]]

  [[ 5.95661290e-02]]

  [[ 2.63460539e-02]]

  [[ 5.24235005e-03]]

  [[ 3.30462195e-02]]

  [[-9.88965482e-03]]

  [[ 9.34343711e-02]]

  [[ 2.61020730e-03]]

  [[ 8.24781414e-03]]

  [[-2.65721623e-02]]

  [[-6.78553199e-03]]

  [[ 9.45139006e-02]]

  [[-6.12777025e-02]]

  [[-5.89412525e-02]]

  [[ 8.70651379e-02]]

  [[ 1.93945058e-02]]

  [[ 1.50950504e-02]]

  [[-1.95985325e-02]]

  [[ 9.04408917e-02]]]


 [[[ 7.21832514e-02]]

  [[ 3.53783034e-02]]

  [[ 2.31754910e-02]]

  [[ 2.78319046e-02]]

  [[ 6.30540326e-02]]

  [[ 1.73555184e-02]]

  [[ 3.39909494e-02]]

  [[ 4.07507196e-02]]

  [[ 3.30466963e-02]]

  [[ 3.40970233e-03]]

  [[-8.87103658e-03]]

  [[ 2.47173589e-02]]

  [[ 2.04483070e-03]]

  [[-2.65010465e-02]]

  [[ 4.56029996e-02]]

  [[ 4.16424911e-04]]

  [[ 5.64883575e-02]]

  [[ 5.61228022e-02]]

  [[ 5.20692021e-02]]

  [[ 3.42583880e-02]]

  [[ 2.14087628e-02]]

  [[ 1.07906582e-02]]

  [[ 4.92846258e-02]]

  [[-1.21945729e-02]]

  [[ 2.97376327e-02]]

  [[ 3.85162681e-02]]

  [[ 5.09396836e-04]]

  [[ 5.35092689e-02]]

  [[ 3.98052335e-02]]

  [[ 2.70921104e-02]]

  [[ 3.85100991e-02]]

  [[-3.85705288e-03]]

  [[ 1.00051403e-01]]

  [[ 4.85179722e-02]]

  [[ 1.85355414e-02]]

  [[ 3.96011844e-02]]

  [[ 4.92213070e-02]]

  [[ 3.31755057e-02]]

  [[-1.54058682e-03]]

  [[ 4.46831398e-02]]

  [[ 5.10718580e-03]]

  [[ 8.03028420e-03]]

  [[ 2.10023932e-02]]

  [[ 3.74193676e-02]]

  [[ 1.22740334e-02]]

  [[ 2.78050937e-02]]

  [[ 2.26324126e-02]]

  [[ 4.58756685e-02]]

  [[-1.48484698e-02]]

  [[ 5.74154407e-02]]

  [[ 3.98825966e-02]]

  [[ 2.13633850e-02]]

  [[ 2.64509507e-02]]

  [[ 1.73122957e-02]]

  [[-8.44346918e-03]]

  [[ 7.53507987e-02]]

  [[-1.50886197e-02]]

  [[ 9.46609862e-03]]

  [[ 9.30690393e-03]]

  [[ 5.47459498e-02]]

  [[ 2.22692266e-02]]

  [[ 2.65050419e-02]]

  [[ 4.71839197e-02]]

  [[ 1.00293746e-02]]

  [[ 1.82624191e-01]]

  [[ 1.54845724e-02]]

  [[ 9.73558202e-02]]

  [[ 3.33373919e-02]]

  [[ 4.60303314e-02]]

  [[-1.34887639e-02]]

  [[ 2.72612944e-02]]

  [[ 4.31500450e-02]]

  [[ 2.68969554e-02]]

  [[ 5.59259951e-02]]

  [[ 3.78936306e-02]]

  [[ 4.06351611e-02]]

  [[ 2.86273919e-02]]

  [[-3.54848094e-02]]

  [[ 1.86745953e-02]]

  [[ 2.28364225e-02]]

  [[ 5.50641567e-02]]

  [[-4.29309119e-04]]

  [[ 2.90540121e-02]]

  [[ 2.27717832e-01]]

  [[ 2.98452396e-02]]

  [[ 2.99690589e-02]]

  [[ 5.83551675e-02]]

  [[ 4.51153982e-03]]

  [[ 4.66594920e-02]]

  [[ 2.82160398e-02]]

  [[-2.06128396e-02]]

  [[ 5.65279834e-03]]

  [[ 1.06977567e-01]]

  [[ 1.28309038e-02]]

  [[ 1.27029466e-02]]

  [[ 3.00873257e-02]]

  [[ 5.04763424e-02]]

  [[ 2.47772224e-02]]

  [[ 1.80322621e-02]]

  [[ 4.95576225e-02]]

  [[ 3.53286304e-02]]

  [[ 5.25087714e-02]]

  [[ 2.08222717e-02]]

  [[ 7.03675598e-02]]

  [[ 2.19007395e-02]]

  [[ 3.40667404e-02]]

  [[-3.10935397e-02]]

  [[ 9.85456929e-02]]

  [[ 1.57905035e-02]]

  [[ 7.50419199e-02]]

  [[ 1.96339600e-02]]

  [[ 2.95703374e-02]]

  [[ 9.16797388e-03]]

  [[ 1.62879564e-02]]

  [[ 4.03845049e-02]]

  [[-4.29464616e-02]]

  [[ 9.23726987e-03]]

  [[-3.85003425e-02]]

  [[ 3.92524712e-02]]

  [[ 3.57409641e-02]]

  [[ 2.00367179e-02]]

  [[ 1.27098141e-02]]

  [[ 4.76731472e-02]]

  [[ 4.61352840e-02]]

  [[ 1.26110658e-01]]

  [[ 1.09794568e-02]]

  [[-4.94187176e-02]]

  [[-4.44657952e-02]]

  [[-3.60849430e-03]]

  [[ 3.57283540e-02]]

  [[-2.79014651e-02]]

  [[ 3.14992554e-02]]

  [[ 4.99150530e-02]]

  [[ 4.60516736e-02]]

  [[ 7.85987750e-02]]

  [[ 1.07682399e-01]]

  [[ 3.61893922e-02]]

  [[ 2.92637311e-02]]

  [[ 3.20739299e-02]]

  [[ 2.26826202e-02]]

  [[-1.38217944e-03]]

  [[ 3.31213474e-02]]

  [[ 3.33210565e-02]]

  [[ 1.30294869e-02]]

  [[ 6.55897111e-02]]

  [[-2.61676144e-02]]

  [[-2.05589272e-02]]

  [[ 6.78587854e-02]]

  [[ 3.40242386e-02]]

  [[ 9.83372331e-02]]

  [[ 1.07417768e-02]]

  [[ 6.78607374e-02]]

  [[ 9.83334035e-02]]

  [[ 7.12602362e-02]]

  [[-1.88924663e-04]]

  [[ 2.67590117e-02]]

  [[ 1.61709432e-02]]

  [[-1.60452761e-02]]

  [[-1.04642473e-03]]

  [[ 1.69368908e-02]]

  [[ 2.21796222e-02]]

  [[ 3.88572253e-02]]

  [[ 2.63917539e-02]]

  [[-1.49840245e-03]]

  [[-1.07713565e-02]]

  [[-4.96836677e-02]]

  [[-1.02366731e-02]]

  [[ 7.20170559e-03]]

  [[ 4.62890901e-02]]

  [[-1.51177775e-02]]

  [[ 1.34797569e-03]]

  [[ 2.52096951e-02]]

  [[ 4.16963547e-02]]

  [[ 5.79151772e-02]]

  [[ 2.69357990e-02]]

  [[ 2.12132335e-02]]

  [[ 1.08754579e-02]]

  [[ 6.79450780e-02]]

  [[-4.20287251e-02]]

  [[ 4.03122231e-02]]

  [[ 8.22778270e-02]]

  [[ 3.01779527e-02]]

  [[ 1.02690011e-02]]

  [[ 4.17398177e-02]]

  [[-2.72177458e-02]]

  [[ 4.50918861e-02]]

  [[ 2.15915795e-02]]

  [[ 7.73249473e-03]]

  [[ 6.45885393e-02]]

  [[-1.05054500e-02]]

  [[-3.90128046e-02]]

  [[ 3.69289443e-02]]

  [[ 5.62748276e-02]]

  [[ 1.78617463e-02]]

  [[ 3.45415473e-02]]

  [[-9.71124601e-03]]

  [[ 4.61194851e-02]]

  [[ 2.14045532e-02]]

  [[ 1.96889751e-02]]

  [[ 2.11576112e-02]]

  [[ 5.52914515e-02]]

  [[ 1.04409587e-02]]

  [[ 1.56096807e-02]]

  [[ 1.68381247e-03]]

  [[ 4.35665026e-02]]

  [[ 3.63591239e-02]]

  [[ 3.75721417e-02]]

  [[ 3.01729497e-02]]

  [[-1.16322972e-02]]

  [[ 2.94144116e-02]]

  [[ 9.52192321e-02]]

  [[ 4.67538536e-02]]

  [[ 1.37565602e-02]]

  [[ 1.87791381e-02]]

  [[ 2.58396124e-03]]

  [[-5.93979768e-02]]

  [[ 2.03340687e-02]]

  [[-8.78438540e-03]]

  [[ 4.56273509e-03]]

  [[ 6.93668127e-02]]

  [[-8.19788426e-02]]

  [[ 3.21469493e-02]]

  [[ 2.03183834e-02]]

  [[ 1.27907451e-02]]

  [[ 9.73770302e-03]]

  [[-2.03176159e-02]]

  [[ 1.21197989e-02]]

  [[ 4.04781252e-02]]

  [[-7.62939744e-04]]

  [[-5.47649991e-03]]

  [[ 1.29584726e-02]]

  [[-2.75722775e-03]]

  [[ 3.29203233e-02]]

  [[ 4.79935631e-02]]

  [[-5.70176095e-02]]

  [[ 3.94467786e-02]]

  [[ 9.36199427e-02]]

  [[ 7.64542352e-03]]

  [[-1.23368185e-02]]

  [[ 3.44692357e-02]]

  [[ 3.05234678e-02]]

  [[ 2.12286022e-02]]

  [[ 1.00864455e-01]]

  [[ 3.18926498e-02]]

  [[ 6.31582960e-02]]

  [[ 5.49735734e-04]]

  [[ 4.17073183e-02]]

  [[ 5.91161326e-02]]

  [[ 4.16245833e-02]]

  [[-1.90090537e-02]]

  [[ 6.57006213e-03]]

  [[ 1.69622879e-02]]

  [[ 3.47372182e-02]]

  [[ 1.46955550e-01]]

  [[-8.06707190e-04]]

  [[ 4.50261030e-03]]

  [[ 3.02385655e-03]]

  [[ 9.04812440e-02]]

  [[ 1.98855214e-02]]

  [[-1.66431479e-02]]

  [[ 1.90891363e-02]]

  [[ 1.15112839e-02]]

  [[ 4.37068375e-04]]

  [[-3.78606394e-02]]

  [[ 8.63912031e-02]]

  [[ 6.25725882e-03]]

  [[ 9.65891813e-04]]

  [[-3.48924063e-02]]

  [[ 1.17115406e-02]]

  [[ 4.02032994e-02]]

  [[ 5.25184199e-02]]

  [[-7.27210566e-03]]

  [[ 3.34702358e-02]]

  [[-1.01788994e-03]]

  [[ 3.15652415e-02]]

  [[ 2.37964150e-02]]

  [[-2.11413261e-02]]

  [[ 3.59592997e-02]]

  [[ 1.79341231e-02]]

  [[ 1.17078107e-02]]

  [[-9.30141006e-03]]

  [[ 1.61566287e-02]]

  [[-1.38175394e-02]]

  [[ 3.22511308e-02]]

  [[ 4.10901047e-02]]

  [[-1.48999132e-02]]

  [[ 3.13954391e-02]]

  [[-9.22549982e-03]]

  [[ 6.64988086e-02]]

  [[ 3.84234451e-02]]

  [[-1.56028017e-01]]

  [[ 3.80558148e-02]]

  [[ 6.88700899e-02]]

  [[ 7.36065907e-03]]

  [[ 1.50936931e-01]]

  [[ 4.31779511e-02]]

  [[ 1.96888410e-02]]

  [[-1.24995047e-02]]

  [[ 4.90202662e-03]]

  [[ 3.45483273e-02]]

  [[ 1.51766790e-02]]

  [[ 4.29168344e-02]]

  [[ 2.32345574e-02]]

  [[ 3.52633633e-02]]

  [[ 3.49473469e-02]]

  [[-1.71486158e-02]]

  [[-3.62735614e-02]]

  [[ 6.34412169e-02]]

  [[-3.01323412e-03]]

  [[ 2.95884404e-02]]

  [[ 8.59915838e-02]]

  [[ 1.08430587e-01]]

  [[-1.98027156e-02]]

  [[ 4.11831290e-02]]

  [[ 2.61044614e-02]]

  [[-3.30991820e-02]]

  [[ 4.28463370e-02]]

  [[ 2.98837246e-03]]

  [[ 5.18119596e-02]]

  [[ 9.21475980e-03]]

  [[ 1.07588489e-02]]

  [[ 1.80505365e-02]]

  [[ 2.03174371e-02]]

  [[ 5.99065423e-02]]

  [[ 5.21600954e-02]]

  [[-9.06887464e-03]]

  [[-2.42964015e-03]]

  [[ 4.26381044e-02]]

  [[-1.98620260e-02]]

  [[ 1.12747528e-01]]

  [[ 9.87672992e-03]]

  [[ 4.61155996e-02]]

  [[ 3.05027980e-02]]

  [[-1.53679494e-02]]

  [[ 2.37917509e-02]]

  [[-6.39136555e-03]]

  [[ 3.75233367e-02]]

  [[ 2.69424655e-02]]

  [[-8.71631224e-03]]

  [[ 1.53355561e-02]]

  [[ 5.69674838e-03]]

  [[ 2.34496836e-02]]

  [[ 2.81165112e-02]]

  [[-2.23523937e-02]]

  [[ 3.65219675e-02]]

  [[ 1.31230913e-02]]

  [[-1.08408248e-02]]

  [[ 4.17560674e-02]]

  [[ 5.67347743e-04]]

  [[ 2.66108774e-02]]

  [[ 1.92566216e-02]]

  [[ 1.55308312e-02]]

  [[ 1.36417132e-02]]

  [[ 3.87427658e-02]]

  [[ 4.57553305e-02]]

  [[ 7.47652501e-02]]

  [[-3.92027870e-02]]

  [[ 2.94658486e-02]]

  [[ 6.59225062e-02]]

  [[-7.67422691e-02]]

  [[ 3.41846049e-02]]

  [[ 4.40171047e-04]]

  [[-4.47855983e-03]]

  [[ 1.18874917e-02]]

  [[ 8.44334159e-03]]

  [[ 1.75382420e-02]]

  [[-4.39408049e-03]]

  [[-1.16679912e-04]]

  [[ 5.39728515e-02]]

  [[-2.08456405e-02]]

  [[-6.01669261e-03]]

  [[ 1.75212435e-02]]

  [[-3.17294709e-02]]

  [[ 1.23573258e-03]]

  [[ 1.14550479e-01]]

  [[ 1.23849595e-02]]

  [[ 4.72026393e-02]]

  [[-2.20801793e-02]]

  [[ 6.87315837e-02]]

  [[ 2.11886223e-02]]

  [[ 4.30034474e-02]]

  [[-2.94400472e-02]]

  [[-1.23409126e-02]]

  [[-2.11151559e-02]]

  [[ 4.81795147e-02]]

  [[ 3.76033448e-02]]

  [[-1.43270344e-02]]

  [[ 1.34684136e-02]]

  [[ 2.03435142e-02]]

  [[-8.02966673e-03]]

  [[ 5.02258353e-02]]

  [[ 1.44458534e-02]]

  [[-4.44920594e-03]]

  [[-2.97799241e-02]]

  [[-3.51493218e-04]]

  [[ 5.64916208e-02]]

  [[-1.82566885e-02]]

  [[ 8.31348076e-03]]

  [[ 3.33356597e-02]]

  [[-2.14841459e-02]]

  [[ 3.49140391e-02]]

  [[ 3.42785306e-02]]

  [[-2.26391908e-02]]

  [[ 5.30949198e-02]]

  [[-6.52327761e-02]]

  [[-2.42890194e-02]]

  [[ 2.27187034e-02]]

  [[ 2.56402232e-02]]

  [[ 7.01048551e-03]]

  [[ 1.93724670e-02]]

  [[-1.21875778e-02]]

  [[ 4.15860824e-02]]

  [[-2.57159751e-02]]

  [[-5.58114145e-03]]

  [[-1.25452857e-02]]

  [[-3.58267571e-03]]

  [[ 4.48223352e-02]]

  [[ 7.21329125e-03]]

  [[ 2.02137809e-02]]

  [[ 1.52449152e-02]]

  [[ 7.53785968e-02]]

  [[ 1.13673303e-02]]

  [[-9.22615174e-03]]

  [[ 4.95307818e-02]]

  [[-2.41771415e-02]]

  [[ 9.72783717e-04]]

  [[ 2.52879299e-02]]

  [[ 2.69479994e-02]]

  [[-1.44968005e-02]]

  [[ 1.68158468e-02]]

  [[ 3.20329107e-02]]

  [[-2.42740698e-02]]

  [[ 4.91420319e-03]]

  [[ 1.53285354e-01]]

  [[ 2.88763959e-02]]

  [[ 3.36907879e-02]]

  [[ 1.03677297e-02]]

  [[ 4.24943119e-02]]

  [[ 5.34956940e-02]]

  [[ 1.92131121e-02]]

  [[ 4.89489883e-02]]

  [[ 2.80587026e-03]]

  [[ 1.18613187e-02]]

  [[ 1.89799871e-02]]

  [[-9.19337943e-03]]

  [[ 5.03938552e-03]]

  [[ 4.36704382e-02]]

  [[ 2.47234162e-02]]

  [[ 3.67604382e-03]]

  [[ 5.35253733e-02]]

  [[-8.32890719e-03]]

  [[ 1.69263780e-02]]

  [[ 3.82708609e-02]]

  [[ 9.19920951e-03]]

  [[-1.79179776e-02]]

  [[-1.09232469e-02]]

  [[ 1.57340635e-02]]

  [[-9.65184299e-04]]

  [[ 1.16395513e-02]]

  [[ 5.65180443e-02]]

  [[ 7.13732839e-02]]

  [[-7.34632881e-03]]

  [[-1.28574129e-02]]

  [[ 3.03547401e-02]]

  [[-3.98019738e-02]]

  [[-5.57773523e-02]]

  [[ 2.47705635e-02]]

  [[ 3.66629474e-02]]

  [[-2.62550451e-02]]

  [[-1.44449929e-02]]

  [[-1.72676127e-02]]

  [[ 1.72639247e-02]]

  [[-7.77783571e-05]]

  [[ 4.68029539e-05]]

  [[ 1.72514878e-02]]

  [[ 7.93613493e-02]]

  [[ 6.68954384e-03]]

  [[ 2.50302702e-02]]

  [[-8.36622491e-02]]

  [[-5.11192493e-02]]

  [[-1.82575136e-02]]

  [[-3.66368815e-02]]

  [[ 5.85074835e-02]]

  [[-1.46538327e-02]]

  [[ 1.47667462e-02]]

  [[ 1.68991257e-02]]

  [[-9.22705159e-02]]

  [[-4.74292645e-03]]

  [[ 2.33304258e-02]]

  [[-5.95854819e-02]]

  [[ 5.67189418e-02]]

  [[ 2.89988816e-02]]

  [[-3.32485419e-03]]

  [[-4.74284515e-02]]

  [[ 3.11341807e-02]]

  [[-2.54885405e-02]]

  [[ 3.01836375e-02]]

  [[ 8.29408914e-02]]

  [[-8.52825679e-03]]

  [[-3.15718725e-02]]

  [[-3.90411317e-02]]

  [[ 5.22869290e-04]]

  [[-9.76319332e-03]]

  [[ 1.24068838e-02]]

  [[ 3.55985984e-02]]

  [[-1.04306955e-02]]

  [[-4.95715775e-02]]

  [[-2.75296923e-02]]

  [[ 2.06979904e-02]]

  [[ 7.13628531e-02]]

  [[ 6.34083152e-02]]

  [[ 8.62888154e-03]]

  [[-3.01309898e-02]]

  [[ 4.96383011e-02]]

  [[-5.50229521e-03]]

  [[-1.12878634e-02]]

  [[-1.20442202e-02]]

  [[-5.96785210e-02]]

  [[ 1.35054300e-02]]

  [[ 4.26827706e-02]]

  [[-4.87717874e-02]]

  [[ 3.89730781e-02]]

  [[-1.69160999e-02]]

  [[ 3.38890776e-03]]

  [[ 5.87271014e-03]]

  [[ 2.35933159e-02]]

  [[ 1.64490864e-02]]

  [[-2.25484502e-02]]

  [[ 7.19796354e-03]]

  [[ 1.12365754e-02]]

  [[ 3.89601700e-02]]

  [[ 6.36613443e-02]]

  [[-1.62958559e-02]]

  [[-4.77742292e-02]]

  [[ 8.56493507e-03]]

  [[ 3.36064585e-02]]

  [[ 2.19226833e-02]]

  [[ 2.98077408e-02]]

  [[-7.82811046e-02]]

  [[-7.62968464e-03]]

  [[ 1.02297284e-01]]

  [[ 2.35640090e-02]]

  [[-7.04282336e-03]]

  [[-9.59187225e-02]]

  [[-1.04060778e-02]]

  [[-6.06752038e-02]]

  [[-8.82225670e-03]]

  [[-6.19057901e-02]]

  [[-4.04136069e-02]]

  [[-2.66483091e-02]]

  [[-5.16406074e-02]]

  [[ 3.77366729e-02]]

  [[ 7.53172580e-03]]

  [[-3.47164609e-02]]

  [[ 8.08561128e-03]]

  [[ 2.52581835e-02]]

  [[ 1.79569703e-02]]

  [[ 4.37054783e-02]]

  [[ 2.88887396e-02]]

  [[ 1.83820073e-02]]

  [[-1.48347486e-02]]

  [[ 4.39569950e-02]]

  [[-2.98176147e-03]]

  [[ 6.19672425e-02]]

  [[ 3.68938930e-02]]

  [[ 4.71886285e-02]]

  [[ 8.18166211e-02]]

  [[-3.51856388e-02]]

  [[ 5.57022728e-02]]

  [[-1.34143099e-01]]

  [[-7.47918757e-03]]

  [[-2.12451015e-02]]

  [[ 3.79426628e-02]]

  [[ 3.12275868e-02]]

  [[-2.11055558e-02]]

  [[ 6.89673126e-02]]

  [[-3.64936292e-02]]

  [[-9.38263815e-03]]

  [[ 3.42900157e-02]]

  [[-1.74876936e-02]]

  [[-3.96218002e-02]]

  [[ 1.01945680e-02]]

  [[ 6.29624277e-02]]

  [[ 6.55005351e-02]]

  [[-2.62786285e-03]]

  [[-7.42738172e-02]]

  [[ 1.45046012e-02]]

  [[ 6.21258244e-02]]

  [[ 7.63487965e-02]]

  [[-4.99458611e-02]]

  [[-3.57346237e-03]]

  [[ 3.10206637e-02]]

  [[ 3.32503095e-02]]

  [[-2.87480792e-03]]

  [[ 5.97830303e-02]]

  [[-9.41024814e-03]]

  [[-2.20913570e-02]]

  [[ 4.13376465e-02]]

  [[-1.66522637e-02]]

  [[ 5.71387596e-02]]

  [[-1.85057018e-02]]

  [[ 1.99603103e-02]]

  [[ 8.86436645e-03]]

  [[ 1.76412072e-02]]

  [[ 4.21142839e-02]]

  [[ 2.94074565e-02]]

  [[ 6.83678091e-02]]

  [[ 2.88280044e-02]]

  [[-2.63345335e-02]]

  [[-5.90053061e-03]]

  [[-2.25297343e-02]]

  [[ 1.86338276e-02]]

  [[ 5.04118623e-03]]

  [[-4.28753383e-02]]

  [[-8.39964673e-02]]

  [[-1.62672065e-02]]

  [[ 9.18406770e-02]]

  [[-1.44245997e-02]]

  [[ 2.83753518e-02]]

  [[-2.82900296e-02]]

  [[ 4.37277406e-02]]

  [[-1.68659892e-02]]

  [[ 8.61156732e-02]]

  [[ 3.51848602e-02]]

  [[ 1.89446453e-02]]

  [[ 7.36229271e-02]]

  [[ 3.73588465e-02]]

  [[ 5.96052222e-02]]

  [[-1.40519412e-02]]

  [[-2.14619264e-02]]

  [[ 6.50039539e-02]]

  [[ 3.22217122e-02]]

  [[ 4.31018770e-02]]

  [[ 2.47759204e-02]]

  [[ 3.06431260e-02]]

  [[ 4.07818779e-02]]

  [[-5.77518763e-03]]

  [[-3.55855376e-02]]

  [[ 7.91258272e-03]]

  [[ 1.44306168e-01]]

  [[ 3.49947810e-02]]

  [[-1.16527360e-02]]

  [[ 7.37667456e-02]]

  [[-4.70349332e-03]]

  [[ 4.48971279e-02]]

  [[-2.82820361e-03]]

  [[ 5.64399175e-02]]

  [[-7.24225342e-02]]

  [[-2.30648220e-02]]

  [[ 3.25971358e-02]]

  [[ 2.18496155e-02]]

  [[-4.72987294e-02]]

  [[ 4.00636205e-03]]

  [[ 5.79443157e-01]]

  [[ 1.50097697e-03]]

  [[ 2.82612946e-02]]

  [[ 6.23288937e-02]]

  [[-4.91956424e-04]]

  [[ 5.44972904e-02]]

  [[-3.97593761e-03]]

  [[ 7.70447329e-02]]

  [[ 6.17471635e-02]]

  [[-5.56812026e-02]]

  [[ 2.48160935e-03]]

  [[ 1.91196315e-02]]

  [[-4.04072106e-02]]

  [[ 2.99207610e-03]]

  [[ 5.00154309e-02]]

  [[-3.65841798e-02]]

  [[ 2.62106583e-02]]

  [[ 1.29281282e-01]]

  [[ 5.25566526e-02]]]


 [[[ 2.61679199e-02]]

  [[ 3.66965355e-03]]

  [[-1.05200009e-02]]

  [[ 3.11309360e-02]]

  [[-9.92628187e-03]]

  [[-3.80885601e-02]]

  [[-7.12580681e-02]]

  [[-5.08460850e-02]]

  [[-4.10103798e-03]]

  [[ 4.21563443e-03]]

  [[ 2.30450761e-02]]

  [[-5.14639402e-03]]

  [[-2.83651613e-02]]

  [[ 2.12149266e-02]]

  [[ 9.22593102e-03]]

  [[ 7.70616904e-02]]

  [[ 2.51271278e-02]]

  [[ 1.47111584e-02]]

  [[-1.13480713e-03]]

  [[ 1.78748280e-01]]

  [[-1.16248978e-02]]

  [[-3.80282439e-02]]

  [[ 1.52313123e-02]]

  [[-2.20430009e-02]]

  [[-4.28950181e-03]]

  [[-5.38440188e-03]]

  [[ 4.07277420e-02]]

  [[-3.11787780e-02]]

  [[-1.04412530e-02]]

  [[-1.57002248e-02]]

  [[ 2.65987962e-02]]

  [[-2.85433233e-02]]

  [[ 4.36417758e-02]]

  [[-8.06657877e-03]]

  [[-1.32868597e-02]]

  [[-7.16842990e-03]]

  [[-1.20278718e-02]]

  [[ 2.25442071e-02]]

  [[-6.58778334e-03]]

  [[-1.76989082e-02]]

  [[ 3.27173690e-03]]

  [[-3.64372544e-02]]

  [[ 1.81532446e-02]]

  [[ 1.23046227e-02]]

  [[-6.13717437e-02]]

  [[-7.75452033e-02]]

  [[ 1.02284160e-02]]

  [[ 1.06830746e-02]]

  [[ 3.62930298e-02]]

  [[-1.59772821e-02]]

  [[-3.27964239e-02]]

  [[-1.41770439e-02]]

  [[ 1.88115500e-02]]

  [[-7.46884150e-03]]

  [[ 2.00494062e-02]]

  [[ 7.58958235e-02]]

  [[ 5.27662784e-02]]

  [[-1.27324443e-02]]

  [[-4.22385484e-02]]

  [[-8.33078846e-02]]

  [[-8.15179572e-03]]

  [[ 1.65876634e-02]]

  [[-5.72889531e-03]]

  [[ 6.34300858e-02]]

  [[-4.89306124e-03]]

  [[ 1.63246263e-02]]

  [[ 6.86127171e-02]]

  [[-1.11932699e-02]]

  [[ 1.25265017e-01]]

  [[-2.05994807e-02]]

  [[-4.59482484e-02]]

  [[-6.27581123e-03]]

  [[ 1.90388449e-02]]

  [[ 3.37068178e-02]]

  [[-3.97421345e-02]]

  [[ 1.41714932e-02]]

  [[ 2.55205017e-02]]

  [[ 5.16291708e-02]]

  [[ 3.50604719e-03]]

  [[ 1.48579795e-02]]

  [[ 7.07399286e-03]]

  [[-5.94708696e-02]]

  [[-6.82546617e-03]]

  [[-1.89080201e-02]]

  [[-5.51623804e-03]]

  [[ 6.94988668e-03]]

  [[-3.73593136e-03]]

  [[ 1.43718449e-02]]

  [[-2.71148700e-02]]

  [[-1.21769002e-02]]

  [[ 1.08210174e-02]]

  [[-1.35230487e-02]]

  [[-1.18178099e-01]]

  [[ 4.91274931e-02]]

  [[-7.21346959e-02]]

  [[ 8.77771154e-03]]

  [[-3.24216019e-03]]

  [[ 4.78772586e-03]]

  [[-4.20796052e-02]]

  [[-2.37918869e-02]]

  [[-2.01209355e-02]]

  [[-1.61651690e-02]]

  [[ 1.07645348e-01]]

  [[ 3.47877368e-02]]

  [[-2.39953697e-02]]

  [[ 1.61385443e-02]]

  [[-6.28650188e-02]]

  [[ 1.26371467e-02]]

  [[-2.00272258e-02]]

  [[-2.64093075e-02]]

  [[ 1.20794773e-02]]

  [[-1.40618058e-02]]

  [[-3.68167683e-02]]

  [[ 1.44229438e-02]]

  [[-6.96290880e-02]]

  [[ 1.69305783e-02]]

  [[-2.88658403e-03]]

  [[ 1.74333237e-03]]

  [[ 4.75652106e-02]]

  [[-2.98216157e-02]]

  [[ 3.06110680e-02]]

  [[ 1.43317863e-01]]

  [[-5.48990369e-02]]

  [[-3.15569527e-02]]

  [[-3.89331914e-02]]

  [[ 6.32442534e-03]]

  [[-3.83257717e-02]]

  [[ 6.27868399e-02]]

  [[-2.78733317e-02]]

  [[ 3.04232264e-04]]

  [[ 1.14573970e-01]]

  [[ 2.84393132e-02]]

  [[-1.24326004e-02]]

  [[ 1.36554176e-02]]

  [[-1.78673919e-02]]

  [[-2.73426087e-03]]

  [[-1.86688248e-02]]

  [[-5.95072694e-02]]

  [[ 8.37687626e-02]]

  [[-8.84875748e-03]]

  [[-1.18702196e-03]]

  [[-3.33040841e-02]]

  [[ 2.36351807e-02]]

  [[-2.01999777e-04]]

  [[-8.56617652e-03]]

  [[-5.54008149e-02]]

  [[-8.13616216e-02]]

  [[ 8.35675187e-03]]

  [[ 1.80941615e-02]]

  [[-2.71310844e-02]]

  [[-1.93173829e-02]]

  [[ 5.98311052e-02]]

  [[ 1.11999863e-03]]

  [[-4.27383045e-03]]

  [[-4.35677730e-03]]

  [[-2.49376800e-02]]

  [[-9.59641766e-03]]

  [[-1.90348923e-02]]

  [[-1.91023923e-03]]

  [[ 1.05594825e-02]]

  [[ 9.78755876e-02]]

  [[ 1.63950175e-02]]

  [[-2.75432207e-02]]

  [[ 1.85178518e-02]]

  [[-1.17460405e-02]]

  [[ 1.48313465e-02]]

  [[-1.53976195e-02]]

  [[ 2.88801305e-02]]

  [[-1.29439216e-02]]

  [[ 6.07679412e-02]]

  [[ 2.55673453e-02]]

  [[-2.73105763e-02]]

  [[-6.16141520e-02]]

  [[-1.87603862e-03]]

  [[ 5.04596066e-03]]

  [[-3.18456651e-03]]

  [[-9.14112553e-02]]

  [[-3.31299752e-02]]

  [[-6.70220051e-03]]

  [[-4.96628806e-02]]

  [[-6.46877363e-02]]

  [[-2.56134360e-03]]

  [[-5.91606759e-02]]

  [[ 5.90663366e-02]]

  [[-5.45560345e-02]]

  [[-2.82333996e-02]]

  [[-5.20093134e-03]]

  [[ 1.20270122e-02]]

  [[ 5.83961466e-03]]

  [[ 2.27710139e-02]]

  [[ 3.08704525e-02]]

  [[-1.41817397e-02]]

  [[ 2.48843096e-02]]

  [[ 1.20916385e-02]]

  [[ 1.00137275e-02]]

  [[ 1.50114559e-02]]

  [[-1.82181690e-02]]

  [[-5.00310250e-02]]

  [[ 2.86294869e-03]]

  [[-1.30758400e-03]]

  [[-1.95554458e-03]]

  [[ 6.39382610e-03]]

  [[-1.01382188e-01]]

  [[-1.57957841e-02]]

  [[ 2.35393364e-02]]

  [[ 4.58162427e-02]]

  [[-5.76083325e-02]]

  [[-1.45275481e-02]]

  [[-3.99604533e-03]]

  [[-9.53443442e-03]]

  [[ 3.63846757e-02]]

  [[ 3.80878188e-02]]

  [[ 9.18931141e-03]]

  [[ 1.82352532e-02]]

  [[ 2.12234017e-02]]

  [[-9.77106579e-03]]

  [[-2.35321047e-03]]

  [[-1.18077570e-03]]

  [[ 8.33688676e-03]]

  [[ 7.06787705e-02]]

  [[ 6.92992378e-03]]

  [[ 2.58895680e-02]]

  [[ 2.05293130e-02]]

  [[ 1.27671361e-02]]

  [[ 3.02765472e-03]]

  [[ 1.19159877e-01]]

  [[ 1.79382470e-02]]

  [[-6.31720647e-02]]

  [[-2.45143920e-02]]

  [[-1.39950225e-02]]

  [[ 1.86372045e-02]]

  [[ 2.78069582e-02]]

  [[ 1.55074783e-02]]

  [[-3.49912886e-03]]

  [[ 1.38756982e-03]]

  [[-2.89236009e-02]]

  [[ 2.95763894e-04]]

  [[ 3.90662365e-02]]

  [[ 1.30631337e-02]]

  [[ 9.38616460e-04]]

  [[ 8.20020027e-03]]

  [[ 8.48971028e-03]]

  [[ 2.62923725e-02]]

  [[-4.98251952e-02]]

  [[ 3.99816129e-03]]

  [[ 1.06726205e-02]]

  [[-1.30706094e-02]]

  [[-4.76184338e-02]]

  [[ 2.15367191e-02]]

  [[-8.42590407e-02]]

  [[-1.25209838e-02]]

  [[ 2.64164759e-03]]

  [[-4.37508279e-04]]

  [[-1.23204086e-02]]

  [[-6.39637038e-02]]

  [[ 1.08959317e-01]]

  [[-2.20897887e-03]]

  [[-1.05581665e-02]]

  [[-1.96319614e-02]]

  [[ 1.90851446e-02]]

  [[ 1.23319020e-02]]

  [[-1.28468331e-02]]

  [[-3.97552736e-03]]

  [[ 1.65967494e-02]]

  [[ 2.21901294e-02]]

  [[ 1.46007305e-02]]

  [[ 3.93541716e-03]]

  [[ 6.96164044e-03]]

  [[-7.41961692e-03]]

  [[-5.67330047e-03]]

  [[-1.83031019e-02]]

  [[-8.84728357e-02]]

  [[ 2.01089829e-02]]

  [[-4.05401876e-03]]

  [[-3.10383905e-02]]

  [[-9.19871777e-03]]

  [[-5.25197200e-02]]

  [[ 1.15483785e-02]]

  [[-5.26267104e-02]]

  [[ 4.68998924e-02]]

  [[ 2.06068102e-02]]

  [[ 1.88021399e-02]]

  [[-3.41531411e-02]]

  [[ 7.42011750e-03]]

  [[ 1.91487540e-02]]

  [[ 1.16710782e-01]]

  [[-8.24836921e-03]]

  [[ 1.00650743e-01]]

  [[ 1.38114924e-02]]

  [[-6.12340271e-02]]

  [[ 6.22713566e-02]]

  [[-3.74205187e-02]]

  [[-6.33692443e-02]]

  [[ 1.24443229e-02]]

  [[-6.52586594e-02]]

  [[ 1.08441245e-02]]

  [[ 1.01322848e-02]]

  [[-4.98963660e-03]]

  [[-2.08994746e-03]]

  [[ 1.01703852e-02]]

  [[ 8.30594078e-03]]

  [[-4.16781455e-02]]

  [[ 5.51388375e-02]]

  [[-2.72634588e-02]]

  [[-2.42550839e-02]]

  [[-7.04636350e-02]]

  [[ 5.86222485e-02]]

  [[-3.15324850e-02]]

  [[-8.04263204e-02]]

  [[ 4.59845457e-03]]

  [[ 2.73442119e-02]]

  [[ 4.52278256e-02]]

  [[ 1.82605367e-02]]

  [[-1.50319980e-02]]

  [[-1.08837504e-02]]

  [[ 1.59312543e-02]]

  [[ 1.93024557e-02]]

  [[-5.71324080e-02]]

  [[-8.46593082e-02]]

  [[-1.92383528e-02]]

  [[ 1.53145976e-02]]

  [[-3.73549461e-02]]

  [[-1.32072764e-02]]

  [[-5.18356077e-02]]

  [[ 1.44153357e-01]]

  [[-1.22041367e-02]]

  [[-9.03173629e-03]]

  [[-1.94996931e-02]]

  [[ 2.52681486e-02]]

  [[-3.19882631e-02]]

  [[-6.33123424e-03]]

  [[-2.78704893e-02]]

  [[ 6.69041872e-02]]

  [[-1.80746876e-02]]

  [[ 2.00623795e-02]]

  [[-7.79117271e-02]]

  [[-4.64690663e-03]]

  [[ 3.06399129e-02]]

  [[ 1.09877754e-02]]

  [[-1.32480487e-01]]

  [[ 1.12142693e-02]]

  [[ 3.44022885e-02]]

  [[-1.64199527e-02]]

  [[ 1.29517503e-02]]

  [[ 7.71081075e-04]]

  [[-7.39024654e-02]]

  [[ 2.27956809e-02]]

  [[ 3.67850401e-02]]

  [[-1.05794422e-01]]

  [[ 1.25947818e-02]]

  [[-3.45909931e-02]]

  [[-1.22214623e-01]]

  [[-2.25300677e-02]]

  [[ 1.56539939e-02]]

  [[ 2.81791296e-03]]

  [[ 5.73758548e-03]]

  [[-4.78907861e-02]]

  [[ 4.17703483e-03]]

  [[-7.32002333e-02]]

  [[ 1.82735957e-02]]

  [[ 9.99962725e-03]]

  [[ 4.86272760e-02]]

  [[ 1.37780523e-02]]

  [[-6.40098453e-02]]

  [[ 2.06107013e-02]]

  [[-1.51308291e-02]]

  [[-1.90013275e-02]]

  [[ 6.69236854e-02]]

  [[-8.71659368e-02]]

  [[-9.16036870e-03]]

  [[ 3.27281281e-02]]

  [[-2.29242351e-02]]

  [[-1.85872428e-02]]

  [[ 5.39467763e-03]]

  [[ 1.06284037e-01]]

  [[ 3.22484449e-02]]

  [[-3.57686667e-06]]

  [[ 1.06342146e-02]]

  [[ 8.56775343e-02]]

  [[-9.01986659e-02]]

  [[-3.65709960e-02]]

  [[-3.54546085e-02]]

  [[ 4.30571176e-02]]

  [[ 8.36573076e-03]]

  [[-3.65338288e-02]]

  [[-1.56228719e-02]]

  [[ 4.98791933e-02]]

  [[ 6.96952501e-03]]

  [[-1.04892896e-02]]

  [[ 1.39819281e-02]]

  [[ 1.62182236e-03]]

  [[ 1.30917672e-02]]

  [[-6.48773462e-02]]

  [[-7.06636831e-02]]

  [[-3.14661637e-02]]

  [[ 7.62136048e-03]]

  [[ 1.06943781e-02]]

  [[-1.48795056e-03]]

  [[-2.89101759e-03]]

  [[ 2.37990320e-02]]

  [[-1.09903459e-02]]

  [[-7.47178588e-03]]

  [[ 6.34384304e-02]]

  [[-7.53098056e-02]]

  [[-4.79933433e-02]]

  [[-2.90542804e-02]]

  [[ 4.46804333e-03]]

  [[-5.55012375e-02]]

  [[-5.41780777e-02]]

  [[ 5.00668921e-02]]

  [[ 3.57773788e-02]]

  [[-1.58938561e-02]]

  [[-7.40450323e-02]]

  [[ 1.58901270e-02]]

  [[ 1.88284051e-02]]

  [[ 1.38907530e-03]]

  [[-1.44964671e-02]]

  [[ 2.10080040e-03]]

  [[ 9.89612076e-04]]

  [[ 4.87444689e-03]]

  [[ 2.35884059e-02]]

  [[-1.32112047e-02]]

  [[ 1.47231366e-03]]

  [[ 1.94540098e-02]]

  [[-7.59468302e-02]]

  [[-5.57613000e-03]]

  [[-3.01583740e-03]]

  [[ 5.21418313e-03]]

  [[-4.70343009e-02]]

  [[ 9.54837422e-04]]

  [[ 1.30570484e-02]]

  [[-1.65046845e-02]]

  [[ 1.15398057e-02]]

  [[-3.45607661e-02]]

  [[-4.66379374e-02]]

  [[-9.23897605e-03]]

  [[ 3.42842937e-02]]

  [[ 2.69228239e-02]]

  [[-3.92368175e-02]]

  [[-2.57125404e-02]]

  [[ 4.75311540e-02]]

  [[ 1.06379569e-01]]

  [[ 5.13632223e-02]]

  [[ 3.62355895e-02]]

  [[ 8.90086889e-02]]

  [[ 1.16253225e-02]]

  [[ 3.67704593e-02]]

  [[-1.38044392e-03]]

  [[-2.22713803e-03]]

  [[-8.57432410e-02]]

  [[ 7.35011650e-03]]

  [[ 2.85676103e-02]]

  [[ 6.32144511e-02]]

  [[-3.97859998e-02]]

  [[-5.91985648e-03]]

  [[ 1.11794909e-02]]

  [[ 1.14319623e-02]]

  [[ 7.90423807e-03]]

  [[ 5.66104166e-02]]

  [[-5.48171252e-02]]

  [[-2.28837524e-02]]

  [[-3.55310249e-03]]

  [[-1.14457738e-02]]

  [[ 9.80385467e-02]]

  [[ 6.03967682e-02]]

  [[ 3.35322246e-02]]

  [[-1.37959896e-02]]

  [[ 4.02230816e-03]]

  [[-1.79673303e-02]]

  [[-1.30268382e-02]]

  [[-5.30767478e-02]]

  [[-1.19325146e-02]]

  [[-1.84282959e-02]]

  [[-6.66887537e-02]]

  [[ 3.15303579e-02]]

  [[ 2.33302657e-02]]

  [[ 9.02221426e-02]]

  [[ 6.43106923e-02]]

  [[-2.96169315e-02]]

  [[-7.01977238e-02]]

  [[-5.53989895e-02]]

  [[ 8.07549339e-03]]

  [[-1.66248009e-02]]

  [[-5.87044796e-03]]

  [[-7.49909952e-02]]

  [[-3.14970836e-02]]

  [[ 4.38165776e-02]]

  [[ 1.36775337e-02]]

  [[-4.26861718e-02]]

  [[ 1.03352533e-03]]

  [[-5.96601516e-02]]

  [[-3.94562446e-03]]

  [[ 1.43266330e-02]]

  [[-5.96424453e-02]]

  [[-6.10077288e-03]]

  [[ 2.31127497e-02]]

  [[ 3.57702258e-03]]

  [[-4.35190126e-02]]

  [[ 1.33229010e-02]]

  [[-9.63010266e-03]]

  [[-7.66127333e-02]]

  [[ 2.01683044e-02]]

  [[-3.08056176e-03]]

  [[-5.81189841e-02]]

  [[ 3.18827070e-02]]

  [[ 4.04129177e-03]]

  [[-7.55971204e-03]]

  [[ 1.35307787e-02]]

  [[ 3.65691297e-02]]

  [[ 6.27570748e-02]]

  [[ 4.01360393e-02]]

  [[ 3.41539979e-02]]

  [[-4.40290384e-02]]

  [[-9.94315650e-03]]

  [[ 1.25094047e-02]]

  [[ 7.25008314e-03]]

  [[-2.68567679e-03]]

  [[-3.94065417e-02]]

  [[-2.26313584e-02]]

  [[-8.78074318e-02]]

  [[ 2.56253891e-02]]

  [[-5.43146357e-02]]

  [[-5.95939520e-04]]

  [[ 6.82319999e-02]]

  [[-2.11544801e-02]]

  [[-5.35603613e-02]]

  [[-5.69159314e-02]]

  [[-4.63754274e-02]]

  [[-2.43898365e-03]]

  [[ 1.58208143e-02]]

  [[ 6.94820983e-03]]

  [[ 1.15988972e-02]]

  [[ 8.59436207e-03]]

  [[-5.24422601e-02]]

  [[-1.21610025e-02]]

  [[ 3.55179422e-02]]

  [[-4.21950454e-03]]

  [[ 3.99094112e-02]]

  [[-4.51404750e-02]]

  [[ 2.72522494e-02]]

  [[-2.45529320e-02]]

  [[-3.95871736e-02]]

  [[ 9.34298907e-04]]

  [[-1.18096564e-02]]

  [[ 7.65625015e-03]]

  [[-1.02367535e-01]]

  [[ 2.03490052e-02]]

  [[-4.64199595e-02]]

  [[-2.82717161e-02]]

  [[ 1.67891532e-02]]

  [[ 7.92071074e-02]]

  [[-4.74311924e-03]]

  [[ 3.47593054e-02]]

  [[-8.04351196e-02]]

  [[ 7.05616176e-02]]

  [[-4.06430028e-02]]

  [[-5.82926394e-03]]

  [[-5.54380976e-02]]

  [[ 4.67773601e-02]]

  [[ 8.11804906e-02]]

  [[ 2.26736348e-02]]

  [[-3.83198820e-02]]

  [[-1.73140306e-03]]

  [[-3.10056121e-03]]

  [[-8.25917572e-02]]

  [[ 9.63383168e-02]]

  [[ 6.06940463e-02]]

  [[-5.16310148e-02]]

  [[ 3.66768055e-02]]

  [[ 1.09215751e-01]]

  [[ 2.89323062e-01]]

  [[ 5.97454868e-02]]

  [[-2.18819771e-02]]

  [[-9.28584039e-02]]

  [[-8.38454962e-02]]

  [[ 6.57550665e-03]]

  [[ 6.71399683e-02]]

  [[-3.52355465e-02]]

  [[-1.16300760e-02]]

  [[-9.26668383e-03]]

  [[ 1.73103940e-02]]

  [[-8.96319821e-02]]

  [[-1.70160551e-02]]

  [[ 2.95497272e-02]]

  [[-2.30619349e-02]]

  [[ 4.67771851e-03]]

  [[-4.27334644e-02]]

  [[-1.32156606e-03]]

  [[ 6.33539557e-02]]

  [[-8.21590498e-02]]

  [[-9.37986188e-03]]

  [[-3.10044717e-02]]

  [[ 7.03196181e-03]]

  [[-5.59837557e-02]]

  [[-3.73570323e-02]]

  [[ 8.05562958e-02]]

  [[ 1.49788074e-02]]

  [[-1.04088578e-02]]

  [[-4.17140545e-03]]

  [[ 7.93922842e-02]]

  [[-8.48755464e-02]]

  [[ 1.98722720e-01]]

  [[-7.20640942e-02]]

  [[-6.30832789e-03]]

  [[-7.66221061e-02]]

  [[ 1.72371157e-02]]

  [[-7.90256783e-02]]

  [[-4.68259118e-02]]

  [[ 1.02572374e-01]]

  [[-1.51039902e-02]]

  [[ 2.37349458e-02]]

  [[-4.73059937e-02]]

  [[ 1.46957580e-02]]

  [[-1.08428570e-02]]

  [[ 2.13960111e-01]]

  [[-5.54962382e-02]]

  [[-1.32138673e-02]]

  [[ 3.17829736e-02]]

  [[-3.79716307e-02]]

  [[-4.38992353e-03]]

  [[ 3.05761639e-02]]

  [[ 3.83954146e-03]]

  [[ 1.64010506e-02]]

  [[-1.06984340e-01]]

  [[-6.73442036e-02]]

  [[-1.66408513e-02]]

  [[ 4.00777673e-03]]

  [[-3.87437418e-02]]

  [[ 1.03612486e-02]]

  [[-2.73783356e-02]]

  [[-1.61447376e-02]]

  [[ 3.77724431e-02]]

  [[-5.19972853e-02]]

  [[-5.57694845e-02]]

  [[ 5.38909808e-02]]

  [[-1.35439131e-02]]

  [[-6.63151518e-02]]

  [[-6.71681166e-02]]

  [[ 1.25158593e-01]]

  [[-7.73917362e-02]]

  [[-1.44465156e-02]]

  [[-5.08042835e-02]]

  [[-1.18134161e-02]]

  [[ 5.61502762e-02]]

  [[-6.32706843e-03]]

  [[ 2.41661761e-02]]

  [[-6.63111806e-02]]

  [[ 6.25813380e-02]]

  [[ 3.26799192e-02]]

  [[-1.67439189e-02]]

  [[ 1.05900597e-02]]

  [[-1.41975924e-01]]

  [[-6.42178729e-02]]

  [[ 7.51045272e-02]]

  [[-1.38522042e-02]]

  [[-1.94582362e-02]]

  [[ 1.01513371e-01]]

  [[ 2.22492032e-02]]

  [[ 4.91824895e-02]]

  [[ 6.18615448e-02]]

  [[-3.56768742e-02]]

  [[-5.57423718e-02]]

  [[-2.18709409e-02]]

  [[ 5.93268499e-03]]

  [[ 4.78580631e-02]]

  [[-2.58584339e-02]]

  [[-1.10705337e-02]]

  [[-2.70286817e-02]]

  [[-5.91452233e-02]]

  [[-1.99911278e-03]]

  [[ 1.62657332e-02]]

  [[ 2.75759324e-02]]]


 [[[ 5.21227457e-02]]

  [[-2.75478582e-04]]

  [[-2.02136878e-02]]

  [[-1.27468416e-02]]

  [[ 1.80198066e-02]]

  [[ 2.07552630e-02]]

  [[ 9.54921450e-03]]

  [[ 4.77708466e-02]]

  [[ 1.45288631e-02]]

  [[ 1.79757904e-02]]

  [[ 4.35781246e-03]]

  [[ 1.97253539e-03]]

  [[-9.33789089e-03]]

  [[-4.67562675e-03]]

  [[ 2.36941371e-02]]

  [[-2.84139905e-02]]

  [[ 1.25955604e-02]]

  [[ 1.88741069e-02]]

  [[-1.63493241e-04]]

  [[ 1.51731512e-02]]

  [[ 4.42323741e-04]]

  [[-1.90689489e-02]]

  [[ 1.35247980e-03]]

  [[-9.76801366e-02]]

  [[ 3.93567514e-03]]

  [[-3.64696700e-03]]

  [[-6.79861978e-02]]

  [[ 1.75537392e-02]]

  [[ 9.44108982e-03]]

  [[-2.96491478e-02]]

  [[-1.78088737e-03]]

  [[ 3.19953635e-02]]

  [[ 9.91706271e-04]]

  [[ 1.17717385e-02]]

  [[ 7.19395102e-05]]

  [[ 3.00059598e-02]]

  [[ 5.99667896e-03]]

  [[ 2.89027754e-04]]

  [[ 1.02455907e-01]]

  [[ 3.98929194e-02]]

  [[-4.68200482e-02]]

  [[ 3.95827787e-03]]

  [[ 1.80933475e-02]]

  [[ 6.75922679e-03]]

  [[-8.67574755e-03]]

  [[ 4.65099290e-02]]

  [[ 1.51770599e-02]]

  [[ 1.49996150e-02]]

  [[-6.56484663e-02]]

  [[ 1.36673059e-02]]

  [[-3.81121237e-04]]

  [[ 6.64244685e-03]]

  [[ 6.39061118e-03]]

  [[-1.16589665e-02]]

  [[ 3.91258532e-03]]

  [[-8.79318919e-03]]

  [[-3.97153711e-03]]

  [[-8.34916066e-03]]

  [[-1.73630135e-03]]

  [[-2.09730435e-02]]

  [[ 7.15310778e-03]]

  [[ 1.12460200e-02]]

  [[ 1.73979606e-02]]

  [[ 3.05178668e-03]]

  [[ 9.95147508e-03]]

  [[ 3.18260267e-02]]

  [[-2.93159531e-03]]

  [[ 8.53013806e-03]]

  [[ 3.06647141e-02]]

  [[-1.53854871e-02]]

  [[ 4.00444120e-02]]

  [[ 1.06596397e-02]]

  [[ 1.02781216e-02]]

  [[ 2.46379990e-03]]

  [[-1.67519785e-02]]

  [[ 2.12829337e-02]]

  [[-5.53943627e-02]]

  [[-3.76786897e-03]]

  [[-1.09615282e-03]]

  [[ 1.54191563e-02]]

  [[-1.24083767e-02]]

  [[ 6.14213273e-02]]

  [[ 1.40871555e-02]]

  [[-1.83231384e-01]]

  [[ 9.27077420e-03]]

  [[ 5.09850634e-03]]

  [[-7.20340237e-02]]

  [[-3.81637621e-03]]

  [[-5.49852941e-03]]

  [[ 1.38478000e-02]]

  [[ 4.79541086e-02]]

  [[ 4.93788579e-03]]

  [[ 7.59443268e-02]]

  [[ 1.87080577e-02]]

  [[-2.78885290e-03]]

  [[ 1.36121316e-02]]

  [[ 4.60007899e-02]]

  [[-1.04021013e-03]]

  [[ 1.39312092e-02]]

  [[-6.95049688e-02]]

  [[ 6.52787229e-03]]

  [[ 2.21194923e-02]]

  [[-5.98421693e-02]]

  [[ 3.79189998e-02]]

  [[-2.89465487e-03]]

  [[-2.78641041e-02]]

  [[ 1.11505613e-01]]

  [[ 6.86623529e-02]]

  [[ 2.74490379e-02]]

  [[ 1.33632962e-02]]

  [[ 1.11631420e-03]]

  [[ 2.07245573e-02]]

  [[ 1.88279152e-02]]

  [[-3.47161153e-03]]

  [[ 5.01037203e-02]]

  [[-6.97315559e-02]]

  [[ 5.77907031e-03]]

  [[-8.01123977e-02]]

  [[-8.91285669e-03]]

  [[-1.69276390e-02]]

  [[-9.92197078e-03]]

  [[ 1.33827448e-01]]

  [[ 2.10655946e-02]]

  [[ 1.39382211e-02]]

  [[-6.73811063e-02]]

  [[-2.04751804e-03]]

  [[ 9.47132558e-02]]

  [[ 4.08682339e-02]]

  [[-3.87381315e-02]]

  [[-7.67903868e-03]]

  [[-2.83824932e-02]]

  [[ 1.64169669e-02]]

  [[ 2.71995589e-02]]

  [[ 7.82174524e-03]]

  [[ 1.54106598e-02]]

  [[-7.68904341e-03]]

  [[ 1.62354056e-02]]

  [[ 5.63963577e-02]]

  [[-4.35514487e-02]]

  [[ 1.27337538e-02]]

  [[-1.78890955e-03]]

  [[-3.70607176e-03]]

  [[ 2.66219918e-02]]

  [[ 1.83268264e-02]]

  [[ 5.45361191e-02]]

  [[ 1.20015284e-02]]

  [[-9.62169841e-02]]

  [[-2.93090078e-03]]

  [[ 3.81902196e-02]]

  [[ 1.79877765e-02]]

  [[ 2.65565654e-03]]

  [[ 2.66816863e-03]]

  [[ 6.00593053e-02]]

  [[ 1.11328185e-01]]

  [[ 5.02160005e-02]]

  [[ 5.67324413e-03]]

  [[ 1.47657786e-02]]

  [[-4.59192321e-02]]

  [[-1.44216307e-02]]

  [[ 5.13239356e-04]]

  [[ 6.64269477e-02]]

  [[ 5.07026538e-03]]

  [[-2.21501347e-02]]

  [[-3.48280296e-02]]

  [[-1.44149847e-02]]

  [[-8.59149843e-02]]

  [[ 3.52246165e-02]]

  [[ 4.12862794e-03]]

  [[ 2.16261260e-02]]

  [[-3.78210172e-02]]

  [[-5.47011979e-02]]

  [[ 5.38672600e-03]]

  [[ 4.00132388e-02]]

  [[ 2.01875195e-02]]

  [[-1.12664569e-02]]

  [[-4.17027762e-03]]

  [[ 3.25067341e-02]]

  [[-2.13192776e-02]]

  [[ 5.23813115e-03]]

  [[-1.58187151e-02]]

  [[-4.88809086e-02]]

  [[ 2.72360370e-02]]

  [[-1.00527909e-02]]

  [[ 6.99018640e-03]]

  [[ 1.04218230e-01]]

  [[ 2.64956709e-02]]

  [[ 1.75802987e-02]]

  [[-2.34784298e-02]]

  [[-5.31114526e-02]]

  [[ 3.31234150e-02]]

  [[ 6.04550652e-02]]

  [[-2.54006200e-02]]

  [[ 5.10668606e-02]]

  [[-3.48768570e-02]]

  [[-2.03204751e-02]]

  [[ 1.84583683e-02]]

  [[-5.91504872e-02]]

  [[-4.32106759e-03]]

  [[ 2.13012118e-02]]

  [[ 2.80401427e-02]]

  [[ 1.05475642e-01]]

  [[ 1.29606023e-01]]

  [[-1.52825648e-02]]

  [[-3.66998278e-02]]

  [[-6.04185788e-03]]

  [[-1.33140953e-02]]

  [[ 2.20451523e-02]]

  [[ 2.15213466e-02]]

  [[-5.88453421e-03]]

  [[ 2.63435720e-03]]

  [[-1.33429598e-02]]

  [[-3.33595611e-02]]

  [[ 3.87304835e-02]]

  [[ 2.63527110e-02]]

  [[-2.64957035e-03]]

  [[-1.02555312e-01]]

  [[ 2.14290097e-02]]

  [[ 1.97910168e-03]]

  [[-3.52430344e-03]]

  [[-5.22961244e-02]]

  [[ 8.19534883e-02]]

  [[ 2.52815094e-02]]

  [[ 9.01550241e-03]]

  [[ 6.76093204e-03]]

  [[ 1.85861066e-02]]

  [[ 8.64696503e-03]]

  [[ 1.26395337e-02]]

  [[ 6.13730960e-02]]

  [[-1.56253632e-02]]

  [[ 8.47434253e-03]]

  [[ 1.22535257e-02]]

  [[-2.92375237e-02]]

  [[-6.54978352e-03]]

  [[ 9.04840603e-03]]

  [[-1.71860307e-02]]

  [[-3.88814099e-02]]

  [[-8.11293423e-02]]

  [[ 1.20314099e-02]]

  [[ 1.33683998e-02]]

  [[-8.13662261e-02]]

  [[-1.06388731e-02]]

  [[ 3.28572318e-02]]

  [[-6.80737346e-02]]

  [[ 2.20162291e-02]]

  [[-1.15173059e-02]]

  [[-1.95570965e-03]]

  [[ 8.29244033e-03]]

  [[-5.76757900e-02]]

  [[-2.48894356e-02]]

  [[ 4.05762270e-02]]

  [[ 1.65667310e-02]]

  [[-1.01442337e-02]]

  [[ 1.29146557e-02]]

  [[ 9.70741138e-02]]

  [[ 4.38486151e-02]]

  [[ 6.37370646e-02]]

  [[-5.26223285e-03]]

  [[ 1.46051655e-02]]

  [[-1.02513004e-02]]

  [[ 4.87642847e-02]]

  [[-3.46474051e-02]]

  [[-4.02724231e-03]]

  [[-1.57382488e-02]]

  [[-1.00570461e-02]]

  [[ 1.84150611e-03]]

  [[-2.56900433e-02]]

  [[ 5.84994210e-03]]

  [[-1.86102185e-02]]

  [[-2.27666274e-02]]

  [[ 3.93374115e-02]]

  [[ 4.18734811e-02]]

  [[ 2.36870237e-02]]

  [[-1.08085293e-02]]

  [[-4.08533262e-03]]

  [[ 8.94133281e-03]]

  [[ 9.97407269e-03]]

  [[-1.52235925e-02]]

  [[-1.59001425e-02]]

  [[-2.03754753e-03]]

  [[ 1.37411105e-03]]

  [[-2.59876042e-03]]

  [[ 1.63981952e-02]]

  [[-3.91889475e-02]]

  [[ 2.21514236e-02]]

  [[ 1.00017607e-01]]

  [[ 9.20596421e-02]]

  [[ 2.46481113e-02]]

  [[-7.32842609e-02]]

  [[ 2.51109265e-02]]

  [[-2.87425617e-04]]

  [[-2.96955742e-02]]

  [[ 7.14503676e-02]]

  [[ 9.70820859e-02]]

  [[-2.45828480e-02]]

  [[ 1.16115797e-03]]

  [[ 6.27605105e-03]]

  [[ 3.65677429e-03]]

  [[ 6.20483141e-03]]

  [[-2.90437117e-02]]

  [[-3.93601973e-03]]

  [[ 3.17552611e-02]]

  [[-5.18287905e-03]]

  [[-3.38982791e-02]]

  [[ 1.04813054e-02]]

  [[ 2.17614807e-02]]

  [[ 1.61228180e-02]]

  [[-1.90254785e-02]]

  [[ 1.31656723e-02]]

  [[-2.04626545e-02]]

  [[ 2.28122640e-02]]

  [[ 7.75963953e-03]]

  [[ 6.33724919e-03]]

  [[ 2.48664618e-02]]

  [[ 6.52508950e-03]]

  [[ 6.94742193e-03]]

  [[-1.70507152e-02]]

  [[ 1.12222647e-02]]

  [[-4.82059345e-02]]

  [[-6.67311659e-04]]

  [[ 5.53653296e-03]]

  [[-1.33562861e-02]]

  [[-2.09786929e-02]]

  [[ 2.18194276e-02]]

  [[-2.51524411e-02]]

  [[-3.93586373e-03]]

  [[ 8.79494697e-02]]

  [[ 1.21543063e-02]]

  [[ 4.25879546e-02]]

  [[-1.17987273e-02]]

  [[ 5.71218506e-02]]

  [[-4.53218864e-03]]

  [[ 2.44203340e-02]]

  [[-2.43627452e-04]]

  [[ 4.62253112e-03]]

  [[ 1.58570372e-02]]

  [[-3.20553631e-02]]

  [[ 7.29687745e-03]]

  [[ 5.93298767e-03]]

  [[-1.06292935e-02]]

  [[-5.00009693e-02]]

  [[ 2.28774771e-02]]

  [[-1.64710078e-03]]

  [[-4.31423485e-02]]

  [[-4.95753065e-02]]

  [[ 2.07440611e-02]]

  [[ 1.41415983e-01]]

  [[ 1.67943537e-02]]

  [[-7.77548328e-02]]

  [[ 1.60927104e-03]]

  [[ 7.58603308e-03]]

  [[ 1.90764908e-02]]

  [[-5.89484582e-03]]

  [[-1.01085296e-02]]

  [[-3.46313529e-02]]

  [[ 2.57676486e-02]]

  [[ 4.20899056e-02]]

  [[-2.64520831e-02]]

  [[ 3.82403582e-02]]

  [[ 6.81944042e-02]]

  [[-2.63457950e-02]]

  [[ 2.34597232e-02]]

  [[ 4.59948555e-02]]

  [[ 1.75916757e-02]]

  [[ 4.32618037e-02]]

  [[ 5.38688079e-02]]

  [[-3.13980095e-02]]

  [[ 3.06986813e-02]]

  [[ 1.23987366e-02]]

  [[ 5.49173430e-02]]

  [[-1.46381771e-02]]

  [[ 7.45644094e-03]]

  [[ 1.84288081e-02]]

  [[-4.31794394e-03]]

  [[-2.59967279e-02]]

  [[ 7.47037232e-02]]

  [[-5.64730950e-02]]

  [[-3.72946225e-02]]

  [[ 2.79572736e-02]]

  [[ 2.42560431e-02]]

  [[-8.21058974e-02]]

  [[ 1.57035455e-01]]

  [[-5.00722080e-02]]

  [[ 2.23441352e-03]]

  [[-4.41579223e-02]]

  [[-4.32633832e-02]]

  [[ 2.23034751e-02]]

  [[ 2.88064294e-02]]

  [[ 1.46061194e-03]]

  [[ 1.73897517e-03]]

  [[-2.44692434e-02]]

  [[ 6.88628256e-02]]

  [[ 1.82388593e-02]]

  [[ 9.80901718e-03]]

  [[-4.03878987e-02]]

  [[-1.29904030e-02]]

  [[-2.07738653e-02]]

  [[-3.49029489e-02]]

  [[ 6.49389625e-03]]

  [[ 1.66240130e-02]]

  [[-2.98383422e-02]]

  [[-1.24193938e-03]]

  [[-5.69167137e-02]]

  [[-4.47094962e-02]]

  [[ 4.25160490e-02]]

  [[-9.49132722e-03]]

  [[-2.41867863e-02]]

  [[ 7.19801662e-03]]

  [[ 3.75901014e-02]]

  [[ 4.87218276e-02]]

  [[-8.72073025e-02]]

  [[ 2.29284000e-02]]

  [[ 2.81593073e-02]]

  [[ 8.26267060e-03]]

  [[ 5.43641811e-03]]

  [[-1.55948289e-02]]

  [[-2.12210082e-02]]

  [[-6.60862681e-03]]

  [[ 5.65396855e-03]]

  [[ 2.31155418e-02]]

  [[ 2.58647874e-02]]

  [[ 5.63654024e-03]]

  [[-4.88255965e-03]]

  [[ 4.11037356e-03]]

  [[-8.62331986e-02]]

  [[ 1.07125349e-01]]

  [[ 2.80294772e-02]]

  [[ 1.12033868e-02]]

  [[-2.34284420e-02]]

  [[-7.85957947e-02]]

  [[ 9.46874358e-03]]

  [[ 8.22487811e-04]]

  [[-1.22880049e-01]]

  [[-3.79574187e-02]]

  [[ 4.42611240e-02]]

  [[ 3.30238752e-02]]

  [[ 4.72533144e-02]]

  [[ 1.69649310e-02]]

  [[ 8.74706451e-03]]

  [[-9.48646758e-03]]

  [[-3.17390077e-02]]

  [[-8.83743763e-02]]

  [[-3.91323492e-02]]

  [[ 5.12773208e-02]]

  [[ 2.48765294e-02]]

  [[ 1.24412691e-02]]

  [[ 5.35436347e-03]]

  [[-2.83511374e-02]]

  [[ 1.91326700e-02]]

  [[ 1.44870821e-02]]

  [[ 1.14997372e-01]]

  [[ 4.54434799e-03]]

  [[-1.09773837e-02]]

  [[-4.64802086e-02]]

  [[-1.71821117e-02]]

  [[ 2.77450737e-02]]

  [[-1.67191643e-02]]

  [[ 1.66726410e-02]]

  [[ 1.88898351e-02]]

  [[-2.09258832e-02]]

  [[ 2.79779173e-02]]

  [[ 4.44882875e-03]]

  [[ 9.47947707e-03]]

  [[ 1.77761298e-02]]

  [[-1.05496207e-02]]

  [[ 1.75426602e-02]]

  [[ 2.01102775e-02]]

  [[ 3.86506133e-02]]

  [[ 4.25628852e-03]]

  [[-1.48360059e-02]]

  [[-2.58608032e-02]]

  [[ 4.97974120e-02]]

  [[ 1.86360441e-02]]

  [[-8.87999311e-03]]

  [[ 7.14869052e-02]]

  [[ 3.08632478e-03]]

  [[ 6.71487534e-03]]

  [[-7.61626363e-02]]

  [[-1.09580914e-02]]

  [[-1.00470148e-01]]

  [[-6.90006688e-02]]

  [[-2.01627426e-02]]

  [[-2.44066659e-02]]

  [[ 1.87997129e-02]]

  [[ 1.05398363e-02]]

  [[ 1.72301233e-02]]

  [[-7.07235113e-02]]

  [[ 1.25761583e-01]]

  [[ 1.12930434e-02]]

  [[ 4.90977578e-02]]

  [[-6.28495403e-03]]

  [[-3.19795310e-02]]

  [[-4.16544676e-02]]

  [[-1.59511287e-02]]

  [[-9.29225385e-02]]

  [[ 2.30228212e-02]]

  [[-7.24491030e-02]]

  [[ 9.66701889e-04]]

  [[-6.13336414e-02]]

  [[-1.37756886e-02]]

  [[ 2.99622919e-02]]

  [[-6.91351742e-02]]

  [[ 4.73203603e-03]]

  [[ 9.00347251e-03]]

  [[ 1.99237242e-02]]

  [[ 5.64222969e-02]]

  [[-2.80479733e-02]]

  [[-8.07368010e-03]]

  [[-8.85820854e-03]]

  [[-6.34517223e-02]]

  [[-5.28605506e-02]]

  [[ 4.64072404e-03]]

  [[-1.04224749e-01]]

  [[-1.43509973e-02]]

  [[ 2.23875225e-01]]

  [[ 2.64513306e-02]]

  [[-6.23126980e-03]]

  [[-1.00356517e-02]]

  [[ 5.19189388e-02]]

  [[ 8.32932722e-03]]

  [[-1.25624938e-02]]

  [[ 8.67205393e-03]]

  [[-1.84643026e-02]]

  [[-1.21908244e-02]]

  [[-3.75516824e-02]]

  [[-1.00181880e-03]]

  [[-1.51446527e-02]]

  [[-9.11237497e-04]]

  [[ 4.04894054e-02]]

  [[ 1.09434202e-02]]

  [[ 6.37017787e-02]]

  [[ 1.31935626e-02]]

  [[ 3.21577266e-02]]

  [[-3.65554616e-02]]

  [[-6.60567954e-02]]

  [[ 1.61418691e-02]]

  [[ 3.49667817e-02]]

  [[ 4.65915771e-03]]

  [[ 7.55678713e-02]]

  [[-9.07831714e-02]]

  [[-3.44315125e-03]]

  [[ 2.27746610e-02]]

  [[ 3.41074131e-02]]

  [[ 2.08380353e-03]]

  [[-3.63197029e-02]]

  [[ 1.46874331e-03]]

  [[ 3.34903523e-02]]

  [[-3.82936822e-04]]

  [[-1.27656860e-02]]

  [[-2.54164543e-02]]

  [[-3.99271138e-02]]

  [[-8.08592141e-02]]

  [[ 2.41304375e-02]]

  [[-2.17687059e-02]]

  [[-2.11869739e-02]]

  [[ 1.03392629e-02]]

  [[ 6.13000058e-02]]

  [[ 2.13057525e-03]]

  [[ 3.11535709e-02]]

  [[-9.27896202e-02]]

  [[-3.11400313e-02]]

  [[-1.93807972e-03]]

  [[-2.99136210e-02]]

  [[-7.01117562e-03]]

  [[-4.18115146e-02]]

  [[-1.77815966e-02]]

  [[-8.22035596e-02]]

  [[-1.45304939e-02]]

  [[-9.80652869e-04]]

  [[-3.76816764e-02]]

  [[ 2.89128851e-02]]

  [[-4.37696353e-02]]

  [[-4.75329943e-02]]

  [[ 1.21802930e-02]]

  [[ 1.03614882e-01]]

  [[ 3.76788080e-02]]

  [[-5.35959788e-02]]

  [[-6.75669238e-02]]

  [[ 5.27177239e-03]]

  [[ 1.64167564e-02]]

  [[ 9.86699946e-03]]

  [[ 9.62100178e-02]]

  [[ 5.98875247e-02]]

  [[ 4.94206622e-02]]

  [[ 2.20797416e-02]]

  [[-3.38790938e-02]]

  [[ 2.25784117e-03]]

  [[ 1.37228012e-01]]

  [[-7.36832246e-02]]

  [[-3.18998620e-02]]

  [[-1.41252866e-02]]

  [[ 1.08641468e-01]]

  [[ 1.14155107e-03]]

  [[-2.07788544e-03]]

  [[ 1.55686140e-01]]

  [[ 3.25784311e-02]]

  [[-2.37543345e-03]]

  [[-1.29934698e-01]]

  [[-2.38607582e-02]]

  [[-1.03096915e-02]]

  [[-1.26083791e-01]]

  [[-3.35871466e-02]]

  [[-7.34550357e-02]]

  [[-5.24915494e-02]]

  [[-4.38393727e-02]]

  [[-3.64963301e-02]]

  [[-8.03743005e-02]]

  [[-2.79771443e-02]]

  [[-1.17515381e-02]]

  [[-1.21135853e-01]]

  [[-2.51160488e-02]]

  [[-1.54845295e-02]]

  [[ 8.96728411e-02]]

  [[ 3.37347179e-03]]

  [[-1.87776387e-02]]

  [[-6.83484003e-02]]

  [[-1.73356254e-02]]

  [[ 3.44231911e-02]]

  [[ 9.95677859e-02]]

  [[-2.66728066e-02]]

  [[-2.62807054e-03]]

  [[-5.21404371e-02]]

  [[-9.40291211e-02]]

  [[ 1.81457661e-02]]

  [[ 4.35395539e-02]]

  [[-6.25217929e-02]]

  [[ 1.43288732e-01]]

  [[-2.16643214e-02]]

  [[ 7.78011652e-03]]

  [[-3.27701587e-03]]

  [[-3.98189202e-02]]

  [[ 1.87450163e-02]]

  [[ 2.02636681e-02]]

  [[ 4.69763242e-02]]

  [[-3.79034393e-02]]

  [[-5.67216286e-03]]

  [[ 2.46290322e-02]]

  [[ 9.66985151e-02]]

  [[-1.02200679e-01]]

  [[-6.07057437e-02]]

  [[ 4.84756334e-03]]

  [[-9.08033997e-02]]

  [[ 5.39436610e-03]]

  [[ 2.79251169e-02]]

  [[ 1.11579541e-02]]

  [[-2.65336577e-02]]

  [[-3.27948406e-02]]

  [[ 1.09010655e-03]]

  [[-5.67910075e-02]]

  [[-3.01950369e-02]]

  [[ 1.01422183e-01]]

  [[-9.05279722e-03]]

  [[ 2.10210383e-02]]

  [[-1.87705662e-02]]

  [[ 2.17854023e-01]]

  [[-1.24634067e-02]]

  [[-4.39578667e-02]]

  [[-4.89180274e-02]]

  [[ 1.08334608e-02]]

  [[-6.88061565e-02]]

  [[ 1.36601264e-02]]

  [[ 2.68983468e-03]]

  [[-6.42013699e-02]]

  [[-6.20559929e-03]]

  [[-1.41545730e-02]]

  [[ 2.11890079e-02]]

  [[-1.18265890e-01]]

  [[ 2.12405997e-04]]

  [[-5.65821938e-02]]

  [[-3.31437439e-02]]

  [[-2.11247336e-03]]

  [[-2.56432462e-02]]

  [[ 1.21945478e-02]]]


 [[[ 1.39456866e-02]]

  [[ 5.55907749e-02]]

  [[-5.71632851e-03]]

  [[-2.66514495e-02]]

  [[ 8.76956433e-03]]

  [[ 1.56449154e-02]]

  [[-8.23235884e-03]]

  [[-3.77204316e-03]]

  [[ 3.51055525e-02]]

  [[ 2.19012666e-02]]

  [[ 2.14846488e-02]]

  [[-4.09260532e-03]]

  [[ 1.31995073e-02]]

  [[ 5.22357319e-03]]

  [[ 8.35978147e-03]]

  [[-1.88790297e-03]]

  [[ 2.43152380e-02]]

  [[ 2.47224197e-02]]

  [[ 2.55775526e-02]]

  [[ 1.42124772e-01]]

  [[ 2.04837061e-02]]

  [[ 1.25488201e-02]]

  [[ 3.11002582e-02]]

  [[-9.85302310e-03]]

  [[ 9.26383305e-03]]

  [[ 1.80602036e-02]]

  [[ 4.97428440e-02]]

  [[ 7.49747967e-04]]

  [[ 1.29218446e-02]]

  [[ 1.17736896e-02]]

  [[ 1.91620854e-03]]

  [[ 1.39367254e-02]]

  [[ 2.44645532e-02]]

  [[ 2.82595605e-02]]

  [[ 4.85263811e-03]]

  [[-4.58780210e-03]]

  [[ 2.73051392e-02]]

  [[-1.79152060e-02]]

  [[-3.44381407e-02]]

  [[-1.05833868e-02]]

  [[-1.63067821e-02]]

  [[-4.36176965e-03]]

  [[ 1.92401912e-02]]

  [[-2.18670070e-03]]

  [[-3.70399468e-02]]

  [[ 8.01491216e-02]]

  [[-3.34456190e-03]]

  [[ 3.45210582e-02]]

  [[ 1.56134274e-02]]

  [[ 4.13822904e-02]]

  [[ 4.04633209e-03]]

  [[ 2.25816155e-03]]

  [[ 2.34879423e-02]]

  [[-1.53913640e-03]]

  [[ 2.85639204e-02]]

  [[ 1.22640736e-01]]

  [[ 4.09163302e-03]]

  [[-3.60441947e-04]]

  [[ 3.10344296e-03]]

  [[-3.00944131e-02]]

  [[ 2.31125671e-02]]

  [[-7.89049640e-03]]

  [[ 2.76081692e-02]]

  [[-1.04808342e-02]]

  [[-2.40273140e-02]]

  [[ 2.91786948e-03]]

  [[-2.40153372e-02]]

  [[-2.17211712e-03]]

  [[ 3.76927331e-02]]

  [[ 4.67188889e-03]]

  [[ 6.00924678e-02]]

  [[ 1.65308956e-02]]

  [[ 6.95769256e-03]]

  [[ 1.03099398e-01]]

  [[ 3.21447141e-02]]

  [[ 1.75054539e-02]]

  [[-1.83376353e-02]]

  [[-7.18181059e-02]]

  [[ 1.50219826e-02]]

  [[ 1.75691377e-02]]

  [[-4.56787348e-02]]

  [[-1.56735592e-02]]

  [[ 2.25371048e-02]]

  [[-1.37811139e-01]]

  [[ 1.25600053e-02]]

  [[ 1.84544213e-02]]

  [[-1.87863111e-02]]

  [[ 8.49035685e-04]]

  [[ 3.41274329e-02]]

  [[ 1.29171656e-02]]

  [[-1.09083932e-02]]

  [[ 9.89544392e-03]]

  [[ 2.29958328e-03]]

  [[-6.26681224e-02]]

  [[-9.78275612e-02]]

  [[ 1.26136476e-02]]

  [[-3.05932947e-02]]

  [[ 2.11213995e-02]]

  [[-6.36499422e-03]]

  [[ 5.54110855e-02]]

  [[ 2.48724036e-02]]

  [[ 5.36695272e-02]]

  [[ 2.63732933e-02]]

  [[ 3.59633826e-02]]

  [[-4.86043515e-03]]

  [[-2.66616177e-02]]

  [[ 8.67035016e-02]]

  [[ 1.19734846e-01]]

  [[ 2.61948034e-02]]

  [[ 6.95487037e-02]]

  [[ 2.46668644e-02]]

  [[ 8.67095310e-03]]

  [[ 1.77114569e-02]]

  [[-1.36678237e-02]]

  [[ 9.75567661e-03]]

  [[ 9.15140212e-02]]

  [[ 1.69635448e-03]]

  [[ 1.50862627e-03]]

  [[ 7.29798451e-02]]

  [[ 3.37554328e-02]]

  [[ 3.00800847e-03]]

  [[-4.43248264e-03]]

  [[ 1.76141951e-02]]

  [[ 9.84356254e-02]]

  [[-5.17866835e-02]]

  [[ 5.17136045e-03]]

  [[ 7.26950541e-02]]

  [[ 4.25531566e-02]]

  [[ 2.51185987e-03]]

  [[ 1.86028965e-02]]

  [[-3.19153853e-02]]

  [[ 2.21569128e-02]]

  [[ 2.58175768e-02]]

  [[ 2.09274646e-02]]

  [[-3.63285653e-02]]

  [[-1.06797079e-02]]

  [[ 1.94482841e-02]]

  [[-4.39563580e-03]]

  [[-4.77282926e-02]]

  [[ 1.06550734e-02]]

  [[-5.78732416e-03]]

  [[ 3.77914659e-03]]

  [[ 1.41663663e-02]]

  [[-1.48649029e-02]]

  [[ 1.17456233e-02]]

  [[ 3.01124956e-02]]

  [[-1.04683787e-02]]

  [[-3.11615667e-03]]

  [[ 1.24075438e-03]]

  [[ 6.78443983e-02]]

  [[-9.62466188e-03]]

  [[-4.13094945e-02]]

  [[ 2.78469305e-02]]

  [[ 4.59321402e-02]]

  [[ 1.04319997e-01]]

  [[-2.16739345e-03]]

  [[-2.80376561e-02]]

  [[ 2.55636051e-02]]

  [[-1.87953170e-02]]

  [[-5.14372857e-03]]

  [[-4.67860922e-02]]

  [[-1.76968742e-02]]

  [[-1.99284237e-02]]

  [[-3.97749282e-02]]

  [[-2.53173597e-02]]

  [[-7.92782754e-02]]

  [[ 3.97612387e-03]]

  [[ 7.28176162e-02]]

  [[ 1.81673057e-02]]

  [[-3.83266732e-02]]

  [[-2.47375499e-02]]

  [[-7.29485881e-03]]

  [[ 2.44569662e-03]]

  [[-4.22543322e-04]]

  [[ 2.43159047e-05]]

  [[ 7.16948276e-03]]

  [[ 3.45888957e-02]]

  [[-5.53142186e-03]]

  [[ 1.40531482e-02]]

  [[-2.16242541e-02]]

  [[-3.66214365e-02]]

  [[ 1.65760498e-02]]

  [[-2.92977877e-03]]

  [[ 4.38113548e-02]]

  [[ 3.26593965e-02]]

  [[ 6.72560045e-03]]

  [[ 4.05156277e-02]]

  [[ 1.28915498e-03]]

  [[-6.70195520e-02]]

  [[ 6.21797070e-02]]

  [[-2.17074472e-02]]

  [[ 1.35080628e-02]]

  [[-5.55732474e-03]]

  [[ 3.31743918e-02]]

  [[ 6.15752637e-02]]

  [[ 3.09172622e-03]]

  [[-9.90983173e-02]]

  [[-2.86173802e-02]]

  [[ 2.58696415e-02]]

  [[-3.29376571e-02]]

  [[ 3.78856473e-02]]

  [[-9.82007459e-02]]

  [[ 5.34319840e-02]]

  [[-4.93849674e-03]]

  [[-2.88938731e-02]]

  [[-3.28518488e-02]]

  [[ 8.68652239e-02]]

  [[ 3.13629322e-02]]

  [[-2.44501680e-02]]

  [[-1.87646691e-02]]

  [[-1.39587335e-02]]

  [[-5.89674897e-02]]

  [[ 1.43992407e-02]]

  [[ 1.29198376e-02]]

  [[ 9.36901011e-03]]

  [[ 5.66737838e-02]]

  [[ 2.37954478e-03]]

  [[-1.81483999e-02]]

  [[-4.12256783e-03]]

  [[ 2.98537835e-02]]

  [[-3.87948416e-02]]

  [[ 2.48822905e-02]]

  [[ 1.35625238e-02]]

  [[ 2.93792877e-03]]

  [[ 8.05100985e-03]]

  [[-2.12758854e-02]]

  [[ 3.08223832e-02]]

  [[-2.48530321e-02]]

  [[ 7.06255483e-03]]

  [[-1.27815350e-03]]

  [[-2.00389586e-02]]

  [[-2.34145429e-02]]

  [[ 1.88984815e-02]]

  [[ 2.45791245e-02]]

  [[ 2.36119740e-02]]

  [[-8.43316093e-02]]

  [[-1.46869058e-02]]

  [[ 2.42364630e-02]]

  [[-2.96879113e-02]]

  [[-3.07211047e-03]]

  [[-2.67683025e-02]]

  [[ 2.42290869e-02]]

  [[-4.22395356e-02]]

  [[-6.92036515e-03]]

  [[-7.95876049e-03]]

  [[ 1.68968756e-02]]

  [[ 1.34078590e-02]]

  [[-1.16950599e-02]]

  [[ 1.27429783e-03]]

  [[-4.81903479e-02]]

  [[-1.68300010e-02]]

  [[ 1.42710414e-02]]

  [[ 1.69786494e-02]]

  [[ 3.27327922e-02]]

  [[-6.05635531e-02]]

  [[-1.23985559e-02]]

  [[ 1.60813564e-03]]

  [[ 2.81918608e-02]]

  [[ 9.96125280e-04]]

  [[ 4.79056463e-02]]

  [[ 1.07711248e-01]]

  [[ 7.31499493e-03]]

  [[-3.77515964e-02]]

  [[ 1.80097148e-02]]

  [[-3.58824315e-03]]

  [[ 2.69660540e-02]]

  [[ 7.20794732e-03]]

  [[-1.06481444e-02]]

  [[ 4.14650962e-02]]

  [[ 1.05707562e-02]]

  [[ 1.40963048e-01]]

  [[ 2.08224803e-02]]

  [[ 3.22388113e-02]]

  [[ 9.57663916e-03]]

  [[-1.27013540e-02]]

  [[ 3.08244266e-02]]

  [[ 5.53718954e-02]]

  [[ 2.13536415e-02]]

  [[-2.56456714e-03]]

  [[-5.07390127e-02]]

  [[ 1.14094606e-02]]

  [[ 2.74596852e-03]]

  [[ 1.41247567e-02]]

  [[ 1.22724120e-02]]

  [[-8.01107660e-03]]

  [[ 3.89081589e-03]]

  [[ 5.77856507e-03]]

  [[-9.56954807e-03]]

  [[ 2.90482622e-02]]

  [[ 2.55434979e-02]]

  [[-3.31858285e-02]]

  [[ 6.29646629e-02]]

  [[ 7.54660517e-02]]

  [[ 1.36692990e-02]]

  [[ 9.27961841e-02]]

  [[ 1.17965695e-02]]

  [[-9.86880530e-03]]

  [[ 2.94798031e-03]]

  [[-3.10124885e-02]]

  [[ 1.66265597e-03]]

  [[-2.27683485e-02]]

  [[ 6.03782795e-02]]

  [[-7.40114078e-02]]

  [[-4.43963148e-03]]

  [[ 2.90360637e-02]]

  [[ 6.38723315e-04]]

  [[ 4.11871411e-02]]

  [[ 3.78555320e-02]]

  [[ 5.81457131e-02]]

  [[ 8.02778918e-03]]

  [[-2.62769517e-02]]

  [[-3.44696529e-02]]

  [[ 8.91654659e-03]]

  [[ 3.60451341e-02]]

  [[ 4.00000252e-03]]

  [[ 5.14584919e-03]]

  [[ 4.59851697e-04]]

  [[ 1.36304051e-01]]

  [[ 2.41293665e-02]]

  [[-2.04833201e-03]]

  [[-2.25144289e-02]]

  [[ 3.49578001e-02]]

  [[ 3.15458998e-02]]

  [[ 4.28264290e-02]]

  [[ 3.86863761e-03]]

  [[ 5.14100902e-02]]

  [[-1.60312336e-02]]

  [[-3.46919202e-04]]

  [[-3.25089619e-02]]

  [[ 1.17202597e-02]]

  [[-1.03118801e-02]]

  [[ 7.64318742e-03]]

  [[-8.48147124e-02]]

  [[ 2.32926788e-04]]

  [[ 1.76077243e-02]]

  [[ 9.96867381e-03]]

  [[ 1.50416140e-02]]

  [[-8.30790435e-04]]

  [[ 4.79227155e-02]]

  [[-4.13388945e-02]]

  [[-6.74533006e-03]]

  [[ 9.24703199e-03]]

  [[ 4.14241552e-02]]

  [[-5.15707023e-02]]

  [[-1.55699868e-02]]

  [[-2.75501367e-02]]

  [[-2.69127486e-04]]

  [[-9.13350843e-03]]

  [[-5.19544706e-02]]

  [[-6.26936695e-03]]

  [[-2.40222681e-02]]

  [[ 2.44024564e-02]]

  [[ 5.05345687e-02]]

  [[ 3.41867767e-02]]

  [[ 2.10091490e-02]]

  [[-6.91471323e-02]]

  [[-3.69527824e-02]]

  [[ 6.88724872e-03]]

  [[ 3.58864516e-02]]

  [[-2.39448678e-02]]

  [[-9.40635987e-03]]

  [[ 2.26385500e-02]]

  [[-3.02913189e-02]]

  [[ 5.90098016e-02]]

  [[-1.16422810e-02]]

  [[ 2.09666044e-02]]

  [[ 3.32633778e-02]]

  [[ 5.43394946e-02]]

  [[ 3.02069914e-03]]

  [[ 1.66608915e-02]]

  [[-5.70103573e-03]]

  [[-1.77270046e-03]]

  [[-2.62078941e-02]]

  [[-1.49622336e-02]]

  [[ 1.30188957e-01]]

  [[-4.39837202e-02]]

  [[-7.88325444e-02]]

  [[ 3.65883969e-02]]

  [[-4.05656807e-02]]

  [[-2.50808857e-02]]

  [[ 7.17283040e-02]]

  [[ 1.48930959e-03]]

  [[ 6.96456730e-02]]

  [[ 2.89860554e-03]]

  [[-1.62630435e-03]]

  [[ 1.16613721e-02]]

  [[-2.42821611e-02]]

  [[ 5.37232216e-03]]

  [[ 4.13502101e-03]]

  [[-3.50695662e-03]]

  [[ 4.14143652e-02]]

  [[ 4.11645696e-03]]

  [[-3.41782011e-02]]

  [[ 4.58638631e-02]]

  [[-3.77242628e-04]]

  [[ 7.92434439e-02]]

  [[ 1.89569332e-02]]

  [[ 3.66243231e-03]]

  [[ 6.01643696e-03]]

  [[-5.91835380e-02]]

  [[-1.59968454e-02]]

  [[ 9.98619292e-03]]

  [[-6.89289020e-03]]

  [[ 1.26047917e-02]]

  [[-1.74777694e-02]]

  [[-5.81537336e-02]]

  [[-3.18508074e-02]]

  [[ 3.94755527e-02]]

  [[-1.60244368e-02]]

  [[-7.59300068e-02]]

  [[-1.40226167e-03]]

  [[ 8.69722478e-03]]

  [[-1.36048580e-02]]

  [[ 3.71562243e-02]]

  [[-1.65928982e-03]]

  [[ 1.38816014e-02]]

  [[ 1.95037220e-02]]

  [[-1.13876425e-02]]

  [[ 3.76533903e-02]]

  [[-2.63670553e-03]]

  [[-1.21956663e-02]]

  [[-1.33136299e-03]]

  [[-4.09264956e-03]]

  [[ 1.23826370e-01]]

  [[-5.94926365e-02]]

  [[ 2.34941090e-03]]

  [[ 2.21821535e-02]]

  [[-2.59849578e-02]]

  [[ 2.54945643e-02]]

  [[ 1.85172390e-02]]

  [[ 1.23690311e-02]]

  [[ 1.47961482e-01]]

  [[-7.50094876e-02]]

  [[ 1.98804401e-02]]

  [[ 7.64616281e-02]]

  [[-6.65206388e-02]]

  [[-4.37751971e-02]]

  [[-3.71292932e-03]]

  [[ 4.68549738e-03]]

  [[ 2.68134885e-02]]

  [[-1.58066638e-02]]

  [[ 5.22793904e-02]]

  [[-9.24204849e-03]]

  [[ 4.54423577e-03]]

  [[-4.67636324e-02]]

  [[ 2.05704216e-02]]

  [[ 2.64951065e-02]]

  [[-1.65872425e-02]]

  [[-8.29729252e-03]]

  [[-6.18506270e-03]]

  [[-1.38500053e-02]]

  [[-7.82284606e-03]]

  [[-3.38546932e-02]]

  [[-2.06972170e-03]]

  [[ 2.15896894e-03]]

  [[ 1.16163418e-02]]

  [[-9.47369881e-06]]

  [[ 2.81025358e-02]]

  [[ 1.81565864e-03]]

  [[-9.84414741e-02]]

  [[-3.73152904e-02]]

  [[ 5.46144554e-03]]

  [[-3.14223999e-03]]

  [[-2.81013665e-03]]

  [[ 1.69625524e-02]]

  [[-2.79183481e-02]]

  [[ 5.57203731e-03]]

  [[ 1.08088851e-02]]

  [[ 2.75166649e-02]]

  [[ 2.02458259e-02]]

  [[-3.39707434e-02]]

  [[ 2.72274995e-03]]

  [[ 7.88829569e-03]]

  [[-2.67608538e-02]]

  [[ 2.15652473e-02]]

  [[-3.84564064e-02]]

  [[ 5.72985485e-02]]

  [[-4.99690883e-02]]

  [[-2.86303107e-02]]

  [[-9.73954611e-03]]

  [[ 3.20076267e-03]]

  [[ 1.26596531e-02]]

  [[ 1.19547490e-02]]

  [[ 2.42996379e-03]]

  [[-5.02883904e-02]]

  [[-2.04143226e-02]]

  [[ 6.84784818e-03]]

  [[ 2.41876189e-02]]

  [[-2.37943865e-02]]

  [[-5.49467765e-02]]

  [[ 1.15593867e-02]]

  [[-2.44597979e-02]]

  [[-6.00805692e-03]]

  [[-7.29169026e-02]]

  [[ 2.09884588e-02]]

  [[-4.95935753e-02]]

  [[-1.01586515e-02]]

  [[-1.15708634e-02]]

  [[-2.05277419e-03]]

  [[-3.21875811e-02]]

  [[-6.48039998e-03]]

  [[-2.46330127e-02]]

  [[-3.58161586e-03]]

  [[ 4.99654375e-02]]

  [[-2.88058221e-02]]

  [[-1.12867709e-02]]

  [[-5.96055239e-02]]

  [[-3.06149479e-02]]

  [[-6.36133552e-02]]

  [[-3.09907552e-02]]

  [[-4.43211645e-02]]

  [[-4.64409068e-02]]

  [[ 8.35316023e-04]]

  [[ 4.52040657e-02]]

  [[ 1.67819541e-02]]

  [[ 5.02200285e-03]]

  [[ 1.19918939e-02]]

  [[-9.29408520e-03]]

  [[ 2.27928013e-02]]

  [[ 3.01110707e-02]]

  [[-1.20323896e-02]]

  [[ 1.70855820e-02]]

  [[-2.33548377e-02]]

  [[-3.11526489e-02]]

  [[ 7.24951131e-03]]

  [[ 7.40457466e-03]]

  [[ 4.15786132e-02]]

  [[-4.30386215e-02]]

  [[ 2.96169333e-02]]

  [[-2.28782110e-02]]

  [[-1.81873664e-02]]

  [[ 3.76664475e-03]]

  [[-5.49292332e-03]]

  [[ 5.49958833e-02]]

  [[ 2.22374704e-02]]

  [[ 4.19938825e-02]]

  [[-7.13874120e-03]]

  [[ 4.72371019e-02]]

  [[-7.05972835e-02]]

  [[-1.20641487e-02]]

  [[ 1.69090964e-02]]

  [[-1.22664985e-03]]

  [[-9.79938358e-03]]

  [[-7.16624931e-02]]

  [[-7.26029463e-03]]

  [[ 9.72824823e-03]]

  [[-2.70706732e-02]]

  [[-2.59358231e-02]]

  [[-5.94771877e-02]]

  [[-5.53773455e-02]]

  [[-6.28254935e-02]]

  [[ 3.88344377e-02]]

  [[-3.26669496e-03]]

  [[ 2.08122641e-01]]

  [[-3.72098684e-02]]

  [[ 4.97162193e-02]]

  [[-3.69152083e-04]]

  [[ 7.12521151e-02]]

  [[-2.65249945e-02]]

  [[ 1.40840365e-02]]

  [[ 9.11853835e-03]]

  [[-7.96125233e-02]]

  [[-6.53016032e-04]]

  [[-5.23411334e-02]]

  [[-1.78886373e-02]]

  [[ 1.34920944e-02]]

  [[-2.73349956e-02]]

  [[-2.78185904e-02]]

  [[ 5.95051274e-02]]

  [[-7.40022138e-02]]

  [[-8.76984149e-02]]

  [[-4.58287373e-02]]

  [[-4.70842198e-02]]

  [[ 1.65000297e-02]]

  [[-4.64305468e-02]]

  [[ 7.25919157e-02]]

  [[-4.63464670e-02]]

  [[-2.45920755e-03]]

  [[-1.11218588e-03]]

  [[ 4.28426415e-02]]

  [[-9.16207433e-02]]

  [[ 2.44381636e-01]]

  [[ 3.90062034e-02]]

  [[ 3.58480401e-02]]

  [[ 6.48158183e-03]]

  [[-1.59907844e-02]]

  [[-6.56318739e-02]]

  [[ 7.82458950e-03]]

  [[ 3.45692895e-02]]

  [[-2.27645729e-02]]

  [[ 1.00125074e-02]]

  [[ 1.21758925e-02]]

  [[ 1.01197101e-02]]

  [[ 1.34758025e-01]]

  [[ 7.63550820e-03]]

  [[-4.28882800e-02]]

  [[ 1.29295215e-01]]

  [[ 9.54953767e-03]]

  [[-7.67201465e-03]]

  [[-3.70520949e-02]]

  [[ 1.47681474e-03]]

  [[-1.97287812e-03]]

  [[-2.03352664e-02]]

  [[-6.15461692e-02]]

  [[ 2.00160872e-02]]

  [[-2.19452176e-02]]

  [[-5.48406094e-02]]

  [[ 8.57233703e-02]]

  [[-4.23314944e-02]]

  [[-2.10755095e-02]]

  [[-3.16292830e-02]]

  [[ 2.91823260e-02]]

  [[-1.24459537e-02]]

  [[-1.78754721e-02]]

  [[-3.30785778e-03]]

  [[-4.51689698e-02]]

  [[ 4.33103815e-02]]

  [[-1.97421610e-02]]

  [[-1.23816542e-02]]

  [[ 1.72238089e-02]]

  [[-5.61843030e-02]]

  [[-6.85487548e-03]]

  [[-2.69017415e-03]]

  [[-3.39278243e-02]]

  [[-6.51107132e-02]]

  [[ 7.73058906e-02]]

  [[ 4.39706556e-02]]

  [[-2.66271774e-02]]

  [[-1.22714806e-02]]

  [[-1.39036374e-02]]

  [[-1.72500722e-02]]

  [[ 1.44400503e-02]]

  [[ 9.28056687e-02]]

  [[-3.07373386e-02]]

  [[-4.15406711e-02]]

  [[ 1.75878387e-02]]

  [[ 8.97488669e-02]]

  [[ 1.03940917e-02]]

  [[ 2.77895462e-02]]

  [[ 2.61080191e-02]]

  [[-2.29190923e-02]]

  [[ 5.68678789e-03]]

  [[-2.03993563e-02]]

  [[ 4.75562410e-03]]

  [[-4.52659233e-03]]

  [[-6.97879121e-02]]

  [[ 1.22287851e-02]]

  [[-2.39020586e-02]]

  [[ 6.67977380e-03]]

  [[ 1.23684309e-01]]

  [[ 4.09116037e-02]]

  [[-5.28770722e-02]]

  [[-2.79147048e-02]]

  [[ 2.18539402e-01]]

  [[-1.14526162e-02]]

  [[-5.29430024e-02]]

  [[-2.25337781e-02]]

  [[-2.41185762e-02]]

  [[-8.52551684e-02]]

  [[-1.30541595e-02]]

  [[ 3.50473681e-03]]

  [[-6.32729530e-02]]

  [[-1.72707047e-02]]

  [[-6.98137376e-03]]

  [[ 1.87672451e-02]]

  [[ 2.89962962e-02]]

  [[-4.14305367e-02]]

  [[-1.83179602e-02]]

  [[-2.24314015e-02]]

  [[ 1.62865818e-02]]

  [[-1.52924275e-02]]

  [[-8.81432369e-03]]]


 [[[ 7.93366227e-03]]

  [[-7.05166068e-03]]

  [[ 5.64267905e-03]]

  [[ 1.24146882e-02]]

  [[-2.04616748e-02]]

  [[ 1.07050920e-02]]

  [[ 1.56302899e-02]]

  [[ 9.43558291e-03]]

  [[-1.00169545e-02]]

  [[ 2.78004017e-02]]

  [[ 1.71404460e-03]]

  [[ 2.95541459e-03]]

  [[ 1.03602614e-02]]

  [[ 1.18672289e-02]]

  [[ 2.98886071e-03]]

  [[-3.37596075e-03]]

  [[ 1.63533520e-02]]

  [[ 4.04302403e-02]]

  [[ 2.24148519e-02]]

  [[ 2.49744169e-02]]

  [[ 2.84823608e-02]]

  [[-4.76006651e-04]]

  [[ 4.33332054e-03]]

  [[ 5.80134429e-02]]

  [[-1.34519422e-02]]

  [[ 1.72587286e-03]]

  [[-4.42961939e-02]]

  [[-5.45620266e-03]]

  [[ 3.61206988e-03]]

  [[ 1.78644434e-02]]

  [[ 3.21316556e-03]]

  [[ 2.49183662e-02]]

  [[ 5.03501929e-02]]

  [[ 6.38213148e-03]]

  [[ 2.29818840e-02]]

  [[-1.36718564e-02]]

  [[ 5.20227198e-03]]

  [[ 1.89893041e-02]]

  [[-1.64919961e-02]]

  [[ 2.16141287e-02]]

  [[ 7.91339297e-03]]

  [[-5.83644956e-03]]

  [[ 2.23115999e-02]]

  [[-1.16820792e-02]]

  [[ 4.91399039e-03]]

  [[-8.24270025e-02]]

  [[-1.29458886e-02]]

  [[ 1.58430822e-02]]

  [[-4.88989241e-03]]

  [[ 3.16460282e-02]]

  [[ 1.63767822e-02]]

  [[ 2.01359782e-02]]

  [[ 3.54549754e-03]]

  [[ 3.13482210e-02]]

  [[ 5.35055110e-03]]

  [[ 3.15619037e-02]]

  [[ 1.98076479e-03]]

  [[ 1.57049559e-02]]

  [[-1.46457860e-02]]

  [[ 6.13784557e-03]]

  [[ 8.28490220e-03]]

  [[-3.20266634e-02]]

  [[ 2.29935013e-02]]

  [[ 1.34370849e-02]]

  [[-1.79179702e-02]]

  [[ 3.89782041e-02]]

  [[ 5.93716726e-02]]

  [[ 9.59641486e-03]]

  [[-1.28567340e-02]]

  [[ 3.95747758e-02]]

  [[ 7.29153454e-02]]

  [[ 1.44487536e-02]]

  [[-6.80724811e-03]]

  [[ 8.26615617e-02]]

  [[-8.08973797e-03]]

  [[ 1.32841850e-02]]

  [[ 4.40076441e-02]]

  [[-4.85548489e-02]]

  [[ 2.34518386e-03]]

  [[ 1.42257950e-05]]

  [[-4.25833929e-03]]

  [[-8.10229452e-04]]

  [[ 2.00908389e-02]]

  [[-4.78534624e-02]]

  [[-9.34853777e-03]]

  [[ 4.05053515e-03]]

  [[-1.34729668e-02]]

  [[ 1.48199741e-02]]

  [[ 1.44913653e-02]]

  [[-2.48045381e-02]]

  [[ 3.14062610e-02]]

  [[-1.72615163e-02]]

  [[-4.20552045e-02]]

  [[-1.81726571e-02]]

  [[ 2.89301891e-02]]

  [[-2.96039297e-03]]

  [[-3.54521759e-02]]

  [[ 4.41369461e-03]]

  [[ 8.55084136e-03]]

  [[ 7.20921159e-03]]

  [[ 8.22490721e-04]]

  [[ 4.64512371e-02]]

  [[-1.85505543e-02]]

  [[ 1.83723979e-02]]

  [[-6.45337254e-03]]

  [[-2.83364821e-02]]

  [[-2.73372196e-02]]

  [[ 1.57078151e-02]]

  [[ 1.83404479e-02]]

  [[ 1.61137478e-03]]

  [[-1.56664333e-04]]

  [[ 6.26751978e-04]]

  [[ 1.00998254e-02]]

  [[-5.42687112e-03]]

  [[ 5.01504578e-02]]

  [[ 2.79355645e-02]]

  [[-3.74993728e-03]]

  [[ 8.10899585e-02]]

  [[ 4.72051129e-02]]

  [[-7.84595460e-02]]

  [[ 1.78372376e-02]]

  [[-6.70955852e-02]]

  [[-5.70668951e-02]]

  [[-2.89714914e-02]]

  [[-6.49381131e-02]]

  [[ 1.02589959e-02]]

  [[-2.59424280e-02]]

  [[-3.06656864e-02]]

  [[-7.48226931e-03]]

  [[ 3.16806249e-02]]

  [[ 1.58099439e-02]]

  [[-1.21004926e-02]]

  [[ 4.79703862e-03]]

  [[-1.12253497e-03]]

  [[-2.41366252e-02]]

  [[ 5.13466857e-02]]

  [[-7.74699962e-03]]

  [[-8.49790275e-02]]

  [[ 6.74628988e-02]]

  [[-2.15344736e-03]]

  [[-1.35656213e-02]]

  [[-1.44004752e-03]]

  [[ 6.72193011e-03]]

  [[-1.72614213e-02]]

  [[-3.05108521e-02]]

  [[ 9.64334756e-02]]

  [[ 1.05083235e-01]]

  [[-5.49304858e-03]]

  [[-9.49366670e-03]]

  [[-4.96273376e-02]]

  [[ 1.84982363e-02]]

  [[-8.49940330e-02]]

  [[-6.20909333e-02]]

  [[ 2.61965133e-02]]

  [[ 4.20899354e-02]]

  [[ 2.22543906e-02]]

  [[-9.06366840e-05]]

  [[-2.78142858e-02]]

  [[ 2.50637624e-02]]

  [[ 5.93968388e-03]]

  [[-2.80211791e-02]]

  [[ 1.21493405e-02]]

  [[ 2.53053978e-02]]

  [[ 6.86776862e-02]]

  [[ 1.40460404e-02]]

  [[ 1.73594803e-02]]

  [[-5.60674770e-03]]

  [[-2.73309927e-02]]

  [[ 2.12669279e-02]]

  [[ 1.74380448e-02]]

  [[-6.04113340e-02]]

  [[-1.30354427e-02]]

  [[ 8.47024471e-03]]

  [[-1.11277001e-02]]

  [[ 4.51169647e-02]]

  [[ 1.45833278e-02]]

  [[ 6.85231611e-02]]

  [[-5.27539738e-02]]

  [[-1.73679180e-02]]

  [[ 2.31261197e-02]]

  [[-3.00260186e-02]]

  [[ 7.68970000e-03]]

  [[-6.51402548e-02]]

  [[ 5.20863570e-02]]

  [[-4.71938215e-02]]

  [[ 1.03648286e-02]]

  [[ 1.28978090e-02]]

  [[ 3.63821648e-02]]

  [[-7.75277941e-03]]

  [[-2.31111180e-02]]

  [[-1.41261453e-02]]

  [[-1.65150408e-02]]

  [[-2.09729243e-02]]

  [[ 1.72423068e-02]]

  [[-5.85720614e-02]]

  [[ 3.15010920e-02]]

  [[-2.37470251e-02]]

  [[ 4.85404860e-03]]

  [[-8.95528216e-03]]

  [[ 6.55930629e-03]]

  [[-2.05283379e-03]]

  [[ 1.63260605e-02]]

  [[ 2.63741519e-03]]

  [[ 3.88161722e-03]]

  [[-4.03187908e-02]]

  [[-5.73677709e-03]]

  [[ 3.07784677e-02]]

  [[ 2.56664306e-02]]

  [[-1.10620014e-01]]

  [[-2.51815319e-02]]

  [[ 7.58246146e-03]]

  [[-4.39915136e-02]]

  [[-1.14825089e-03]]

  [[-9.74943023e-03]]

  [[-3.08392812e-02]]

  [[-7.57004023e-02]]

  [[ 9.32092592e-03]]

  [[-4.97150188e-03]]

  [[ 5.27332071e-03]]

  [[ 2.92452630e-02]]

  [[-8.48119557e-02]]

  [[ 7.17315124e-03]]

  [[ 4.96981200e-03]]

  [[ 1.31274657e-02]]

  [[ 2.01625004e-02]]

  [[ 8.20942223e-03]]

  [[-5.72074065e-03]]

  [[-6.25722632e-02]]

  [[ 6.95403945e-03]]

  [[ 2.41124984e-02]]

  [[ 4.64492850e-03]]

  [[-2.87231002e-02]]

  [[ 8.21816456e-03]]

  [[ 2.14161053e-02]]

  [[ 1.62437931e-02]]

  [[-3.46528515e-02]]

  [[-8.06601048e-02]]

  [[ 1.49957770e-02]]

  [[ 1.47775877e-02]]

  [[ 1.39000058e-01]]

  [[ 2.45470554e-02]]

  [[ 1.62569154e-02]]

  [[ 1.14495389e-01]]

  [[-3.04432563e-03]]

  [[-4.79385443e-02]]

  [[-3.43238818e-03]]

  [[-5.79470862e-03]]

  [[ 7.46816918e-02]]

  [[-4.37179580e-02]]

  [[ 3.69600169e-02]]

  [[ 1.44972447e-02]]

  [[-4.58983034e-02]]

  [[-1.09021943e-02]]

  [[-1.69508129e-01]]

  [[ 4.32487577e-02]]

  [[ 1.69376265e-02]]

  [[ 1.57722868e-02]]

  [[-2.04165354e-02]]

  [[-1.16768982e-02]]

  [[-3.97182629e-02]]

  [[ 4.43376005e-02]]

  [[ 2.46951152e-02]]

  [[-3.74769140e-03]]

  [[-9.40135680e-03]]

  [[-2.15491187e-02]]

  [[ 2.68130153e-02]]

  [[ 4.51520905e-02]]

  [[ 4.54569556e-04]]

  [[ 7.79565237e-03]]

  [[ 2.41098995e-03]]

  [[ 1.89307462e-02]]

  [[ 2.09914800e-02]]

  [[-2.58372887e-03]]

  [[ 6.67778589e-03]]

  [[ 3.98524813e-02]]

  [[ 1.09259393e-02]]

  [[-4.81030252e-03]]

  [[ 1.38937961e-02]]

  [[ 1.87336339e-03]]

  [[ 2.52581201e-02]]

  [[-1.69708654e-02]]

  [[-2.16493495e-02]]

  [[ 1.38234459e-02]]

  [[ 4.98335948e-03]]

  [[ 8.86609126e-03]]

  [[ 9.93847847e-02]]

  [[-5.57645364e-03]]

  [[-4.70465161e-02]]

  [[-1.67408921e-02]]

  [[ 8.63187201e-03]]

  [[-3.96817066e-02]]

  [[-4.48564999e-02]]

  [[ 2.32371166e-02]]

  [[ 1.55033646e-02]]

  [[ 1.97929284e-03]]

  [[ 1.27644173e-03]]

  [[ 2.64269579e-02]]

  [[-1.41129000e-02]]

  [[-4.27803723e-03]]

  [[ 5.66354534e-03]]

  [[-1.87719241e-02]]

  [[-3.16934325e-02]]

  [[-2.98461784e-02]]

  [[ 1.14559485e-02]]

  [[-6.55802339e-03]]

  [[ 1.30967930e-01]]

  [[ 3.13524492e-02]]

  [[-1.15360422e-02]]

  [[ 5.41329831e-02]]

  [[ 1.09630078e-02]]

  [[ 2.11277995e-02]]

  [[-1.57285593e-02]]

  [[ 1.33747887e-02]]

  [[ 1.29546095e-02]]

  [[ 2.61155311e-02]]

  [[ 6.87114662e-03]]

  [[ 1.94022581e-02]]

  [[-2.37603905e-03]]

  [[-4.56329733e-02]]

  [[-6.87548006e-03]]

  [[ 9.21095721e-03]]

  [[ 4.44262624e-02]]

  [[-2.37248912e-02]]

  [[-1.32882129e-02]]

  [[-3.69841158e-02]]

  [[-7.54546225e-02]]

  [[ 1.81183554e-02]]

  [[-1.18978061e-01]]

  [[-3.67596522e-02]]

  [[-4.70439382e-02]]

  [[ 7.75431003e-03]]

  [[ 2.65892968e-02]]

  [[-2.30454560e-02]]

  [[ 1.07235424e-02]]

  [[-1.81572251e-02]]

  [[-2.44045770e-03]]

  [[ 6.80524707e-02]]

  [[ 3.07886186e-03]]

  [[ 3.04123014e-03]]

  [[ 4.02800702e-02]]

  [[-2.63067801e-02]]

  [[-1.07967784e-03]]

  [[ 1.70508102e-02]]

  [[ 1.86214875e-02]]

  [[ 2.90800668e-02]]

  [[-6.50013760e-02]]

  [[ 1.51731698e-02]]

  [[-3.29534933e-02]]

  [[-8.13920274e-02]]

  [[ 2.64312024e-03]]

  [[ 2.81488206e-02]]

  [[-9.23862830e-02]]

  [[-4.43817638e-02]]

  [[-4.76438589e-02]]

  [[-1.78003702e-02]]

  [[-7.85223693e-02]]

  [[ 1.35842664e-02]]

  [[ 1.27863465e-02]]

  [[-2.32547484e-02]]

  [[ 1.34315519e-02]]

  [[-5.54027408e-03]]

  [[ 7.22770169e-02]]

  [[-8.42123933e-04]]

  [[ 1.24136666e-02]]

  [[ 3.27438302e-02]]

  [[-2.71868091e-02]]

  [[ 5.05466759e-03]]

  [[-3.03234681e-02]]

  [[-4.21883352e-03]]

  [[-2.98305582e-02]]

  [[ 5.78975957e-03]]

  [[-2.65165605e-03]]

  [[ 4.92159568e-04]]

  [[-3.00064608e-02]]

  [[ 2.56995130e-02]]

  [[-6.70462102e-03]]

  [[ 6.91663697e-02]]

  [[ 2.64768442e-03]]

  [[-6.59584999e-02]]

  [[-7.72388419e-03]]

  [[-2.52961386e-02]]

  [[-1.80565659e-02]]

  [[ 6.44486919e-02]]

  [[ 3.54242101e-02]]

  [[ 5.31433895e-03]]

  [[-3.26253250e-02]]

  [[-3.10957991e-02]]

  [[-1.63585506e-02]]

  [[-2.74708737e-02]]

  [[-6.90609822e-03]]

  [[ 3.83704645e-03]]

  [[ 2.22911849e-03]]

  [[ 2.90471166e-02]]

  [[ 3.31598404e-03]]

  [[ 3.54619659e-02]]

  [[-2.64196694e-02]]

  [[-2.19188370e-02]]

  [[ 2.46464950e-03]]

  [[ 4.89583425e-03]]

  [[-6.03535306e-03]]

  [[-1.36265410e-02]]

  [[-2.11363100e-02]]

  [[ 6.57502282e-03]]

  [[ 1.61189158e-02]]

  [[ 2.80409865e-03]]

  [[ 7.95664545e-03]]

  [[-7.41129275e-03]]

  [[ 1.09910309e-01]]

  [[ 2.42024139e-02]]

  [[ 8.71810410e-03]]

  [[-4.04324383e-02]]

  [[-2.07258482e-02]]

  [[-6.24485873e-02]]

  [[-9.86186881e-03]]

  [[ 6.10333029e-03]]

  [[-6.98284106e-03]]

  [[ 1.22500788e-02]]

  [[ 2.31394507e-02]]

  [[ 3.35798413e-03]]

  [[-1.75401997e-02]]

  [[ 7.90378079e-03]]

  [[-2.34991927e-02]]

  [[ 1.01002846e-02]]

  [[ 5.57914823e-02]]

  [[-3.95150669e-02]]

  [[ 9.93459113e-03]]

  [[ 9.23113897e-03]]

  [[ 4.47274745e-02]]

  [[ 6.44429354e-03]]

  [[-4.25791880e-03]]

  [[-2.02343389e-02]]

  [[ 3.55177671e-02]]

  [[ 2.36678799e-03]]

  [[-6.24791123e-02]]

  [[ 1.10150337e-01]]

  [[-6.70106262e-02]]

  [[-1.21539729e-02]]

  [[ 1.60379354e-02]]

  [[-5.62178157e-02]]

  [[ 7.27195339e-03]]

  [[ 6.46960586e-02]]

  [[-1.75551958e-02]]

  [[ 1.13052931e-02]]

  [[ 3.02758869e-02]]

  [[-1.73018128e-02]]

  [[-3.76971834e-03]]

  [[-2.15604566e-02]]

  [[ 4.45692940e-03]]

  [[-1.86504051e-02]]

  [[-6.05526939e-03]]

  [[ 2.25069057e-02]]

  [[ 8.03460255e-02]]

  [[ 2.75560422e-03]]

  [[ 2.55989656e-02]]

  [[-2.93885241e-03]]

  [[ 1.44177033e-02]]

  [[-1.23160733e-02]]

  [[ 2.18101554e-02]]

  [[ 2.24450938e-02]]

  [[-4.25103083e-02]]

  [[-5.55315521e-03]]

  [[ 1.06868688e-02]]

  [[ 5.16633177e-03]]

  [[-1.25857862e-02]]

  [[ 4.86020595e-02]]

  [[ 1.08916499e-02]]

  [[-7.29692075e-03]]

  [[-1.23335365e-02]]

  [[ 3.65819559e-02]]

  [[-2.58832704e-03]]

  [[ 2.05455236e-02]]

  [[ 4.43665497e-03]]

  [[-4.64492384e-03]]

  [[-5.32959923e-02]]

  [[-1.00959716e-02]]

  [[ 5.13996445e-02]]

  [[ 4.50613536e-02]]

  [[-4.16471101e-02]]

  [[ 1.64664641e-03]]

  [[ 5.83660882e-03]]

  [[ 3.64899356e-03]]

  [[ 1.58349592e-02]]

  [[ 1.39629394e-02]]

  [[ 1.78372732e-03]]

  [[-1.42480470e-02]]

  [[ 2.32878700e-02]]

  [[-7.55776241e-02]]

  [[ 1.34352744e-02]]

  [[-2.01636124e-02]]

  [[ 3.41754965e-02]]

  [[ 1.02158459e-02]]

  [[-5.35946563e-02]]

  [[-2.50515863e-02]]

  [[ 3.93886585e-03]]

  [[ 2.54423320e-02]]

  [[ 4.83933166e-02]]

  [[-1.16953421e-02]]

  [[-4.04452197e-02]]

  [[ 2.33944748e-02]]

  [[-1.09237112e-01]]

  [[ 1.98466610e-02]]

  [[-2.89033838e-02]]

  [[ 1.91473048e-02]]

  [[ 4.54189926e-02]]

  [[-2.64007822e-02]]

  [[ 3.66936438e-02]]

  [[ 5.04981838e-02]]

  [[-1.87317319e-02]]

  [[-2.94920392e-02]]

  [[-1.07232155e-02]]

  [[ 1.21916812e-02]]

  [[-4.04585302e-02]]

  [[-3.90086137e-02]]

  [[-7.87767489e-03]]

  [[-1.63406897e-02]]

  [[-1.14756543e-02]]

  [[ 6.48001255e-03]]

  [[-7.67268240e-02]]

  [[ 9.82994493e-03]]

  [[ 6.62101656e-02]]

  [[ 1.25013441e-02]]

  [[ 2.37877928e-02]]

  [[-7.67451618e-03]]

  [[-4.36676778e-02]]

  [[-1.67359710e-02]]

  [[ 7.38726854e-02]]

  [[ 1.69456229e-02]]

  [[-6.34806603e-02]]

  [[-2.43070927e-02]]

  [[-4.46119942e-02]]

  [[ 3.15027009e-03]]

  [[ 2.39207894e-02]]

  [[ 2.29083803e-02]]

  [[-3.75252925e-02]]

  [[ 3.88528593e-02]]

  [[-7.20369890e-02]]

  [[-1.73857883e-02]]

  [[-3.14508826e-02]]

  [[-5.68519197e-02]]

  [[-1.41861346e-02]]

  [[-3.92334536e-02]]

  [[ 4.08814326e-02]]

  [[ 1.33545222e-02]]

  [[ 5.27931079e-02]]

  [[ 1.38336606e-03]]

  [[-7.41029754e-02]]

  [[ 1.82470027e-02]]

  [[-5.14999069e-02]]

  [[-5.20204194e-03]]

  [[-5.48822358e-02]]

  [[ 6.33636937e-02]]

  [[ 1.23695713e-02]]

  [[ 2.12166384e-02]]

  [[ 1.23869786e-02]]

  [[-1.17184659e-02]]

  [[-1.52042611e-02]]

  [[-7.39103043e-03]]

  [[-3.81251127e-02]]

  [[ 1.12112269e-01]]

  [[-4.16269340e-02]]

  [[ 2.01369822e-02]]

  [[-6.08584695e-02]]

  [[ 1.55918747e-02]]

  [[-7.11246282e-02]]

  [[-3.97128128e-02]]

  [[-4.31624465e-02]]

  [[-4.15174477e-02]]

  [[ 9.24496725e-03]]

  [[-2.30043810e-02]]

  [[ 2.48037186e-02]]

  [[-5.26244938e-02]]

  [[-3.83147076e-02]]

  [[-1.55666126e-02]]

  [[-5.54635972e-02]]

  [[-4.44752686e-02]]

  [[ 5.74952364e-03]]

  [[-4.33701500e-02]]

  [[ 3.33643854e-02]]

  [[ 2.09886245e-02]]

  [[-1.51833259e-02]]

  [[-6.62293807e-02]]

  [[ 6.80529419e-03]]

  [[ 8.68335739e-03]]

  [[-4.54676077e-02]]

  [[-1.78419612e-02]]

  [[ 1.17712030e-02]]

  [[-1.56346634e-02]]

  [[-1.20871719e-02]]

  [[ 1.06136259e-02]]

  [[-4.93223481e-02]]

  [[-4.34958078e-02]]

  [[-2.39452673e-03]]

  [[-2.25905739e-02]]

  [[ 6.78644925e-02]]

  [[ 1.19967703e-02]]

  [[ 5.47095248e-03]]

  [[-4.77241445e-03]]

  [[ 3.38281728e-02]]

  [[ 4.61205514e-03]]

  [[ 6.55253306e-02]]

  [[ 1.12370336e-02]]

  [[-9.63128135e-02]]

  [[ 2.79725734e-02]]

  [[-3.21549922e-03]]

  [[ 2.34611873e-02]]

  [[-5.03111370e-02]]

  [[-3.32475118e-02]]

  [[ 3.60757671e-02]]

  [[ 3.11928745e-02]]

  [[ 8.40006769e-03]]

  [[ 7.54932500e-03]]

  [[-7.38534555e-02]]

  [[ 2.80544665e-02]]

  [[-8.30605440e-03]]

  [[ 9.53835156e-03]]

  [[ 4.92511056e-02]]

  [[-4.45310548e-02]]

  [[-7.74329454e-02]]

  [[ 4.10870798e-02]]

  [[-1.19556608e-02]]

  [[-5.21008931e-02]]

  [[-7.46416599e-02]]

  [[-1.44032724e-02]]

  [[-4.93831374e-03]]

  [[-6.22616224e-02]]

  [[-1.12073831e-01]]

  [[-7.28098154e-02]]

  [[-3.58020584e-03]]

  [[ 2.63644364e-02]]

  [[-3.18752900e-02]]

  [[ 2.34802011e-02]]

  [[ 2.45889649e-02]]

  [[-8.30328278e-03]]

  [[-3.20607722e-02]]

  [[-1.32304551e-02]]

  [[-5.25020482e-03]]

  [[ 4.98136356e-02]]

  [[ 3.80005240e-02]]

  [[ 7.65588209e-02]]

  [[-1.01524815e-01]]

  [[ 6.20021410e-02]]

  [[ 7.25651020e-03]]

  [[-2.55008973e-02]]

  [[ 7.14760553e-03]]

  [[ 3.08162486e-03]]

  [[ 3.46070305e-02]]

  [[-5.05656842e-03]]

  [[-5.31671531e-02]]

  [[-3.48859839e-02]]

  [[ 5.26024997e-02]]

  [[ 2.75853481e-02]]

  [[-4.64099124e-02]]

  [[ 3.95821631e-02]]

  [[ 6.18332177e-02]]

  [[ 6.22253865e-02]]

  [[ 7.44250510e-03]]

  [[-4.57176007e-02]]

  [[-2.24514902e-02]]

  [[-2.31167972e-02]]

  [[ 8.33301470e-02]]

  [[-3.18878368e-02]]

  [[ 1.93167534e-02]]

  [[ 4.08751518e-02]]

  [[ 1.17529482e-02]]

  [[-6.87749591e-04]]

  [[ 2.11176306e-01]]

  [[-5.58093712e-02]]

  [[-1.95288733e-02]]

  [[-2.58545130e-02]]

  [[ 1.68213379e-02]]

  [[-1.76340919e-02]]

  [[-5.06473752e-03]]]


 [[[-3.75227095e-03]]

  [[-1.41681274e-02]]

  [[ 2.14835834e-02]]

  [[ 2.54758430e-04]]

  [[ 1.74346268e-02]]

  [[ 2.77998718e-03]]

  [[ 3.50668356e-02]]

  [[-1.00945504e-02]]

  [[-3.28133861e-03]]

  [[-1.14802050e-03]]

  [[-2.47032959e-02]]

  [[ 1.98800508e-02]]

  [[ 1.13200638e-02]]

  [[-3.52948415e-03]]

  [[ 1.23779438e-02]]

  [[ 6.35906234e-02]]

  [[-2.66295229e-03]]

  [[ 6.66154968e-03]]

  [[ 5.21006621e-03]]

  [[-2.60874927e-02]]

  [[ 8.33907689e-04]]

  [[-2.50523277e-02]]

  [[-2.90150777e-03]]

  [[ 7.67727557e-04]]

  [[ 1.26101729e-02]]

  [[-1.88370720e-02]]

  [[ 4.04745853e-03]]

  [[ 4.46937000e-03]]

  [[ 5.76696452e-03]]

  [[-4.31173976e-04]]

  [[-2.85307262e-02]]

  [[-3.78477178e-03]]

  [[-3.72762047e-02]]

  [[-1.34614892e-02]]

  [[-1.02210324e-02]]

  [[ 1.01571353e-02]]

  [[-1.57083361e-03]]

  [[-4.41154279e-02]]

  [[-9.34132189e-02]]

  [[-4.34585027e-02]]

  [[ 7.67671168e-02]]

  [[ 1.03506949e-02]]

  [[ 8.75155628e-03]]

  [[ 1.24134496e-02]]

  [[-7.72849796e-03]]

  [[-6.15640432e-02]]

  [[-9.17323492e-03]]

  [[-9.42922942e-03]]

  [[-1.22277942e-02]]

  [[ 3.56377363e-02]]

  [[-1.36949020e-02]]

  [[ 1.09405175e-03]]

  [[-6.53767493e-03]]

  [[ 1.76761125e-03]]

  [[ 1.96859073e-02]]

  [[-5.16390577e-02]]

  [[ 2.93754134e-02]]

  [[ 3.68613936e-02]]

  [[ 7.29385903e-03]]

  [[-3.70718576e-02]]

  [[-4.97673824e-03]]

  [[-1.58400852e-02]]

  [[-2.06776476e-03]]

  [[-1.80165134e-02]]

  [[-5.90320006e-02]]

  [[-6.05343357e-02]]

  [[-6.91052526e-02]]

  [[ 1.19013637e-02]]

  [[-6.95115421e-03]]

  [[-5.96472155e-03]]

  [[ 2.48257536e-02]]

  [[ 2.39075883e-03]]

  [[ 1.57809276e-02]]

  [[-4.24190536e-02]]

  [[ 2.81260535e-03]]

  [[ 1.62959956e-02]]

  [[-2.02080756e-02]]

  [[-5.23561947e-02]]

  [[-1.28607452e-02]]

  [[ 1.35414384e-03]]

  [[ 2.45836889e-03]]

  [[ 6.64212834e-03]]

  [[-8.51025991e-03]]

  [[-2.68768314e-02]]

  [[-4.91427816e-03]]

  [[-8.33408069e-03]]

  [[-4.03355062e-02]]

  [[ 4.18552943e-03]]

  [[ 1.41705740e-02]]

  [[-6.51930226e-04]]

  [[-5.73344789e-02]]

  [[ 4.19662101e-03]]

  [[ 8.57600104e-03]]

  [[-3.67670357e-02]]

  [[-8.70158616e-03]]

  [[ 2.08685882e-02]]

  [[ 7.81539362e-03]]

  [[-8.74176808e-03]]

  [[-2.45568305e-02]]

  [[ 7.80278966e-02]]

  [[-8.17697775e-03]]

  [[-4.11447361e-02]]

  [[-3.44999656e-02]]

  [[-5.27317151e-02]]

  [[ 1.13847957e-03]]

  [[ 1.01895332e-02]]

  [[-4.65544760e-02]]

  [[ 8.02508220e-02]]

  [[ 5.57107478e-03]]

  [[ 5.84481061e-02]]

  [[ 6.44741440e-03]]

  [[ 5.32539468e-03]]

  [[ 2.90541481e-02]]

  [[-1.14336843e-02]]

  [[-6.70827106e-02]]

  [[ 4.97986823e-02]]

  [[-8.72122776e-03]]

  [[-2.26284713e-02]]

  [[ 4.07313928e-02]]

  [[-3.82924266e-02]]

  [[ 5.01677766e-03]]

  [[-3.93366301e-03]]

  [[ 2.33874246e-02]]

  [[ 4.18983288e-02]]

  [[ 3.87592837e-02]]

  [[ 1.71508864e-02]]

  [[-2.59076990e-03]]

  [[ 4.82793897e-02]]

  [[ 3.68659832e-02]]

  [[-3.22134979e-02]]

  [[-3.52558792e-02]]

  [[-1.99369360e-02]]

  [[-4.47152182e-03]]

  [[ 4.20076121e-03]]

  [[ 2.96303816e-02]]

  [[ 6.17285725e-03]]

  [[ 1.78250931e-02]]

  [[-3.71639319e-02]]

  [[-2.22505163e-02]]

  [[-4.66707599e-04]]

  [[-3.13304015e-03]]

  [[-2.36790851e-02]]

  [[-2.28942512e-03]]

  [[-1.05900383e-02]]

  [[ 3.19385272e-03]]

  [[-1.78062581e-02]]

  [[-3.16714235e-02]]

  [[ 2.07910407e-03]]

  [[-9.04826447e-03]]

  [[-1.41202714e-02]]

  [[ 1.60506368e-02]]

  [[-3.96194868e-02]]

  [[-1.56765338e-02]]

  [[ 5.86380344e-03]]

  [[-3.67407463e-02]]

  [[ 1.38711622e-02]]

  [[-1.11232661e-02]]

  [[-1.00392967e-01]]

  [[-2.80456580e-02]]

  [[-1.68381091e-02]]

  [[ 3.02029960e-03]]

  [[-1.02312835e-02]]

  [[ 1.24913352e-02]]

  [[-2.37511471e-02]]

  [[-3.04076332e-03]]

  [[-3.02472282e-02]]

  [[-1.97962299e-02]]

  [[ 2.68171076e-02]]

  [[ 1.23498579e-02]]

  [[-3.23026031e-02]]

  [[ 9.73552614e-02]]

  [[ 5.85111137e-03]]

  [[-1.24751532e-03]]

  [[ 7.88975786e-03]]

  [[ 2.99230162e-02]]

  [[-6.59106113e-03]]

  [[ 1.60898343e-01]]

  [[ 1.28576487e-01]]

  [[ 2.51415484e-02]]

  [[ 3.04173902e-02]]

  [[-1.11825451e-01]]

  [[ 7.23238988e-03]]

  [[ 1.86245665e-02]]

  [[ 7.53126398e-04]]

  [[-1.45133510e-02]]

  [[-1.40447346e-02]]

  [[ 1.19168535e-02]]

  [[ 1.75797194e-02]]

  [[-4.14733179e-02]]

  [[-2.42919736e-02]]

  [[-8.04817118e-03]]

  [[ 7.42999977e-03]]

  [[-2.02371422e-02]]

  [[-4.26094532e-02]]

  [[-1.11899443e-01]]

  [[ 2.40863357e-02]]

  [[ 2.09952239e-02]]

  [[ 2.17935629e-02]]

  [[ 7.66349910e-03]]

  [[ 5.37880324e-03]]

  [[ 5.82918711e-02]]

  [[ 1.29662757e-03]]

  [[-2.28642523e-02]]

  [[ 1.50258830e-02]]

  [[-5.75789958e-02]]

  [[ 1.13565668e-01]]

  [[ 2.38954909e-02]]

  [[ 2.13006679e-02]]

  [[ 5.85239306e-02]]

  [[ 3.34105529e-02]]

  [[ 1.32207647e-02]]

  [[-6.54044524e-02]]

  [[ 1.29242102e-02]]

  [[ 2.02330146e-02]]

  [[ 8.25170986e-03]]

  [[ 1.23976683e-02]]

  [[ 4.80816048e-03]]

  [[-1.44992946e-02]]

  [[-1.41837997e-02]]

  [[-1.25844209e-02]]

  [[ 1.07801467e-01]]

  [[ 3.22518758e-02]]

  [[ 1.21496894e-04]]

  [[ 7.76233897e-03]]

  [[ 1.62828863e-02]]

  [[ 9.87830833e-02]]

  [[ 3.10270884e-03]]

  [[-1.53701492e-02]]

  [[ 6.62717689e-03]]

  [[ 3.93952010e-03]]

  [[-6.62946422e-03]]

  [[ 6.50462210e-02]]

  [[-2.56524212e-03]]

  [[ 2.04451550e-02]]

  [[ 1.00587241e-01]]

  [[ 4.05647308e-02]]

  [[-2.63249185e-02]]

  [[ 5.27689839e-03]]

  [[ 1.36923790e-02]]

  [[ 2.11208779e-02]]

  [[-1.70758478e-02]]

  [[-1.52490074e-02]]

  [[-4.77793179e-02]]

  [[ 3.50758024e-02]]

  [[-3.99759188e-02]]

  [[-1.10139139e-02]]

  [[ 1.15400003e-02]]

  [[ 1.12876438e-01]]

  [[-1.39070209e-02]]

  [[-4.58440185e-02]]

  [[ 1.69014409e-02]]

  [[ 2.28479169e-02]]

  [[ 8.57680012e-03]]

  [[ 7.23832939e-03]]

  [[ 5.92519436e-03]]

  [[-4.42659147e-02]]

  [[-2.45651305e-02]]

  [[ 1.58228874e-02]]

  [[ 1.45096239e-02]]

  [[-4.58505787e-02]]

  [[-4.30592597e-02]]

  [[ 1.60654131e-02]]

  [[-1.61032367e-04]]

  [[-1.19432705e-02]]

  [[ 8.35757516e-03]]

  [[-6.52753711e-02]]

  [[ 7.16019887e-04]]

  [[-5.44177229e-03]]

  [[-2.99137030e-02]]

  [[-2.79524759e-03]]

  [[-4.19180244e-02]]

  [[ 1.32158725e-02]]

  [[-1.78584717e-02]]

  [[ 3.49851861e-03]]

  [[ 1.87461097e-02]]

  [[ 5.13316225e-03]]

  [[-1.64874727e-04]]

  [[ 4.60119499e-03]]

  [[ 1.95227079e-02]]

  [[ 3.33567220e-03]]

  [[-4.08089161e-02]]

  [[-3.79858501e-02]]

  [[ 5.63238608e-03]]

  [[-2.23530941e-02]]

  [[ 2.23910157e-02]]

  [[-5.53639457e-02]]

  [[ 1.13538317e-02]]

  [[ 1.25557974e-01]]

  [[-1.54479360e-02]]

  [[-1.48899516e-03]]

  [[-3.04635409e-02]]

  [[ 1.03354556e-02]]

  [[-1.69008467e-02]]

  [[-2.39798144e-04]]

  [[-5.43929189e-02]]

  [[-5.59254130e-03]]

  [[ 1.99713036e-02]]

  [[ 2.22505275e-02]]

  [[-6.41226349e-03]]

  [[-6.35911664e-03]]

  [[-7.52760610e-03]]

  [[ 6.65660128e-02]]

  [[ 5.19652069e-02]]

  [[ 7.45429937e-03]]

  [[ 9.67894215e-04]]

  [[-2.16233600e-02]]

  [[-9.64022893e-03]]

  [[-1.17395101e-02]]

  [[ 5.39468508e-03]]

