Subnet: [6, 6, 6, 6, 6, 6, 6, 6, 6, 6, 6, 6, 6, 6, 6, 6, 4, 4, 4, 4], [4, 4, 4, 4, 3]
Weight Matrix shape: (112, 448, 1, 1)
[[[[ 7.07450956e-02]]

  [[ 4.36985604e-02]]

  [[ 3.67127694e-02]]

  [[ 5.21755256e-02]]

  [[ 6.87424019e-02]]

  [[ 2.67033055e-02]]

  [[ 1.61262229e-02]]

  [[ 1.55105451e-02]]

  [[ 4.25058976e-02]]

  [[ 1.49814188e-02]]

  [[ 6.10847510e-02]]

  [[ 5.03795557e-02]]

  [[ 5.63083924e-02]]

  [[ 3.98706384e-02]]

  [[ 4.80011217e-02]]

  [[-1.96892843e-02]]

  [[ 5.05665094e-02]]

  [[ 7.38229007e-02]]

  [[ 3.92399877e-02]]

  [[-9.32971202e-03]]

  [[ 4.23440076e-02]]

  [[ 2.87793837e-02]]

  [[ 6.21822551e-02]]

  [[-4.90623824e-02]]

  [[ 4.91639450e-02]]

  [[ 1.50899533e-02]]

  [[-1.30015323e-02]]

  [[ 5.68675660e-02]]

  [[ 6.74627125e-02]]

  [[ 2.09991317e-02]]

  [[ 3.47016230e-02]]

  [[ 1.07462881e-02]]

  [[ 9.77025181e-02]]

  [[ 1.12424046e-02]]

  [[ 3.27511728e-02]]

  [[ 6.86980784e-02]]

  [[ 4.71593179e-02]]

  [[ 2.92582028e-02]]

  [[ 6.95937052e-02]]

  [[-5.00898734e-02]]

  [[-5.38647436e-02]]

  [[ 7.22854352e-03]]

  [[ 2.08150875e-03]]

  [[ 6.09312318e-02]]

  [[-2.67284848e-02]]

  [[-6.95428438e-03]]

  [[-1.87009166e-03]]

  [[ 4.91874218e-02]]

  [[ 5.40565029e-02]]

  [[ 8.05875286e-02]]

  [[ 6.44511916e-03]]

  [[ 3.25127020e-02]]

  [[ 2.11361460e-02]]

  [[ 1.77986007e-02]]

  [[-7.90858828e-03]]

  [[-1.47237685e-02]]

  [[-1.58103369e-02]]

  [[ 4.25549410e-02]]

  [[ 1.37666892e-02]]

  [[-6.09801747e-02]]

  [[ 2.04548873e-02]]

  [[ 5.63850477e-02]]

  [[ 3.75198536e-02]]

  [[ 1.71043053e-02]]

  [[ 1.05841747e-02]]

  [[ 3.39666419e-02]]

  [[-1.12074884e-02]]

  [[ 4.90425713e-02]]

  [[-6.68611452e-02]]

  [[-1.71839411e-03]]

  [[-1.64382141e-02]]

  [[ 5.43117598e-02]]

  [[ 5.16924001e-02]]

  [[ 7.81817436e-02]]

  [[-4.86443168e-04]]

  [[ 3.32987905e-02]]

  [[-3.20743918e-02]]

  [[ 4.77748513e-02]]

  [[-1.26112113e-02]]

  [[ 3.50875445e-02]]

  [[ 1.33503065e-01]]

  [[ 2.90979561e-03]]

  [[ 4.34383564e-02]]

  [[ 2.83761844e-02]]

  [[-1.22485999e-02]]

  [[ 2.15806980e-02]]

  [[ 3.00006545e-03]]

  [[ 7.05984561e-03]]

  [[-5.49378432e-03]]

  [[ 2.51292605e-02]]

  [[ 3.87865268e-02]]

  [[ 8.10081232e-03]]

  [[ 5.60032949e-03]]

  [[ 2.27756836e-02]]

  [[-4.69078310e-02]]

  [[ 4.71577235e-02]]

  [[ 3.78965400e-02]]

  [[ 2.47345604e-02]]

  [[-1.72073822e-02]]

  [[ 7.24924207e-02]]

  [[ 2.36579645e-02]]

  [[ 1.71253923e-02]]

  [[ 1.68169402e-02]]

  [[ 8.53636302e-03]]

  [[ 3.76347415e-02]]

  [[ 3.26731503e-02]]

  [[ 2.41961051e-02]]

  [[ 1.49565041e-01]]

  [[ 3.59193534e-02]]

  [[ 9.89920925e-03]]

  [[ 2.44281553e-02]]

  [[ 1.40131079e-02]]

  [[ 8.46302137e-03]]

  [[ 2.90916059e-02]]

  [[ 1.86143238e-02]]

  [[ 4.03716974e-03]]

  [[ 2.11218242e-02]]

  [[-3.34328078e-02]]

  [[ 9.29414481e-02]]

  [[-5.78452973e-03]]

  [[ 3.33981514e-02]]

  [[-1.92525554e-02]]

  [[ 1.24069437e-01]]

  [[-9.80245881e-03]]

  [[ 7.34603629e-02]]

  [[ 1.38049163e-02]]

  [[-5.09786839e-03]]

  [[ 1.33855604e-02]]

  [[ 1.09982840e-03]]

  [[ 5.03947884e-02]]

  [[ 5.35382926e-02]]

  [[ 1.95752420e-02]]

  [[ 1.24915354e-02]]

  [[ 3.12316529e-02]]

  [[ 1.27118707e-01]]

  [[ 3.94064076e-02]]

  [[ 4.13545072e-02]]

  [[-4.00383398e-02]]

  [[ 6.24769134e-03]]

  [[ 3.21777516e-05]]

  [[ 2.28206664e-02]]

  [[ 3.13385725e-02]]

  [[ 4.57663946e-02]]

  [[ 3.13022584e-02]]

  [[-4.68030060e-03]]

  [[ 5.30539006e-02]]

  [[ 1.17591454e-03]]

  [[ 7.07338080e-02]]

  [[ 4.10310328e-02]]

  [[ 3.39611024e-02]]

  [[-1.47792958e-02]]

  [[-2.79079285e-02]]

  [[-7.75145891e-05]]

  [[-2.58179680e-02]]

  [[ 6.44413696e-04]]

  [[ 3.28588709e-02]]

  [[-6.62455801e-04]]

  [[ 6.91026449e-02]]

  [[ 1.34123847e-01]]

  [[ 3.09514739e-02]]

  [[ 1.34027049e-01]]

  [[ 3.43906730e-02]]

  [[ 3.40817943e-02]]

  [[ 7.29973018e-02]]

  [[ 1.10800825e-02]]

  [[-6.78570941e-02]]

  [[ 1.76854926e-04]]

  [[-1.19769080e-02]]

  [[ 7.11104795e-02]]

  [[-1.31487306e-02]]

  [[ 4.48816642e-02]]

  [[ 4.09080200e-02]]

  [[ 8.09552893e-02]]

  [[ 1.36777721e-02]]

  [[-1.07545052e-02]]

  [[ 2.05529165e-02]]

  [[ 4.25519794e-02]]

  [[ 2.12738309e-02]]

  [[ 7.83801824e-03]]

  [[ 2.27364395e-02]]

  [[-2.59489100e-02]]

  [[ 2.79182084e-02]]

  [[ 1.09893400e-02]]

  [[ 2.47826688e-02]]

  [[ 2.79870033e-02]]

  [[ 4.41460088e-02]]

  [[ 2.49582250e-02]]

  [[ 4.20778915e-02]]

  [[ 4.90994155e-02]]

  [[-4.69254814e-02]]

  [[ 3.13279554e-02]]

  [[ 5.41645959e-02]]

  [[ 1.15553765e-02]]

  [[-1.47706261e-02]]

  [[ 1.59974217e-01]]

  [[ 3.48010957e-02]]

  [[ 5.69947623e-02]]

  [[ 1.86333694e-02]]

  [[ 3.00224796e-02]]

  [[ 1.01032080e-02]]

  [[ 3.10073812e-02]]

  [[ 5.34747317e-02]]

  [[ 1.18119545e-01]]

  [[-1.23663014e-02]]

  [[ 6.02557603e-03]]

  [[ 7.65095204e-02]]

  [[ 4.67921421e-02]]

  [[ 8.00966099e-02]]

  [[-5.75226545e-03]]

  [[ 5.75306676e-02]]

  [[ 1.15482748e-01]]

  [[-9.17274505e-03]]

  [[ 4.25712839e-02]]

  [[ 1.91829335e-02]]

  [[ 2.15797890e-02]]

  [[ 2.16231421e-02]]

  [[ 1.48428027e-02]]

  [[ 4.90720896e-03]]

  [[ 3.24497595e-02]]

  [[-8.36359188e-02]]

  [[ 5.17928973e-02]]

  [[ 3.50172482e-02]]

  [[ 2.92302687e-02]]

  [[ 2.16789860e-02]]

  [[ 8.20937566e-03]]

  [[ 6.78679422e-02]]

  [[ 5.36054336e-02]]

  [[ 2.94388235e-02]]

  [[-9.56573710e-03]]

  [[ 3.73738110e-02]]

  [[ 8.46178923e-03]]

  [[-1.15725482e-02]]

  [[ 1.57812517e-02]]

  [[ 5.13076335e-02]]

  [[ 8.56360346e-02]]

  [[ 8.58901534e-03]]

  [[-1.15774527e-01]]

  [[ 3.65969427e-02]]

  [[ 5.44598550e-02]]

  [[ 1.00909285e-01]]

  [[ 5.39503694e-02]]

  [[ 5.81729785e-02]]

  [[ 1.11932028e-02]]

  [[-2.03770436e-02]]

  [[ 6.39000759e-02]]

  [[ 2.44120304e-02]]

  [[ 5.06200418e-02]]

  [[-1.80368926e-02]]

  [[ 1.65311396e-02]]

  [[ 3.96938659e-02]]

  [[ 3.03121693e-02]]

  [[ 5.52803986e-02]]

  [[ 4.47532609e-02]]

  [[-8.62381607e-03]]

  [[-4.36079204e-02]]

  [[-4.03604545e-02]]

  [[ 6.35821698e-03]]

  [[ 7.72194266e-02]]

  [[ 3.14448625e-02]]

  [[-1.67400520e-02]]

  [[-4.39073518e-02]]

  [[ 2.09293664e-02]]

  [[-6.32771524e-03]]

  [[-3.37338485e-02]]

  [[ 2.42106766e-02]]

  [[ 4.04592641e-02]]

  [[ 3.11980359e-02]]

  [[-3.17828581e-02]]

  [[ 4.73032817e-02]]

  [[ 3.10215019e-02]]

  [[ 5.43938056e-02]]

  [[ 5.35787456e-02]]

  [[ 1.35572627e-02]]

  [[ 2.97343414e-02]]

  [[ 2.29255948e-02]]

  [[ 4.56985980e-02]]

  [[ 4.22952771e-02]]

  [[ 4.79973853e-02]]

  [[ 2.72895321e-02]]

  [[ 1.14899404e-01]]

  [[-2.70786285e-02]]

  [[ 1.33183658e-01]]

  [[-1.86122078e-02]]

  [[ 4.76473570e-02]]

  [[ 1.75520815e-02]]

  [[-7.13656191e-03]]

  [[ 5.87953366e-02]]

  [[ 9.64149460e-02]]

  [[ 2.43590511e-02]]

  [[ 2.63135545e-02]]

  [[-5.79145411e-03]]

  [[ 1.19483545e-02]]

  [[ 5.26006753e-03]]

  [[ 2.44124979e-02]]

  [[-2.57116016e-02]]

  [[ 4.65023005e-03]]

  [[-2.48840218e-03]]

  [[-1.83556434e-02]]

  [[-5.50686270e-02]]

  [[ 3.41607779e-02]]

  [[-1.79252382e-02]]

  [[-4.19816338e-02]]

  [[ 4.05862555e-02]]

  [[ 1.28486399e-02]]

  [[ 7.57053774e-03]]

  [[-5.36812693e-02]]

  [[-1.07116522e-02]]

  [[ 1.63281895e-02]]

  [[ 1.13877527e-01]]

  [[ 3.75550389e-02]]

  [[-8.36281553e-02]]

  [[-5.61226085e-02]]

  [[-4.69732843e-03]]

  [[ 4.46482049e-03]]

  [[ 3.08471490e-02]]

  [[-3.97420228e-02]]

  [[ 5.75449169e-02]]

  [[ 7.81552717e-02]]

  [[-4.95973043e-03]]

  [[-9.80566069e-03]]

  [[-7.52895419e-03]]

  [[ 9.65976063e-03]]

  [[-2.81879175e-02]]

  [[-7.58201070e-03]]

  [[-1.55861164e-02]]

  [[ 1.63717996e-02]]

  [[-1.45873986e-02]]

  [[-4.11984064e-02]]

  [[-6.09073639e-02]]

  [[ 4.53439988e-02]]

  [[ 2.54280809e-02]]

  [[ 7.84471184e-02]]

  [[ 3.66931781e-02]]

  [[ 3.08243860e-03]]

  [[ 1.74419973e-02]]

  [[-9.81487613e-03]]

  [[ 5.30552715e-02]]

  [[-2.43246946e-02]]

  [[-2.08138283e-02]]

  [[-9.13790148e-03]]

  [[ 5.76183610e-02]]

  [[ 2.30971295e-02]]

  [[-2.43549552e-02]]

  [[-3.84981632e-02]]

  [[ 1.90560520e-02]]

  [[ 2.26248298e-02]]

  [[ 2.49922574e-02]]

  [[ 1.21077327e-02]]

  [[ 5.28486893e-02]]

  [[-9.61852539e-03]]

  [[ 1.68169290e-02]]

  [[ 5.76318875e-02]]

  [[-2.65991576e-02]]

  [[ 7.52982199e-02]]

  [[ 2.76613478e-02]]

  [[ 8.41806754e-02]]

  [[ 4.77900915e-02]]

  [[ 1.38410705e-03]]

  [[-1.50682479e-02]]

  [[ 5.29836901e-02]]

  [[ 3.54998894e-02]]

  [[ 4.42560948e-02]]

  [[-1.30510470e-02]]

  [[-6.38738498e-02]]

  [[ 2.74280179e-02]]

  [[ 6.04781397e-02]]

  [[ 2.53897477e-02]]

  [[ 5.19613735e-04]]

  [[ 4.21553627e-02]]

  [[-3.62267457e-02]]

  [[ 1.38283679e-02]]

  [[-9.39055404e-04]]

  [[-3.15252729e-02]]

  [[-2.03401819e-02]]

  [[ 8.22767392e-02]]

  [[ 1.96356587e-02]]

  [[ 8.69086385e-02]]

  [[-3.42683420e-02]]

  [[ 3.70755233e-02]]

  [[-2.15623770e-02]]

  [[ 5.36493696e-02]]

  [[ 1.01238124e-01]]

  [[-2.96700504e-02]]

  [[ 5.77003472e-02]]

  [[-6.66232556e-02]]

  [[ 5.85793592e-02]]

  [[-9.32288840e-02]]

  [[ 3.80978696e-02]]

  [[ 2.37291143e-03]]

  [[-7.22096628e-03]]

  [[ 2.05331109e-02]]

  [[ 8.64271726e-03]]

  [[ 1.83113609e-02]]

  [[ 4.08241674e-02]]

  [[ 4.31744233e-02]]

  [[-2.24060938e-02]]

  [[ 1.01404246e-02]]

  [[ 3.26433219e-02]]

  [[ 2.22928766e-02]]

  [[ 4.94821146e-02]]

  [[ 4.29144539e-02]]

  [[ 3.37105766e-02]]

  [[-1.32438736e-02]]

  [[ 9.04331042e-04]]

  [[ 3.25815286e-04]]

  [[ 7.27363005e-02]]

  [[ 3.63557301e-02]]

  [[ 5.79121970e-02]]

  [[-2.84132939e-02]]

  [[ 2.85701398e-02]]

  [[ 2.74263564e-02]]

  [[ 7.20439628e-02]]

  [[-3.13663743e-02]]

  [[ 2.16175499e-03]]

  [[-6.75278949e-03]]

  [[-3.87199689e-03]]

  [[ 4.15300839e-02]]

  [[ 3.05278469e-02]]

  [[ 3.81224826e-02]]

  [[-6.80386648e-02]]

  [[ 4.67304699e-02]]

  [[ 7.25506712e-03]]

  [[ 1.99310631e-02]]

  [[ 1.72421075e-02]]

  [[-1.62860248e-02]]

  [[ 2.49857940e-02]]

  [[-2.55095307e-03]]

  [[ 6.66471124e-02]]

  [[-3.93560529e-03]]

  [[ 3.84723209e-02]]

  [[ 3.06229610e-02]]

  [[ 2.49562878e-02]]

  [[ 6.01341296e-03]]

  [[ 9.45606083e-03]]

  [[ 5.81616238e-02]]

  [[ 3.01087126e-02]]

  [[ 1.29566863e-02]]

  [[ 4.56380695e-02]]

  [[ 1.16146110e-01]]

  [[-3.33689824e-02]]

  [[ 2.05651615e-02]]

  [[ 4.19269167e-02]]

  [[ 1.09319359e-01]]

  [[ 4.20727208e-02]]

  [[ 1.46823395e-02]]

  [[ 1.07938619e-02]]

  [[-6.94794431e-02]]

  [[ 1.42875239e-02]]]


 [[[ 7.21832514e-02]]

  [[ 3.53783034e-02]]

  [[ 2.31754910e-02]]

  [[ 2.78319046e-02]]

  [[ 6.30540326e-02]]

  [[ 1.73555184e-02]]

  [[ 3.39909494e-02]]

  [[ 4.07507196e-02]]

  [[ 3.30466963e-02]]

  [[ 3.40970233e-03]]

  [[-8.87103658e-03]]

  [[ 2.47173589e-02]]

  [[ 2.04483070e-03]]

  [[-2.65010465e-02]]

  [[ 4.56029996e-02]]

  [[ 4.16424911e-04]]

  [[ 5.64883575e-02]]

  [[ 5.61228022e-02]]

  [[ 5.20692021e-02]]

  [[ 3.42583880e-02]]

  [[ 2.14087628e-02]]

  [[ 1.07906582e-02]]

  [[ 4.92846258e-02]]

  [[-1.21945729e-02]]

  [[ 2.97376327e-02]]

  [[ 3.85162681e-02]]

  [[ 5.09396836e-04]]

  [[ 5.35092689e-02]]

  [[ 3.98052335e-02]]

  [[ 2.70921104e-02]]

  [[ 3.85100991e-02]]

  [[-3.85705288e-03]]

  [[ 1.00051403e-01]]

  [[ 4.85179722e-02]]

  [[ 1.85355414e-02]]

  [[ 3.96011844e-02]]

  [[ 4.92213070e-02]]

  [[ 3.31755057e-02]]

  [[-1.54058682e-03]]

  [[ 4.46831398e-02]]

  [[ 5.10718580e-03]]

  [[ 8.03028420e-03]]

  [[ 2.10023932e-02]]

  [[ 3.74193676e-02]]

  [[ 1.22740334e-02]]

  [[ 2.78050937e-02]]

  [[ 2.26324126e-02]]

  [[ 4.58756685e-02]]

  [[-1.48484698e-02]]

  [[ 5.74154407e-02]]

  [[ 3.98825966e-02]]

  [[ 2.13633850e-02]]

  [[ 2.64509507e-02]]

  [[ 1.73122957e-02]]

  [[-8.44346918e-03]]

  [[ 7.53507987e-02]]

  [[-1.50886197e-02]]

  [[ 9.46609862e-03]]

  [[ 9.30690393e-03]]

  [[ 5.47459498e-02]]

  [[ 2.22692266e-02]]

  [[ 2.65050419e-02]]

  [[ 4.71839197e-02]]

  [[ 1.00293746e-02]]

  [[ 1.82624191e-01]]

  [[ 1.54845724e-02]]

  [[ 9.73558202e-02]]

  [[ 3.33373919e-02]]

  [[ 4.60303314e-02]]

  [[-1.34887639e-02]]

  [[ 2.72612944e-02]]

  [[ 4.31500450e-02]]

  [[ 2.68969554e-02]]

  [[ 5.59259951e-02]]

  [[ 3.78936306e-02]]

  [[ 4.06351611e-02]]

  [[ 2.86273919e-02]]

  [[-3.54848094e-02]]

  [[ 1.86745953e-02]]

  [[ 2.28364225e-02]]

  [[ 5.50641567e-02]]

  [[-4.29309119e-04]]

  [[ 2.90540121e-02]]

  [[ 2.27717832e-01]]

  [[ 2.98452396e-02]]

  [[ 2.99690589e-02]]

  [[ 5.83551675e-02]]

  [[ 4.51153982e-03]]

  [[ 4.66594920e-02]]

  [[ 2.82160398e-02]]

  [[-2.06128396e-02]]

  [[ 5.65279834e-03]]

  [[ 1.06977567e-01]]

  [[ 1.28309038e-02]]

  [[ 1.27029466e-02]]

  [[ 3.00873257e-02]]

  [[ 5.04763424e-02]]

  [[ 2.47772224e-02]]

  [[ 1.80322621e-02]]

  [[ 4.95576225e-02]]

  [[ 3.53286304e-02]]

  [[ 5.25087714e-02]]

  [[ 2.08222717e-02]]

  [[ 7.03675598e-02]]

  [[ 2.19007395e-02]]

  [[ 3.40667404e-02]]

  [[-3.10935397e-02]]

  [[ 9.85456929e-02]]

  [[ 1.57905035e-02]]

  [[ 7.50419199e-02]]

  [[ 1.96339600e-02]]

  [[ 2.95703374e-02]]

  [[ 9.16797388e-03]]

  [[ 1.62879564e-02]]

  [[ 4.03845049e-02]]

  [[-4.29464616e-02]]

  [[ 9.23726987e-03]]

  [[-3.85003425e-02]]

  [[ 3.92524712e-02]]

  [[ 3.57409641e-02]]

  [[ 2.00367179e-02]]

  [[ 1.27098141e-02]]

  [[ 4.76731472e-02]]

  [[ 4.61352840e-02]]

  [[ 1.26110658e-01]]

  [[ 1.09794568e-02]]

  [[-4.94187176e-02]]

  [[-4.44657952e-02]]

  [[-3.60849430e-03]]

  [[ 3.57283540e-02]]

  [[-2.79014651e-02]]

  [[ 3.14992554e-02]]

  [[ 4.99150530e-02]]

  [[ 4.60516736e-02]]

  [[ 7.85987750e-02]]

  [[ 1.07682399e-01]]

  [[ 3.61893922e-02]]

  [[ 2.92637311e-02]]

  [[ 3.20739299e-02]]

  [[ 2.26826202e-02]]

  [[-1.38217944e-03]]

  [[ 3.31213474e-02]]

  [[ 3.33210565e-02]]

  [[ 1.30294869e-02]]

  [[ 6.55897111e-02]]

  [[-2.61676144e-02]]

  [[-2.05589272e-02]]

  [[ 6.78587854e-02]]

  [[ 3.40242386e-02]]

  [[ 9.83372331e-02]]

  [[ 1.07417768e-02]]

  [[ 6.78607374e-02]]

  [[ 9.83334035e-02]]

  [[ 7.12602362e-02]]

  [[-1.88924663e-04]]

  [[ 2.67590117e-02]]

  [[ 1.61709432e-02]]

  [[-1.60452761e-02]]

  [[-1.04642473e-03]]

  [[ 1.69368908e-02]]

  [[ 2.21796222e-02]]

  [[ 3.88572253e-02]]

  [[ 2.63917539e-02]]

  [[-1.49840245e-03]]

  [[-1.07713565e-02]]

  [[-4.96836677e-02]]

  [[-1.02366731e-02]]

  [[ 7.20170559e-03]]

  [[ 4.62890901e-02]]

  [[-1.51177775e-02]]

  [[ 1.34797569e-03]]

  [[ 2.52096951e-02]]

  [[ 4.16963547e-02]]

  [[ 5.79151772e-02]]

  [[ 2.69357990e-02]]

  [[ 2.12132335e-02]]

  [[ 1.08754579e-02]]

  [[ 6.79450780e-02]]

  [[-4.20287251e-02]]

  [[ 4.03122231e-02]]

  [[ 8.22778270e-02]]

  [[ 3.01779527e-02]]

  [[ 1.02690011e-02]]

  [[ 4.17398177e-02]]

  [[-2.72177458e-02]]

  [[ 4.50918861e-02]]

  [[ 2.15915795e-02]]

  [[ 7.73249473e-03]]

  [[ 6.45885393e-02]]

  [[-1.05054500e-02]]

  [[-3.90128046e-02]]

  [[ 3.69289443e-02]]

  [[ 5.62748276e-02]]

  [[ 1.78617463e-02]]

  [[ 3.45415473e-02]]

  [[-9.71124601e-03]]

  [[ 4.61194851e-02]]

  [[ 2.14045532e-02]]

  [[ 1.96889751e-02]]

  [[ 2.11576112e-02]]

  [[ 5.52914515e-02]]

  [[ 1.04409587e-02]]

  [[ 1.56096807e-02]]

  [[ 1.68381247e-03]]

  [[ 4.35665026e-02]]

  [[ 3.63591239e-02]]

  [[ 3.75721417e-02]]

  [[ 3.01729497e-02]]

  [[-1.16322972e-02]]

  [[ 2.94144116e-02]]

  [[ 9.52192321e-02]]

  [[ 4.67538536e-02]]

  [[ 1.37565602e-02]]

  [[ 1.87791381e-02]]

  [[ 2.58396124e-03]]

  [[-5.93979768e-02]]

  [[ 2.03340687e-02]]

  [[-8.78438540e-03]]

  [[ 4.56273509e-03]]

  [[ 6.93668127e-02]]

  [[-8.19788426e-02]]

  [[ 3.21469493e-02]]

  [[ 2.03183834e-02]]

  [[ 1.27907451e-02]]

  [[ 9.73770302e-03]]

  [[-2.03176159e-02]]

  [[ 1.21197989e-02]]

  [[ 4.04781252e-02]]

  [[-7.62939744e-04]]

  [[-5.47649991e-03]]

  [[ 1.29584726e-02]]

  [[-2.75722775e-03]]

  [[ 3.29203233e-02]]

  [[ 4.79935631e-02]]

  [[-5.70176095e-02]]

  [[ 3.94467786e-02]]

  [[ 9.36199427e-02]]

  [[ 7.64542352e-03]]

  [[-1.23368185e-02]]

  [[ 3.44692357e-02]]

  [[ 3.05234678e-02]]

  [[ 2.12286022e-02]]

  [[ 1.00864455e-01]]

  [[ 3.18926498e-02]]

  [[ 6.31582960e-02]]

  [[ 5.49735734e-04]]

  [[ 4.17073183e-02]]

  [[ 5.91161326e-02]]

  [[ 4.16245833e-02]]

  [[-1.90090537e-02]]

  [[ 6.57006213e-03]]

  [[ 1.69622879e-02]]

  [[ 3.47372182e-02]]

  [[ 1.46955550e-01]]

  [[-8.06707190e-04]]

  [[ 4.50261030e-03]]

  [[ 3.02385655e-03]]

  [[ 9.04812440e-02]]

  [[ 1.98855214e-02]]

  [[-1.66431479e-02]]

  [[ 1.90891363e-02]]

  [[ 1.15112839e-02]]

  [[ 4.37068375e-04]]

  [[-3.78606394e-02]]

  [[ 8.63912031e-02]]

  [[ 6.25725882e-03]]

  [[ 9.65891813e-04]]

  [[-3.48924063e-02]]

  [[ 1.17115406e-02]]

  [[ 4.02032994e-02]]

  [[ 5.25184199e-02]]

  [[-7.27210566e-03]]

  [[ 3.34702358e-02]]

  [[-1.01788994e-03]]

  [[ 3.15652415e-02]]

  [[ 2.37964150e-02]]

  [[-2.11413261e-02]]

  [[ 3.59592997e-02]]

  [[ 1.79341231e-02]]

  [[ 1.17078107e-02]]

  [[-9.30141006e-03]]

  [[ 1.61566287e-02]]

  [[-1.38175394e-02]]

  [[ 3.22511308e-02]]

  [[ 4.10901047e-02]]

  [[-1.48999132e-02]]

  [[ 3.13954391e-02]]

  [[-9.22549982e-03]]

  [[ 6.64988086e-02]]

  [[ 3.84234451e-02]]

  [[-1.56028017e-01]]

  [[ 3.80558148e-02]]

  [[ 6.88700899e-02]]

  [[ 7.36065907e-03]]

  [[ 1.50936931e-01]]

  [[ 4.31779511e-02]]

  [[ 1.96888410e-02]]

  [[-1.24995047e-02]]

  [[ 4.90202662e-03]]

  [[ 3.45483273e-02]]

  [[ 1.51766790e-02]]

  [[ 4.29168344e-02]]

  [[ 2.32345574e-02]]

  [[ 3.52633633e-02]]

  [[ 3.49473469e-02]]

  [[-1.71486158e-02]]

  [[-3.62735614e-02]]

  [[ 6.34412169e-02]]

  [[-3.01323412e-03]]

  [[ 2.95884404e-02]]

  [[ 8.59915838e-02]]

  [[ 1.08430587e-01]]

  [[-1.98027156e-02]]

  [[ 4.11831290e-02]]

  [[ 2.61044614e-02]]

  [[-3.30991820e-02]]

  [[ 4.28463370e-02]]

  [[ 2.98837246e-03]]

  [[ 5.18119596e-02]]

  [[ 9.21475980e-03]]

  [[ 1.07588489e-02]]

  [[ 1.80505365e-02]]

  [[ 2.03174371e-02]]

  [[ 5.99065423e-02]]

  [[ 5.21600954e-02]]

  [[-9.06887464e-03]]

  [[-2.42964015e-03]]

  [[ 4.26381044e-02]]

  [[-1.98620260e-02]]

  [[ 1.12747528e-01]]

  [[ 9.87672992e-03]]

  [[ 4.61155996e-02]]

  [[ 3.05027980e-02]]

  [[-1.53679494e-02]]

  [[ 2.37917509e-02]]

  [[-6.39136555e-03]]

  [[ 3.75233367e-02]]

  [[ 2.69424655e-02]]

  [[-8.71631224e-03]]

  [[ 1.53355561e-02]]

  [[ 5.69674838e-03]]

  [[ 2.34496836e-02]]

  [[ 2.81165112e-02]]

  [[-2.23523937e-02]]

  [[ 3.65219675e-02]]

  [[ 1.31230913e-02]]

  [[-1.08408248e-02]]

  [[ 4.17560674e-02]]

  [[ 5.67347743e-04]]

  [[ 2.66108774e-02]]

  [[ 1.92566216e-02]]

  [[ 1.55308312e-02]]

  [[ 1.36417132e-02]]

  [[ 3.87427658e-02]]

  [[ 4.57553305e-02]]

  [[ 7.47652501e-02]]

  [[-3.92027870e-02]]

  [[ 2.94658486e-02]]

  [[ 6.59225062e-02]]

  [[-7.67422691e-02]]

  [[ 3.41846049e-02]]

  [[ 4.40171047e-04]]

  [[-4.47855983e-03]]

  [[ 1.18874917e-02]]

  [[ 8.44334159e-03]]

  [[ 1.75382420e-02]]

  [[-4.39408049e-03]]

  [[-1.16679912e-04]]

  [[ 5.39728515e-02]]

  [[-2.08456405e-02]]

  [[-6.01669261e-03]]

  [[ 1.75212435e-02]]

  [[-3.17294709e-02]]

  [[ 1.23573258e-03]]

  [[ 1.14550479e-01]]

  [[ 1.23849595e-02]]

  [[ 4.72026393e-02]]

  [[-2.20801793e-02]]

  [[ 6.87315837e-02]]

  [[ 2.11886223e-02]]

  [[ 4.30034474e-02]]

  [[-2.94400472e-02]]

  [[-1.23409126e-02]]

  [[-2.11151559e-02]]

  [[ 4.81795147e-02]]

  [[ 3.76033448e-02]]

  [[-1.43270344e-02]]

  [[ 1.34684136e-02]]

  [[ 2.03435142e-02]]

  [[-8.02966673e-03]]

  [[ 5.02258353e-02]]

  [[ 1.44458534e-02]]

  [[-4.44920594e-03]]

  [[-2.97799241e-02]]

  [[-3.51493218e-04]]

  [[ 5.64916208e-02]]

  [[-1.82566885e-02]]

  [[ 8.31348076e-03]]

  [[ 3.33356597e-02]]

  [[-2.14841459e-02]]

  [[ 3.49140391e-02]]

  [[ 3.42785306e-02]]

  [[-2.26391908e-02]]

  [[ 5.30949198e-02]]

  [[-6.52327761e-02]]

  [[-2.42890194e-02]]

  [[ 2.27187034e-02]]

  [[ 2.56402232e-02]]

  [[ 7.01048551e-03]]

  [[ 1.93724670e-02]]

  [[-1.21875778e-02]]

  [[ 4.15860824e-02]]

  [[-2.57159751e-02]]

  [[-5.58114145e-03]]

  [[-1.25452857e-02]]

  [[-3.58267571e-03]]

  [[ 4.48223352e-02]]

  [[ 7.21329125e-03]]

  [[ 2.02137809e-02]]

  [[ 1.52449152e-02]]

  [[ 7.53785968e-02]]

  [[ 1.13673303e-02]]

  [[-9.22615174e-03]]

  [[ 4.95307818e-02]]

  [[-2.41771415e-02]]

  [[ 9.72783717e-04]]

  [[ 2.52879299e-02]]

  [[ 2.69479994e-02]]

  [[-1.44968005e-02]]

  [[ 1.68158468e-02]]

  [[ 3.20329107e-02]]

  [[-2.42740698e-02]]

  [[ 4.91420319e-03]]

  [[ 1.53285354e-01]]

  [[ 2.88763959e-02]]

  [[ 3.36907879e-02]]

  [[ 1.03677297e-02]]

  [[ 4.24943119e-02]]

  [[ 5.34956940e-02]]

  [[ 1.92131121e-02]]

  [[ 4.89489883e-02]]

  [[ 2.80587026e-03]]

  [[ 1.18613187e-02]]

  [[ 1.89799871e-02]]

  [[-9.19337943e-03]]

  [[ 5.03938552e-03]]

  [[ 4.36704382e-02]]

  [[ 2.47234162e-02]]]


 [[[ 2.61679199e-02]]

  [[ 3.66965355e-03]]

  [[-1.05200009e-02]]

  [[ 3.11309360e-02]]

  [[-9.92628187e-03]]

  [[-3.80885601e-02]]

  [[-7.12580681e-02]]

  [[-5.08460850e-02]]

  [[-4.10103798e-03]]

  [[ 4.21563443e-03]]

  [[ 2.30450761e-02]]

  [[-5.14639402e-03]]

  [[-2.83651613e-02]]

  [[ 2.12149266e-02]]

  [[ 9.22593102e-03]]

  [[ 7.70616904e-02]]

  [[ 2.51271278e-02]]

  [[ 1.47111584e-02]]

  [[-1.13480713e-03]]

  [[ 1.78748280e-01]]

  [[-1.16248978e-02]]

  [[-3.80282439e-02]]

  [[ 1.52313123e-02]]

  [[-2.20430009e-02]]

  [[-4.28950181e-03]]

  [[-5.38440188e-03]]

  [[ 4.07277420e-02]]

  [[-3.11787780e-02]]

  [[-1.04412530e-02]]

  [[-1.57002248e-02]]

  [[ 2.65987962e-02]]

  [[-2.85433233e-02]]

  [[ 4.36417758e-02]]

  [[-8.06657877e-03]]

  [[-1.32868597e-02]]

  [[-7.16842990e-03]]

  [[-1.20278718e-02]]

  [[ 2.25442071e-02]]

  [[-6.58778334e-03]]

  [[-1.76989082e-02]]

  [[ 3.27173690e-03]]

  [[-3.64372544e-02]]

  [[ 1.81532446e-02]]

  [[ 1.23046227e-02]]

  [[-6.13717437e-02]]

  [[-7.75452033e-02]]

  [[ 1.02284160e-02]]

  [[ 1.06830746e-02]]

  [[ 3.62930298e-02]]

  [[-1.59772821e-02]]

  [[-3.27964239e-02]]

  [[-1.41770439e-02]]

  [[ 1.88115500e-02]]

  [[-7.46884150e-03]]

  [[ 2.00494062e-02]]

  [[ 7.58958235e-02]]

  [[ 5.27662784e-02]]

  [[-1.27324443e-02]]

  [[-4.22385484e-02]]

  [[-8.33078846e-02]]

  [[-8.15179572e-03]]

  [[ 1.65876634e-02]]

  [[-5.72889531e-03]]

  [[ 6.34300858e-02]]

  [[-4.89306124e-03]]

  [[ 1.63246263e-02]]

  [[ 6.86127171e-02]]

  [[-1.11932699e-02]]

  [[ 1.25265017e-01]]

  [[-2.05994807e-02]]

  [[-4.59482484e-02]]

  [[-6.27581123e-03]]

  [[ 1.90388449e-02]]

  [[ 3.37068178e-02]]

  [[-3.97421345e-02]]

  [[ 1.41714932e-02]]

  [[ 2.55205017e-02]]

  [[ 5.16291708e-02]]

  [[ 3.50604719e-03]]

  [[ 1.48579795e-02]]

  [[ 7.07399286e-03]]

  [[-5.94708696e-02]]

  [[-6.82546617e-03]]

  [[-1.89080201e-02]]

  [[-5.51623804e-03]]

  [[ 6.94988668e-03]]

  [[-3.73593136e-03]]

  [[ 1.43718449e-02]]

  [[-2.71148700e-02]]

  [[-1.21769002e-02]]

  [[ 1.08210174e-02]]

  [[-1.35230487e-02]]

  [[-1.18178099e-01]]

  [[ 4.91274931e-02]]

  [[-7.21346959e-02]]

  [[ 8.77771154e-03]]

  [[-3.24216019e-03]]

  [[ 4.78772586e-03]]

  [[-4.20796052e-02]]

  [[-2.37918869e-02]]

  [[-2.01209355e-02]]

  [[-1.61651690e-02]]

  [[ 1.07645348e-01]]

  [[ 3.47877368e-02]]

  [[-2.39953697e-02]]

  [[ 1.61385443e-02]]

  [[-6.28650188e-02]]

  [[ 1.26371467e-02]]

  [[-2.00272258e-02]]

  [[-2.64093075e-02]]

  [[ 1.20794773e-02]]

  [[-1.40618058e-02]]

  [[-3.68167683e-02]]

  [[ 1.44229438e-02]]

  [[-6.96290880e-02]]

  [[ 1.69305783e-02]]

  [[-2.88658403e-03]]

  [[ 1.74333237e-03]]

  [[ 4.75652106e-02]]

  [[-2.98216157e-02]]

  [[ 3.06110680e-02]]

  [[ 1.43317863e-01]]

  [[-5.48990369e-02]]

  [[-3.15569527e-02]]

  [[-3.89331914e-02]]

  [[ 6.32442534e-03]]

  [[-3.83257717e-02]]

  [[ 6.27868399e-02]]

  [[-2.78733317e-02]]

  [[ 3.04232264e-04]]

  [[ 1.14573970e-01]]

  [[ 2.84393132e-02]]

  [[-1.24326004e-02]]

  [[ 1.36554176e-02]]

  [[-1.78673919e-02]]

  [[-2.73426087e-03]]

  [[-1.86688248e-02]]

  [[-5.95072694e-02]]

  [[ 8.37687626e-02]]

  [[-8.84875748e-03]]

  [[-1.18702196e-03]]

  [[-3.33040841e-02]]

  [[ 2.36351807e-02]]

  [[-2.01999777e-04]]

  [[-8.56617652e-03]]

  [[-5.54008149e-02]]

  [[-8.13616216e-02]]

  [[ 8.35675187e-03]]

  [[ 1.80941615e-02]]

  [[-2.71310844e-02]]

  [[-1.93173829e-02]]

  [[ 5.98311052e-02]]

  [[ 1.11999863e-03]]

  [[-4.27383045e-03]]

  [[-4.35677730e-03]]

  [[-2.49376800e-02]]

  [[-9.59641766e-03]]

  [[-1.90348923e-02]]

  [[-1.91023923e-03]]

  [[ 1.05594825e-02]]

  [[ 9.78755876e-02]]

  [[ 1.63950175e-02]]

  [[-2.75432207e-02]]

  [[ 1.85178518e-02]]

  [[-1.17460405e-02]]

  [[ 1.48313465e-02]]

  [[-1.53976195e-02]]

  [[ 2.88801305e-02]]

  [[-1.29439216e-02]]

  [[ 6.07679412e-02]]

  [[ 2.55673453e-02]]

  [[-2.73105763e-02]]

  [[-6.16141520e-02]]

  [[-1.87603862e-03]]

  [[ 5.04596066e-03]]

  [[-3.18456651e-03]]

  [[-9.14112553e-02]]

  [[-3.31299752e-02]]

  [[-6.70220051e-03]]

  [[-4.96628806e-02]]

  [[-6.46877363e-02]]

  [[-2.56134360e-03]]

  [[-5.91606759e-02]]

  [[ 5.90663366e-02]]

  [[-5.45560345e-02]]

  [[-2.82333996e-02]]

  [[-5.20093134e-03]]

  [[ 1.20270122e-02]]

  [[ 5.83961466e-03]]

  [[ 2.27710139e-02]]

  [[ 3.08704525e-02]]

  [[-1.41817397e-02]]

  [[ 2.48843096e-02]]

  [[ 1.20916385e-02]]

  [[ 1.00137275e-02]]

  [[ 1.50114559e-02]]

  [[-1.82181690e-02]]

  [[-5.00310250e-02]]

  [[ 2.86294869e-03]]

  [[-1.30758400e-03]]

  [[-1.95554458e-03]]

  [[ 6.39382610e-03]]

  [[-1.01382188e-01]]

  [[-1.57957841e-02]]

  [[ 2.35393364e-02]]

  [[ 4.58162427e-02]]

  [[-5.76083325e-02]]

  [[-1.45275481e-02]]

  [[-3.99604533e-03]]

  [[-9.53443442e-03]]

  [[ 3.63846757e-02]]

  [[ 3.80878188e-02]]

  [[ 9.18931141e-03]]

  [[ 1.82352532e-02]]

  [[ 2.12234017e-02]]

  [[-9.77106579e-03]]

  [[-2.35321047e-03]]

  [[-1.18077570e-03]]

  [[ 8.33688676e-03]]

  [[ 7.06787705e-02]]

  [[ 6.92992378e-03]]

  [[ 2.58895680e-02]]

  [[ 2.05293130e-02]]

  [[ 1.27671361e-02]]

  [[ 3.02765472e-03]]

  [[ 1.19159877e-01]]

  [[ 1.79382470e-02]]

  [[-6.31720647e-02]]

  [[-2.45143920e-02]]

  [[-1.39950225e-02]]

  [[ 1.86372045e-02]]

  [[ 2.78069582e-02]]

  [[ 1.55074783e-02]]

  [[-3.49912886e-03]]

  [[ 1.38756982e-03]]

  [[-2.89236009e-02]]

  [[ 2.95763894e-04]]

  [[ 3.90662365e-02]]

  [[ 1.30631337e-02]]

  [[ 9.38616460e-04]]

  [[ 8.20020027e-03]]

  [[ 8.48971028e-03]]

  [[ 2.62923725e-02]]

  [[-4.98251952e-02]]

  [[ 3.99816129e-03]]

  [[ 1.06726205e-02]]

  [[-1.30706094e-02]]

  [[-4.76184338e-02]]

  [[ 2.15367191e-02]]

  [[-8.42590407e-02]]

  [[-1.25209838e-02]]

  [[ 2.64164759e-03]]

  [[-4.37508279e-04]]

  [[-1.23204086e-02]]

  [[-6.39637038e-02]]

  [[ 1.08959317e-01]]

  [[-2.20897887e-03]]

  [[-1.05581665e-02]]

  [[-1.96319614e-02]]

  [[ 1.90851446e-02]]

  [[ 1.23319020e-02]]

  [[-1.28468331e-02]]

  [[-3.97552736e-03]]

  [[ 1.65967494e-02]]

  [[ 2.21901294e-02]]

  [[ 1.46007305e-02]]

  [[ 3.93541716e-03]]

  [[ 6.96164044e-03]]

  [[-7.41961692e-03]]

  [[-5.67330047e-03]]

  [[-1.83031019e-02]]

  [[-8.84728357e-02]]

  [[ 2.01089829e-02]]

  [[-4.05401876e-03]]

  [[-3.10383905e-02]]

  [[-9.19871777e-03]]

  [[-5.25197200e-02]]

  [[ 1.15483785e-02]]

  [[-5.26267104e-02]]

  [[ 4.68998924e-02]]

  [[ 2.06068102e-02]]

  [[ 1.88021399e-02]]

  [[-3.41531411e-02]]

  [[ 7.42011750e-03]]

  [[ 1.91487540e-02]]

  [[ 1.16710782e-01]]

  [[-8.24836921e-03]]

  [[ 1.00650743e-01]]

  [[ 1.38114924e-02]]

  [[-6.12340271e-02]]

  [[ 6.22713566e-02]]

  [[-3.74205187e-02]]

  [[-6.33692443e-02]]

  [[ 1.24443229e-02]]

  [[-6.52586594e-02]]

  [[ 1.08441245e-02]]

  [[ 1.01322848e-02]]

  [[-4.98963660e-03]]

  [[-2.08994746e-03]]

  [[ 1.01703852e-02]]

  [[ 8.30594078e-03]]

  [[-4.16781455e-02]]

  [[ 5.51388375e-02]]

  [[-2.72634588e-02]]

  [[-2.42550839e-02]]

  [[-7.04636350e-02]]

  [[ 5.86222485e-02]]

  [[-3.15324850e-02]]

  [[-8.04263204e-02]]

  [[ 4.59845457e-03]]

  [[ 2.73442119e-02]]

  [[ 4.52278256e-02]]

  [[ 1.82605367e-02]]

  [[-1.50319980e-02]]

  [[-1.08837504e-02]]

  [[ 1.59312543e-02]]

  [[ 1.93024557e-02]]

  [[-5.71324080e-02]]

  [[-8.46593082e-02]]

  [[-1.92383528e-02]]

  [[ 1.53145976e-02]]

  [[-3.73549461e-02]]

  [[-1.32072764e-02]]

  [[-5.18356077e-02]]

  [[ 1.44153357e-01]]

  [[-1.22041367e-02]]

  [[-9.03173629e-03]]

  [[-1.94996931e-02]]

  [[ 2.52681486e-02]]

  [[-3.19882631e-02]]

  [[-6.33123424e-03]]

  [[-2.78704893e-02]]

  [[ 6.69041872e-02]]

  [[-1.80746876e-02]]

  [[ 2.00623795e-02]]

  [[-7.79117271e-02]]

  [[-4.64690663e-03]]

  [[ 3.06399129e-02]]

  [[ 1.09877754e-02]]

  [[-1.32480487e-01]]

  [[ 1.12142693e-02]]

  [[ 3.44022885e-02]]

  [[-1.64199527e-02]]

  [[ 1.29517503e-02]]

  [[ 7.71081075e-04]]

  [[-7.39024654e-02]]

  [[ 2.27956809e-02]]

  [[ 3.67850401e-02]]

  [[-1.05794422e-01]]

  [[ 1.25947818e-02]]

  [[-3.45909931e-02]]

  [[-1.22214623e-01]]

  [[-2.25300677e-02]]

  [[ 1.56539939e-02]]

  [[ 2.81791296e-03]]

  [[ 5.73758548e-03]]

  [[-4.78907861e-02]]

  [[ 4.17703483e-03]]

  [[-7.32002333e-02]]

  [[ 1.82735957e-02]]

  [[ 9.99962725e-03]]

  [[ 4.86272760e-02]]

  [[ 1.37780523e-02]]

  [[-6.40098453e-02]]

  [[ 2.06107013e-02]]

  [[-1.51308291e-02]]

  [[-1.90013275e-02]]

  [[ 6.69236854e-02]]

  [[-8.71659368e-02]]

  [[-9.16036870e-03]]

  [[ 3.27281281e-02]]

  [[-2.29242351e-02]]

  [[-1.85872428e-02]]

  [[ 5.39467763e-03]]

  [[ 1.06284037e-01]]

  [[ 3.22484449e-02]]

  [[-3.57686667e-06]]

  [[ 1.06342146e-02]]

  [[ 8.56775343e-02]]

  [[-9.01986659e-02]]

  [[-3.65709960e-02]]

  [[-3.54546085e-02]]

  [[ 4.30571176e-02]]

  [[ 8.36573076e-03]]

  [[-3.65338288e-02]]

  [[-1.56228719e-02]]

  [[ 4.98791933e-02]]

  [[ 6.96952501e-03]]

  [[-1.04892896e-02]]

  [[ 1.39819281e-02]]

  [[ 1.62182236e-03]]

  [[ 1.30917672e-02]]

  [[-6.48773462e-02]]

  [[-7.06636831e-02]]

  [[-3.14661637e-02]]

  [[ 7.62136048e-03]]

  [[ 1.06943781e-02]]

  [[-1.48795056e-03]]

  [[-2.89101759e-03]]

  [[ 2.37990320e-02]]

  [[-1.09903459e-02]]

  [[-7.47178588e-03]]

  [[ 6.34384304e-02]]

  [[-7.53098056e-02]]

  [[-4.79933433e-02]]

  [[-2.90542804e-02]]

  [[ 4.46804333e-03]]

  [[-5.55012375e-02]]

  [[-5.41780777e-02]]

  [[ 5.00668921e-02]]

  [[ 3.57773788e-02]]

  [[-1.58938561e-02]]

  [[-7.40450323e-02]]

  [[ 1.58901270e-02]]

  [[ 1.88284051e-02]]

  [[ 1.38907530e-03]]

  [[-1.44964671e-02]]

  [[ 2.10080040e-03]]

  [[ 9.89612076e-04]]

  [[ 4.87444689e-03]]

  [[ 2.35884059e-02]]

  [[-1.32112047e-02]]

  [[ 1.47231366e-03]]

  [[ 1.94540098e-02]]

  [[-7.59468302e-02]]

  [[-5.57613000e-03]]

  [[-3.01583740e-03]]

  [[ 5.21418313e-03]]

  [[-4.70343009e-02]]

  [[ 9.54837422e-04]]

  [[ 1.30570484e-02]]

  [[-1.65046845e-02]]

  [[ 1.15398057e-02]]

  [[-3.45607661e-02]]

  [[-4.66379374e-02]]

  [[-9.23897605e-03]]

  [[ 3.42842937e-02]]

  [[ 2.69228239e-02]]

  [[-3.92368175e-02]]

  [[-2.57125404e-02]]

  [[ 4.75311540e-02]]

  [[ 1.06379569e-01]]

  [[ 5.13632223e-02]]

  [[ 3.62355895e-02]]

  [[ 8.90086889e-02]]

  [[ 1.16253225e-02]]

  [[ 3.67704593e-02]]

  [[-1.38044392e-03]]]


 [[[ 5.21227457e-02]]

  [[-2.75478582e-04]]

  [[-2.02136878e-02]]

  [[-1.27468416e-02]]

  [[ 1.80198066e-02]]

  [[ 2.07552630e-02]]

  [[ 9.54921450e-03]]

  [[ 4.77708466e-02]]

  [[ 1.45288631e-02]]

  [[ 1.79757904e-02]]

  [[ 4.35781246e-03]]

  [[ 1.97253539e-03]]

  [[-9.33789089e-03]]

  [[-4.67562675e-03]]

  [[ 2.36941371e-02]]

  [[-2.84139905e-02]]

  [[ 1.25955604e-02]]

  [[ 1.88741069e-02]]

  [[-1.63493241e-04]]

  [[ 1.51731512e-02]]

  [[ 4.42323741e-04]]

  [[-1.90689489e-02]]

  [[ 1.35247980e-03]]

  [[-9.76801366e-02]]

  [[ 3.93567514e-03]]

  [[-3.64696700e-03]]

  [[-6.79861978e-02]]

  [[ 1.75537392e-02]]

  [[ 9.44108982e-03]]

  [[-2.96491478e-02]]

  [[-1.78088737e-03]]

  [[ 3.19953635e-02]]

  [[ 9.91706271e-04]]

  [[ 1.17717385e-02]]

  [[ 7.19395102e-05]]

  [[ 3.00059598e-02]]

  [[ 5.99667896e-03]]

  [[ 2.89027754e-04]]

  [[ 1.02455907e-01]]

  [[ 3.98929194e-02]]

  [[-4.68200482e-02]]

  [[ 3.95827787e-03]]

  [[ 1.80933475e-02]]

  [[ 6.75922679e-03]]

  [[-8.67574755e-03]]

  [[ 4.65099290e-02]]

  [[ 1.51770599e-02]]

  [[ 1.49996150e-02]]

  [[-6.56484663e-02]]

  [[ 1.36673059e-02]]

  [[-3.81121237e-04]]

  [[ 6.64244685e-03]]

  [[ 6.39061118e-03]]

  [[-1.16589665e-02]]

  [[ 3.91258532e-03]]

  [[-8.79318919e-03]]

  [[-3.97153711e-03]]

  [[-8.34916066e-03]]

  [[-1.73630135e-03]]

  [[-2.09730435e-02]]

  [[ 7.15310778e-03]]

  [[ 1.12460200e-02]]

  [[ 1.73979606e-02]]

  [[ 3.05178668e-03]]

  [[ 9.95147508e-03]]

  [[ 3.18260267e-02]]

  [[-2.93159531e-03]]

  [[ 8.53013806e-03]]

  [[ 3.06647141e-02]]

  [[-1.53854871e-02]]

  [[ 4.00444120e-02]]

  [[ 1.06596397e-02]]

  [[ 1.02781216e-02]]

  [[ 2.46379990e-03]]

  [[-1.67519785e-02]]

  [[ 2.12829337e-02]]

  [[-5.53943627e-02]]

  [[-3.76786897e-03]]

  [[-1.09615282e-03]]

  [[ 1.54191563e-02]]

  [[-1.24083767e-02]]

  [[ 6.14213273e-02]]

  [[ 1.40871555e-02]]

  [[-1.83231384e-01]]

  [[ 9.27077420e-03]]

  [[ 5.09850634e-03]]

  [[-7.20340237e-02]]

  [[-3.81637621e-03]]

  [[-5.49852941e-03]]

  [[ 1.38478000e-02]]

  [[ 4.79541086e-02]]

  [[ 4.93788579e-03]]

  [[ 7.59443268e-02]]

  [[ 1.87080577e-02]]

  [[-2.78885290e-03]]

  [[ 1.36121316e-02]]

  [[ 4.60007899e-02]]

  [[-1.04021013e-03]]

  [[ 1.39312092e-02]]

  [[-6.95049688e-02]]

  [[ 6.52787229e-03]]

  [[ 2.21194923e-02]]

  [[-5.98421693e-02]]

  [[ 3.79189998e-02]]

  [[-2.89465487e-03]]

  [[-2.78641041e-02]]

  [[ 1.11505613e-01]]

  [[ 6.86623529e-02]]

  [[ 2.74490379e-02]]

  [[ 1.33632962e-02]]

  [[ 1.11631420e-03]]

  [[ 2.07245573e-02]]

  [[ 1.88279152e-02]]

  [[-3.47161153e-03]]

  [[ 5.01037203e-02]]

  [[-6.97315559e-02]]

  [[ 5.77907031e-03]]

  [[-8.01123977e-02]]

  [[-8.91285669e-03]]

  [[-1.69276390e-02]]

  [[-9.92197078e-03]]

  [[ 1.33827448e-01]]

  [[ 2.10655946e-02]]

  [[ 1.39382211e-02]]

  [[-6.73811063e-02]]

  [[-2.04751804e-03]]

  [[ 9.47132558e-02]]

  [[ 4.08682339e-02]]

  [[-3.87381315e-02]]

  [[-7.67903868e-03]]

  [[-2.83824932e-02]]

  [[ 1.64169669e-02]]

  [[ 2.71995589e-02]]

  [[ 7.82174524e-03]]

  [[ 1.54106598e-02]]

  [[-7.68904341e-03]]

  [[ 1.62354056e-02]]

  [[ 5.63963577e-02]]

  [[-4.35514487e-02]]

  [[ 1.27337538e-02]]

  [[-1.78890955e-03]]

  [[-3.70607176e-03]]

  [[ 2.66219918e-02]]

  [[ 1.83268264e-02]]

  [[ 5.45361191e-02]]

  [[ 1.20015284e-02]]

  [[-9.62169841e-02]]

  [[-2.93090078e-03]]

  [[ 3.81902196e-02]]

  [[ 1.79877765e-02]]

  [[ 2.65565654e-03]]

  [[ 2.66816863e-03]]

  [[ 6.00593053e-02]]

  [[ 1.11328185e-01]]

  [[ 5.02160005e-02]]

  [[ 5.67324413e-03]]

  [[ 1.47657786e-02]]

  [[-4.59192321e-02]]

  [[-1.44216307e-02]]

  [[ 5.13239356e-04]]

  [[ 6.64269477e-02]]

  [[ 5.07026538e-03]]

  [[-2.21501347e-02]]

  [[-3.48280296e-02]]

  [[-1.44149847e-02]]

  [[-8.59149843e-02]]

  [[ 3.52246165e-02]]

  [[ 4.12862794e-03]]

  [[ 2.16261260e-02]]

  [[-3.78210172e-02]]

  [[-5.47011979e-02]]

  [[ 5.38672600e-03]]

  [[ 4.00132388e-02]]

  [[ 2.01875195e-02]]

  [[-1.12664569e-02]]

  [[-4.17027762e-03]]

  [[ 3.25067341e-02]]

  [[-2.13192776e-02]]

  [[ 5.23813115e-03]]

  [[-1.58187151e-02]]

  [[-4.88809086e-02]]

  [[ 2.72360370e-02]]

  [[-1.00527909e-02]]

  [[ 6.99018640e-03]]

  [[ 1.04218230e-01]]

  [[ 2.64956709e-02]]

  [[ 1.75802987e-02]]

  [[-2.34784298e-02]]

  [[-5.31114526e-02]]

  [[ 3.31234150e-02]]

  [[ 6.04550652e-02]]

  [[-2.54006200e-02]]

  [[ 5.10668606e-02]]

  [[-3.48768570e-02]]

  [[-2.03204751e-02]]

  [[ 1.84583683e-02]]

  [[-5.91504872e-02]]

  [[-4.32106759e-03]]

  [[ 2.13012118e-02]]

  [[ 2.80401427e-02]]

  [[ 1.05475642e-01]]

  [[ 1.29606023e-01]]

  [[-1.52825648e-02]]

  [[-3.66998278e-02]]

  [[-6.04185788e-03]]

  [[-1.33140953e-02]]

  [[ 2.20451523e-02]]

  [[ 2.15213466e-02]]

  [[-5.88453421e-03]]

  [[ 2.63435720e-03]]

  [[-1.33429598e-02]]

  [[-3.33595611e-02]]

  [[ 3.87304835e-02]]

  [[ 2.63527110e-02]]

  [[-2.64957035e-03]]

  [[-1.02555312e-01]]

  [[ 2.14290097e-02]]

  [[ 1.97910168e-03]]

  [[-3.52430344e-03]]

  [[-5.22961244e-02]]

  [[ 8.19534883e-02]]

  [[ 2.52815094e-02]]

  [[ 9.01550241e-03]]

  [[ 6.76093204e-03]]

  [[ 1.85861066e-02]]

  [[ 8.64696503e-03]]

  [[ 1.26395337e-02]]

  [[ 6.13730960e-02]]

  [[-1.56253632e-02]]

  [[ 8.47434253e-03]]

  [[ 1.22535257e-02]]

  [[-2.92375237e-02]]

  [[-6.54978352e-03]]

  [[ 9.04840603e-03]]

  [[-1.71860307e-02]]

  [[-3.88814099e-02]]

  [[-8.11293423e-02]]

  [[ 1.20314099e-02]]

  [[ 1.33683998e-02]]

  [[-8.13662261e-02]]

  [[-1.06388731e-02]]

  [[ 3.28572318e-02]]

  [[-6.80737346e-02]]

  [[ 2.20162291e-02]]

  [[-1.15173059e-02]]

  [[-1.95570965e-03]]

  [[ 8.29244033e-03]]

  [[-5.76757900e-02]]

  [[-2.48894356e-02]]

  [[ 4.05762270e-02]]

  [[ 1.65667310e-02]]

  [[-1.01442337e-02]]

  [[ 1.29146557e-02]]

  [[ 9.70741138e-02]]

  [[ 4.38486151e-02]]

  [[ 6.37370646e-02]]

  [[-5.26223285e-03]]

  [[ 1.46051655e-02]]

  [[-1.02513004e-02]]

  [[ 4.87642847e-02]]

  [[-3.46474051e-02]]

  [[-4.02724231e-03]]

  [[-1.57382488e-02]]

  [[-1.00570461e-02]]

  [[ 1.84150611e-03]]

  [[-2.56900433e-02]]

  [[ 5.84994210e-03]]

  [[-1.86102185e-02]]

  [[-2.27666274e-02]]

  [[ 3.93374115e-02]]

  [[ 4.18734811e-02]]

  [[ 2.36870237e-02]]

  [[-1.08085293e-02]]

  [[-4.08533262e-03]]

  [[ 8.94133281e-03]]

  [[ 9.97407269e-03]]

  [[-1.52235925e-02]]

  [[-1.59001425e-02]]

  [[-2.03754753e-03]]

  [[ 1.37411105e-03]]

  [[-2.59876042e-03]]

  [[ 1.63981952e-02]]

  [[-3.91889475e-02]]

  [[ 2.21514236e-02]]

  [[ 1.00017607e-01]]

  [[ 9.20596421e-02]]

  [[ 2.46481113e-02]]

  [[-7.32842609e-02]]

  [[ 2.51109265e-02]]

  [[-2.87425617e-04]]

  [[-2.96955742e-02]]

  [[ 7.14503676e-02]]

  [[ 9.70820859e-02]]

  [[-2.45828480e-02]]

  [[ 1.16115797e-03]]

  [[ 6.27605105e-03]]

  [[ 3.65677429e-03]]

  [[ 6.20483141e-03]]

  [[-2.90437117e-02]]

  [[-3.93601973e-03]]

  [[ 3.17552611e-02]]

  [[-5.18287905e-03]]

  [[-3.38982791e-02]]

  [[ 1.04813054e-02]]

  [[ 2.17614807e-02]]

  [[ 1.61228180e-02]]

  [[-1.90254785e-02]]

  [[ 1.31656723e-02]]

  [[-2.04626545e-02]]

  [[ 2.28122640e-02]]

  [[ 7.75963953e-03]]

  [[ 6.33724919e-03]]

  [[ 2.48664618e-02]]

  [[ 6.52508950e-03]]

  [[ 6.94742193e-03]]

  [[-1.70507152e-02]]

  [[ 1.12222647e-02]]

  [[-4.82059345e-02]]

  [[-6.67311659e-04]]

  [[ 5.53653296e-03]]

  [[-1.33562861e-02]]

  [[-2.09786929e-02]]

  [[ 2.18194276e-02]]

  [[-2.51524411e-02]]

  [[-3.93586373e-03]]

  [[ 8.79494697e-02]]

  [[ 1.21543063e-02]]

  [[ 4.25879546e-02]]

  [[-1.17987273e-02]]

  [[ 5.71218506e-02]]

  [[-4.53218864e-03]]

  [[ 2.44203340e-02]]

  [[-2.43627452e-04]]

  [[ 4.62253112e-03]]

  [[ 1.58570372e-02]]

  [[-3.20553631e-02]]

  [[ 7.29687745e-03]]

  [[ 5.93298767e-03]]

  [[-1.06292935e-02]]

  [[-5.00009693e-02]]

  [[ 2.28774771e-02]]

  [[-1.64710078e-03]]

  [[-4.31423485e-02]]

  [[-4.95753065e-02]]

  [[ 2.07440611e-02]]

  [[ 1.41415983e-01]]

  [[ 1.67943537e-02]]

  [[-7.77548328e-02]]

  [[ 1.60927104e-03]]

  [[ 7.58603308e-03]]

  [[ 1.90764908e-02]]

  [[-5.89484582e-03]]

  [[-1.01085296e-02]]

  [[-3.46313529e-02]]

  [[ 2.57676486e-02]]

  [[ 4.20899056e-02]]

  [[-2.64520831e-02]]

  [[ 3.82403582e-02]]

  [[ 6.81944042e-02]]

  [[-2.63457950e-02]]

  [[ 2.34597232e-02]]

  [[ 4.59948555e-02]]

  [[ 1.75916757e-02]]

  [[ 4.32618037e-02]]

  [[ 5.38688079e-02]]

  [[-3.13980095e-02]]

  [[ 3.06986813e-02]]

  [[ 1.23987366e-02]]

  [[ 5.49173430e-02]]

  [[-1.46381771e-02]]

  [[ 7.45644094e-03]]

  [[ 1.84288081e-02]]

  [[-4.31794394e-03]]

  [[-2.59967279e-02]]

  [[ 7.47037232e-02]]

  [[-5.64730950e-02]]

  [[-3.72946225e-02]]

  [[ 2.79572736e-02]]

  [[ 2.42560431e-02]]

  [[-8.21058974e-02]]

  [[ 1.57035455e-01]]

  [[-5.00722080e-02]]

  [[ 2.23441352e-03]]

  [[-4.41579223e-02]]

  [[-4.32633832e-02]]

  [[ 2.23034751e-02]]

  [[ 2.88064294e-02]]

  [[ 1.46061194e-03]]

  [[ 1.73897517e-03]]

  [[-2.44692434e-02]]

  [[ 6.88628256e-02]]

  [[ 1.82388593e-02]]

  [[ 9.80901718e-03]]

  [[-4.03878987e-02]]

  [[-1.29904030e-02]]

  [[-2.07738653e-02]]

  [[-3.49029489e-02]]

  [[ 6.49389625e-03]]

  [[ 1.66240130e-02]]

  [[-2.98383422e-02]]

  [[-1.24193938e-03]]

  [[-5.69167137e-02]]

  [[-4.47094962e-02]]

  [[ 4.25160490e-02]]

  [[-9.49132722e-03]]

  [[-2.41867863e-02]]

  [[ 7.19801662e-03]]

  [[ 3.75901014e-02]]

  [[ 4.87218276e-02]]

  [[-8.72073025e-02]]

  [[ 2.29284000e-02]]

  [[ 2.81593073e-02]]

  [[ 8.26267060e-03]]

  [[ 5.43641811e-03]]

  [[-1.55948289e-02]]

  [[-2.12210082e-02]]

  [[-6.60862681e-03]]

  [[ 5.65396855e-03]]

  [[ 2.31155418e-02]]

  [[ 2.58647874e-02]]

  [[ 5.63654024e-03]]

  [[-4.88255965e-03]]

  [[ 4.11037356e-03]]

  [[-8.62331986e-02]]

  [[ 1.07125349e-01]]

  [[ 2.80294772e-02]]

  [[ 1.12033868e-02]]

  [[-2.34284420e-02]]

  [[-7.85957947e-02]]

  [[ 9.46874358e-03]]

  [[ 8.22487811e-04]]

  [[-1.22880049e-01]]

  [[-3.79574187e-02]]

  [[ 4.42611240e-02]]

  [[ 3.30238752e-02]]

  [[ 4.72533144e-02]]

  [[ 1.69649310e-02]]

  [[ 8.74706451e-03]]

  [[-9.48646758e-03]]

  [[-3.17390077e-02]]

  [[-8.83743763e-02]]

  [[-3.91323492e-02]]

  [[ 5.12773208e-02]]

  [[ 2.48765294e-02]]

  [[ 1.24412691e-02]]

  [[ 5.35436347e-03]]

  [[-2.83511374e-02]]

  [[ 1.91326700e-02]]]


 [[[ 1.39456866e-02]]

  [[ 5.55907749e-02]]

  [[-5.71632851e-03]]

  [[-2.66514495e-02]]

  [[ 8.76956433e-03]]

  [[ 1.56449154e-02]]

  [[-8.23235884e-03]]

  [[-3.77204316e-03]]

  [[ 3.51055525e-02]]

  [[ 2.19012666e-02]]

  [[ 2.14846488e-02]]

  [[-4.09260532e-03]]

  [[ 1.31995073e-02]]

  [[ 5.22357319e-03]]

  [[ 8.35978147e-03]]

  [[-1.88790297e-03]]

  [[ 2.43152380e-02]]

  [[ 2.47224197e-02]]

  [[ 2.55775526e-02]]

  [[ 1.42124772e-01]]

  [[ 2.04837061e-02]]

  [[ 1.25488201e-02]]

  [[ 3.11002582e-02]]

  [[-9.85302310e-03]]

  [[ 9.26383305e-03]]

  [[ 1.80602036e-02]]

  [[ 4.97428440e-02]]

  [[ 7.49747967e-04]]

  [[ 1.29218446e-02]]

  [[ 1.17736896e-02]]

  [[ 1.91620854e-03]]

  [[ 1.39367254e-02]]

  [[ 2.44645532e-02]]

  [[ 2.82595605e-02]]

  [[ 4.85263811e-03]]

  [[-4.58780210e-03]]

  [[ 2.73051392e-02]]

  [[-1.79152060e-02]]

  [[-3.44381407e-02]]

  [[-1.05833868e-02]]

  [[-1.63067821e-02]]

  [[-4.36176965e-03]]

  [[ 1.92401912e-02]]

  [[-2.18670070e-03]]

  [[-3.70399468e-02]]

  [[ 8.01491216e-02]]

  [[-3.34456190e-03]]

  [[ 3.45210582e-02]]

  [[ 1.56134274e-02]]

  [[ 4.13822904e-02]]

  [[ 4.04633209e-03]]

  [[ 2.25816155e-03]]

  [[ 2.34879423e-02]]

  [[-1.53913640e-03]]

  [[ 2.85639204e-02]]

  [[ 1.22640736e-01]]

  [[ 4.09163302e-03]]

  [[-3.60441947e-04]]

  [[ 3.10344296e-03]]

  [[-3.00944131e-02]]

  [[ 2.31125671e-02]]

  [[-7.89049640e-03]]

  [[ 2.76081692e-02]]

  [[-1.04808342e-02]]

  [[-2.40273140e-02]]

  [[ 2.91786948e-03]]

  [[-2.40153372e-02]]

  [[-2.17211712e-03]]

  [[ 3.76927331e-02]]

  [[ 4.67188889e-03]]

  [[ 6.00924678e-02]]

  [[ 1.65308956e-02]]

  [[ 6.95769256e-03]]

  [[ 1.03099398e-01]]

  [[ 3.21447141e-02]]

  [[ 1.75054539e-02]]

  [[-1.83376353e-02]]

  [[-7.18181059e-02]]

  [[ 1.50219826e-02]]

  [[ 1.75691377e-02]]

  [[-4.56787348e-02]]

  [[-1.56735592e-02]]

  [[ 2.25371048e-02]]

  [[-1.37811139e-01]]

  [[ 1.25600053e-02]]

  [[ 1.84544213e-02]]

  [[-1.87863111e-02]]

  [[ 8.49035685e-04]]

  [[ 3.41274329e-02]]

  [[ 1.29171656e-02]]

  [[-1.09083932e-02]]

  [[ 9.89544392e-03]]

  [[ 2.29958328e-03]]

  [[-6.26681224e-02]]

  [[-9.78275612e-02]]

  [[ 1.26136476e-02]]

  [[-3.05932947e-02]]

  [[ 2.11213995e-02]]

  [[-6.36499422e-03]]

  [[ 5.54110855e-02]]

  [[ 2.48724036e-02]]

  [[ 5.36695272e-02]]

  [[ 2.63732933e-02]]

  [[ 3.59633826e-02]]

  [[-4.86043515e-03]]

  [[-2.66616177e-02]]

  [[ 8.67035016e-02]]

  [[ 1.19734846e-01]]

  [[ 2.61948034e-02]]

  [[ 6.95487037e-02]]

  [[ 2.46668644e-02]]

  [[ 8.67095310e-03]]

  [[ 1.77114569e-02]]

  [[-1.36678237e-02]]

  [[ 9.75567661e-03]]

  [[ 9.15140212e-02]]

  [[ 1.69635448e-03]]

  [[ 1.50862627e-03]]

  [[ 7.29798451e-02]]

  [[ 3.37554328e-02]]

  [[ 3.00800847e-03]]

  [[-4.43248264e-03]]

  [[ 1.76141951e-02]]

  [[ 9.84356254e-02]]

  [[-5.17866835e-02]]

  [[ 5.17136045e-03]]

  [[ 7.26950541e-02]]

  [[ 4.25531566e-02]]

  [[ 2.51185987e-03]]

  [[ 1.86028965e-02]]

  [[-3.19153853e-02]]

  [[ 2.21569128e-02]]

  [[ 2.58175768e-02]]

  [[ 2.09274646e-02]]

  [[-3.63285653e-02]]

  [[-1.06797079e-02]]

  [[ 1.94482841e-02]]

  [[-4.39563580e-03]]

  [[-4.77282926e-02]]

  [[ 1.06550734e-02]]

  [[-5.78732416e-03]]

  [[ 3.77914659e-03]]

  [[ 1.41663663e-02]]

  [[-1.48649029e-02]]

  [[ 1.17456233e-02]]

  [[ 3.01124956e-02]]

  [[-1.04683787e-02]]

  [[-3.11615667e-03]]

  [[ 1.24075438e-03]]

  [[ 6.78443983e-02]]

  [[-9.62466188e-03]]

  [[-4.13094945e-02]]

  [[ 2.78469305e-02]]

  [[ 4.59321402e-02]]

  [[ 1.04319997e-01]]

  [[-2.16739345e-03]]

  [[-2.80376561e-02]]

  [[ 2.55636051e-02]]

  [[-1.87953170e-02]]

  [[-5.14372857e-03]]

  [[-4.67860922e-02]]

  [[-1.76968742e-02]]

  [[-1.99284237e-02]]

  [[-3.97749282e-02]]

  [[-2.53173597e-02]]

  [[-7.92782754e-02]]

  [[ 3.97612387e-03]]

  [[ 7.28176162e-02]]

  [[ 1.81673057e-02]]

  [[-3.83266732e-02]]

  [[-2.47375499e-02]]

  [[-7.29485881e-03]]

  [[ 2.44569662e-03]]

  [[-4.22543322e-04]]

  [[ 2.43159047e-05]]

  [[ 7.16948276e-03]]

  [[ 3.45888957e-02]]

  [[-5.53142186e-03]]

  [[ 1.40531482e-02]]

  [[-2.16242541e-02]]

  [[-3.66214365e-02]]

  [[ 1.65760498e-02]]

  [[-2.92977877e-03]]

  [[ 4.38113548e-02]]

  [[ 3.26593965e-02]]

  [[ 6.72560045e-03]]

  [[ 4.05156277e-02]]

  [[ 1.28915498e-03]]

  [[-6.70195520e-02]]

  [[ 6.21797070e-02]]

  [[-2.17074472e-02]]

  [[ 1.35080628e-02]]

  [[-5.55732474e-03]]

  [[ 3.31743918e-02]]

  [[ 6.15752637e-02]]

  [[ 3.09172622e-03]]

  [[-9.90983173e-02]]

  [[-2.86173802e-02]]

  [[ 2.58696415e-02]]

  [[-3.29376571e-02]]

  [[ 3.78856473e-02]]

  [[-9.82007459e-02]]

  [[ 5.34319840e-02]]

  [[-4.93849674e-03]]

  [[-2.88938731e-02]]

  [[-3.28518488e-02]]

  [[ 8.68652239e-02]]

  [[ 3.13629322e-02]]

  [[-2.44501680e-02]]

  [[-1.87646691e-02]]

  [[-1.39587335e-02]]

  [[-5.89674897e-02]]

  [[ 1.43992407e-02]]

  [[ 1.29198376e-02]]

  [[ 9.36901011e-03]]

  [[ 5.66737838e-02]]

  [[ 2.37954478e-03]]

  [[-1.81483999e-02]]

  [[-4.12256783e-03]]

  [[ 2.98537835e-02]]

  [[-3.87948416e-02]]

  [[ 2.48822905e-02]]

  [[ 1.35625238e-02]]

  [[ 2.93792877e-03]]

  [[ 8.05100985e-03]]

  [[-2.12758854e-02]]

  [[ 3.08223832e-02]]

  [[-2.48530321e-02]]

  [[ 7.06255483e-03]]

  [[-1.27815350e-03]]

  [[-2.00389586e-02]]

  [[-2.34145429e-02]]

  [[ 1.88984815e-02]]

  [[ 2.45791245e-02]]

  [[ 2.36119740e-02]]

  [[-8.43316093e-02]]

  [[-1.46869058e-02]]

  [[ 2.42364630e-02]]

  [[-2.96879113e-02]]

  [[-3.07211047e-03]]

  [[-2.67683025e-02]]

  [[ 2.42290869e-02]]

  [[-4.22395356e-02]]

  [[-6.92036515e-03]]

  [[-7.95876049e-03]]

  [[ 1.68968756e-02]]

  [[ 1.34078590e-02]]

  [[-1.16950599e-02]]

  [[ 1.27429783e-03]]

  [[-4.81903479e-02]]

  [[-1.68300010e-02]]

  [[ 1.42710414e-02]]

  [[ 1.69786494e-02]]

  [[ 3.27327922e-02]]

  [[-6.05635531e-02]]

  [[-1.23985559e-02]]

  [[ 1.60813564e-03]]

  [[ 2.81918608e-02]]

  [[ 9.96125280e-04]]

  [[ 4.79056463e-02]]

  [[ 1.07711248e-01]]

  [[ 7.31499493e-03]]

  [[-3.77515964e-02]]

  [[ 1.80097148e-02]]

  [[-3.58824315e-03]]

  [[ 2.69660540e-02]]

  [[ 7.20794732e-03]]

  [[-1.06481444e-02]]

  [[ 4.14650962e-02]]

  [[ 1.05707562e-02]]

  [[ 1.40963048e-01]]

  [[ 2.08224803e-02]]

  [[ 3.22388113e-02]]

  [[ 9.57663916e-03]]

  [[-1.27013540e-02]]

  [[ 3.08244266e-02]]

  [[ 5.53718954e-02]]

  [[ 2.13536415e-02]]

  [[-2.56456714e-03]]

  [[-5.07390127e-02]]

  [[ 1.14094606e-02]]

  [[ 2.74596852e-03]]

  [[ 1.41247567e-02]]

  [[ 1.22724120e-02]]

  [[-8.01107660e-03]]

  [[ 3.89081589e-03]]

  [[ 5.77856507e-03]]

  [[-9.56954807e-03]]

  [[ 2.90482622e-02]]

  [[ 2.55434979e-02]]

  [[-3.31858285e-02]]

  [[ 6.29646629e-02]]

  [[ 7.54660517e-02]]

  [[ 1.36692990e-02]]

  [[ 9.27961841e-02]]

  [[ 1.17965695e-02]]

  [[-9.86880530e-03]]

  [[ 2.94798031e-03]]

  [[-3.10124885e-02]]

  [[ 1.66265597e-03]]

  [[-2.27683485e-02]]

  [[ 6.03782795e-02]]

  [[-7.40114078e-02]]

  [[-4.43963148e-03]]

  [[ 2.90360637e-02]]

  [[ 6.38723315e-04]]

  [[ 4.11871411e-02]]

  [[ 3.78555320e-02]]

  [[ 5.81457131e-02]]

  [[ 8.02778918e-03]]

  [[-2.62769517e-02]]

  [[-3.44696529e-02]]

  [[ 8.91654659e-03]]

  [[ 3.60451341e-02]]

  [[ 4.00000252e-03]]

  [[ 5.14584919e-03]]

  [[ 4.59851697e-04]]

  [[ 1.36304051e-01]]

  [[ 2.41293665e-02]]

  [[-2.04833201e-03]]

  [[-2.25144289e-02]]

  [[ 3.49578001e-02]]

  [[ 3.15458998e-02]]

  [[ 4.28264290e-02]]

  [[ 3.86863761e-03]]

  [[ 5.14100902e-02]]

  [[-1.60312336e-02]]

  [[-3.46919202e-04]]

  [[-3.25089619e-02]]

  [[ 1.17202597e-02]]

  [[-1.03118801e-02]]

  [[ 7.64318742e-03]]

  [[-8.48147124e-02]]

  [[ 2.32926788e-04]]

  [[ 1.76077243e-02]]

  [[ 9.96867381e-03]]

  [[ 1.50416140e-02]]

  [[-8.30790435e-04]]

  [[ 4.79227155e-02]]

  [[-4.13388945e-02]]

  [[-6.74533006e-03]]

  [[ 9.24703199e-03]]

  [[ 4.14241552e-02]]

  [[-5.15707023e-02]]

  [[-1.55699868e-02]]

  [[-2.75501367e-02]]

  [[-2.69127486e-04]]

  [[-9.13350843e-03]]

  [[-5.19544706e-02]]

  [[-6.26936695e-03]]

  [[-2.40222681e-02]]

  [[ 2.44024564e-02]]

  [[ 5.05345687e-02]]

  [[ 3.41867767e-02]]

  [[ 2.10091490e-02]]

  [[-6.91471323e-02]]

  [[-3.69527824e-02]]

  [[ 6.88724872e-03]]

  [[ 3.58864516e-02]]

  [[-2.39448678e-02]]

  [[-9.40635987e-03]]

  [[ 2.26385500e-02]]

  [[-3.02913189e-02]]

  [[ 5.90098016e-02]]

  [[-1.16422810e-02]]

  [[ 2.09666044e-02]]

  [[ 3.32633778e-02]]

  [[ 5.43394946e-02]]

  [[ 3.02069914e-03]]

  [[ 1.66608915e-02]]

  [[-5.70103573e-03]]

  [[-1.77270046e-03]]

  [[-2.62078941e-02]]

  [[-1.49622336e-02]]

  [[ 1.30188957e-01]]

  [[-4.39837202e-02]]

  [[-7.88325444e-02]]

  [[ 3.65883969e-02]]

  [[-4.05656807e-02]]

  [[-2.50808857e-02]]

  [[ 7.17283040e-02]]

  [[ 1.48930959e-03]]

  [[ 6.96456730e-02]]

  [[ 2.89860554e-03]]

  [[-1.62630435e-03]]

  [[ 1.16613721e-02]]

  [[-2.42821611e-02]]

  [[ 5.37232216e-03]]

  [[ 4.13502101e-03]]

  [[-3.50695662e-03]]

  [[ 4.14143652e-02]]

  [[ 4.11645696e-03]]

  [[-3.41782011e-02]]

  [[ 4.58638631e-02]]

  [[-3.77242628e-04]]

  [[ 7.92434439e-02]]

  [[ 1.89569332e-02]]

  [[ 3.66243231e-03]]

  [[ 6.01643696e-03]]

  [[-5.91835380e-02]]

  [[-1.59968454e-02]]

  [[ 9.98619292e-03]]

  [[-6.89289020e-03]]

  [[ 1.26047917e-02]]

  [[-1.74777694e-02]]

  [[-5.81537336e-02]]

  [[-3.18508074e-02]]

  [[ 3.94755527e-02]]

  [[-1.60244368e-02]]

  [[-7.59300068e-02]]

  [[-1.40226167e-03]]

  [[ 8.69722478e-03]]

  [[-1.36048580e-02]]

  [[ 3.71562243e-02]]

  [[-1.65928982e-03]]

  [[ 1.38816014e-02]]

  [[ 1.95037220e-02]]

  [[-1.13876425e-02]]

  [[ 3.76533903e-02]]

  [[-2.63670553e-03]]

  [[-1.21956663e-02]]

  [[-1.33136299e-03]]

  [[-4.09264956e-03]]

  [[ 1.23826370e-01]]

  [[-5.94926365e-02]]

  [[ 2.34941090e-03]]

  [[ 2.21821535e-02]]

  [[-2.59849578e-02]]

  [[ 2.54945643e-02]]

  [[ 1.85172390e-02]]

  [[ 1.23690311e-02]]

  [[ 1.47961482e-01]]

  [[-7.50094876e-02]]

  [[ 1.98804401e-02]]

  [[ 7.64616281e-02]]

  [[-6.65206388e-02]]

  [[-4.37751971e-02]]

  [[-3.71292932e-03]]

  [[ 4.68549738e-03]]

  [[ 2.68134885e-02]]

  [[-1.58066638e-02]]

  [[ 5.22793904e-02]]

  [[-9.24204849e-03]]

  [[ 4.54423577e-03]]

  [[-4.67636324e-02]]

  [[ 2.05704216e-02]]

  [[ 2.64951065e-02]]

  [[-1.65872425e-02]]]


 [[[ 7.93366227e-03]]

  [[-7.05166068e-03]]

  [[ 5.64267905e-03]]

  [[ 1.24146882e-02]]

  [[-2.04616748e-02]]

  [[ 1.07050920e-02]]

  [[ 1.56302899e-02]]

  [[ 9.43558291e-03]]

  [[-1.00169545e-02]]

  [[ 2.78004017e-02]]

  [[ 1.71404460e-03]]

  [[ 2.95541459e-03]]

  [[ 1.03602614e-02]]

  [[ 1.18672289e-02]]

  [[ 2.98886071e-03]]

  [[-3.37596075e-03]]

  [[ 1.63533520e-02]]

  [[ 4.04302403e-02]]

  [[ 2.24148519e-02]]

  [[ 2.49744169e-02]]

  [[ 2.84823608e-02]]

  [[-4.76006651e-04]]

  [[ 4.33332054e-03]]

  [[ 5.80134429e-02]]

  [[-1.34519422e-02]]

  [[ 1.72587286e-03]]

  [[-4.42961939e-02]]

  [[-5.45620266e-03]]

  [[ 3.61206988e-03]]

  [[ 1.78644434e-02]]

  [[ 3.21316556e-03]]

  [[ 2.49183662e-02]]

  [[ 5.03501929e-02]]

  [[ 6.38213148e-03]]

  [[ 2.29818840e-02]]

  [[-1.36718564e-02]]

  [[ 5.20227198e-03]]

  [[ 1.89893041e-02]]

  [[-1.64919961e-02]]

  [[ 2.16141287e-02]]

  [[ 7.91339297e-03]]

  [[-5.83644956e-03]]

  [[ 2.23115999e-02]]

  [[-1.16820792e-02]]

  [[ 4.91399039e-03]]

  [[-8.24270025e-02]]

  [[-1.29458886e-02]]

  [[ 1.58430822e-02]]

  [[-4.88989241e-03]]

  [[ 3.16460282e-02]]

  [[ 1.63767822e-02]]

  [[ 2.01359782e-02]]

  [[ 3.54549754e-03]]

  [[ 3.13482210e-02]]

  [[ 5.35055110e-03]]

  [[ 3.15619037e-02]]

  [[ 1.98076479e-03]]

  [[ 1.57049559e-02]]

  [[-1.46457860e-02]]

  [[ 6.13784557e-03]]

  [[ 8.28490220e-03]]

  [[-3.20266634e-02]]

  [[ 2.29935013e-02]]

  [[ 1.34370849e-02]]

  [[-1.79179702e-02]]

  [[ 3.89782041e-02]]

  [[ 5.93716726e-02]]

  [[ 9.59641486e-03]]

  [[-1.28567340e-02]]

  [[ 3.95747758e-02]]

  [[ 7.29153454e-02]]

  [[ 1.44487536e-02]]

  [[-6.80724811e-03]]

  [[ 8.26615617e-02]]

  [[-8.08973797e-03]]

  [[ 1.32841850e-02]]

  [[ 4.40076441e-02]]

  [[-4.85548489e-02]]

  [[ 2.34518386e-03]]

  [[ 1.42257950e-05]]

  [[-4.25833929e-03]]

  [[-8.10229452e-04]]

  [[ 2.00908389e-02]]

  [[-4.78534624e-02]]

  [[-9.34853777e-03]]

  [[ 4.05053515e-03]]

  [[-1.34729668e-02]]

  [[ 1.48199741e-02]]

  [[ 1.44913653e-02]]

  [[-2.48045381e-02]]

  [[ 3.14062610e-02]]

  [[-1.72615163e-02]]

  [[-4.20552045e-02]]

  [[-1.81726571e-02]]

  [[ 2.89301891e-02]]

  [[-2.96039297e-03]]

  [[-3.54521759e-02]]

  [[ 4.41369461e-03]]

  [[ 8.55084136e-03]]

  [[ 7.20921159e-03]]

  [[ 8.22490721e-04]]

  [[ 4.64512371e-02]]

  [[-1.85505543e-02]]

  [[ 1.83723979e-02]]

  [[-6.45337254e-03]]

  [[-2.83364821e-02]]

  [[-2.73372196e-02]]

  [[ 1.57078151e-02]]

  [[ 1.83404479e-02]]

  [[ 1.61137478e-03]]

  [[-1.56664333e-04]]

  [[ 6.26751978e-04]]

  [[ 1.00998254e-02]]

  [[-5.42687112e-03]]

  [[ 5.01504578e-02]]

  [[ 2.79355645e-02]]

  [[-3.74993728e-03]]

  [[ 8.10899585e-02]]

  [[ 4.72051129e-02]]

  [[-7.84595460e-02]]

  [[ 1.78372376e-02]]

  [[-6.70955852e-02]]

  [[-5.70668951e-02]]

  [[-2.89714914e-02]]

  [[-6.49381131e-02]]

  [[ 1.02589959e-02]]

  [[-2.59424280e-02]]

  [[-3.06656864e-02]]

  [[-7.48226931e-03]]

  [[ 3.16806249e-02]]

  [[ 1.58099439e-02]]

  [[-1.21004926e-02]]

  [[ 4.79703862e-03]]

  [[-1.12253497e-03]]

  [[-2.41366252e-02]]

  [[ 5.13466857e-02]]

  [[-7.74699962e-03]]

  [[-8.49790275e-02]]

  [[ 6.74628988e-02]]

  [[-2.15344736e-03]]

  [[-1.35656213e-02]]

  [[-1.44004752e-03]]

  [[ 6.72193011e-03]]

  [[-1.72614213e-02]]

  [[-3.05108521e-02]]

  [[ 9.64334756e-02]]

  [[ 1.05083235e-01]]

  [[-5.49304858e-03]]

  [[-9.49366670e-03]]

  [[-4.96273376e-02]]

  [[ 1.84982363e-02]]

  [[-8.49940330e-02]]

  [[-6.20909333e-02]]

  [[ 2.61965133e-02]]

  [[ 4.20899354e-02]]

  [[ 2.22543906e-02]]

  [[-9.06366840e-05]]

  [[-2.78142858e-02]]

  [[ 2.50637624e-02]]

  [[ 5.93968388e-03]]

  [[-2.80211791e-02]]

  [[ 1.21493405e-02]]

  [[ 2.53053978e-02]]

  [[ 6.86776862e-02]]

  [[ 1.40460404e-02]]

  [[ 1.73594803e-02]]

  [[-5.60674770e-03]]

  [[-2.73309927e-02]]

  [[ 2.12669279e-02]]

  [[ 1.74380448e-02]]

  [[-6.04113340e-02]]

  [[-1.30354427e-02]]

  [[ 8.47024471e-03]]

  [[-1.11277001e-02]]

  [[ 4.51169647e-02]]

  [[ 1.45833278e-02]]

  [[ 6.85231611e-02]]

  [[-5.27539738e-02]]

  [[-1.73679180e-02]]

  [[ 2.31261197e-02]]

  [[-3.00260186e-02]]

  [[ 7.68970000e-03]]

  [[-6.51402548e-02]]

  [[ 5.20863570e-02]]

  [[-4.71938215e-02]]

  [[ 1.03648286e-02]]

  [[ 1.28978090e-02]]

  [[ 3.63821648e-02]]

  [[-7.75277941e-03]]

  [[-2.31111180e-02]]

  [[-1.41261453e-02]]

  [[-1.65150408e-02]]

  [[-2.09729243e-02]]

  [[ 1.72423068e-02]]

  [[-5.85720614e-02]]

  [[ 3.15010920e-02]]

  [[-2.37470251e-02]]

  [[ 4.85404860e-03]]

  [[-8.95528216e-03]]

  [[ 6.55930629e-03]]

  [[-2.05283379e-03]]

  [[ 1.63260605e-02]]

  [[ 2.63741519e-03]]

  [[ 3.88161722e-03]]

  [[-4.03187908e-02]]

  [[-5.73677709e-03]]

  [[ 3.07784677e-02]]

  [[ 2.56664306e-02]]

  [[-1.10620014e-01]]

  [[-2.51815319e-02]]

  [[ 7.58246146e-03]]

  [[-4.39915136e-02]]

  [[-1.14825089e-03]]

  [[-9.74943023e-03]]

  [[-3.08392812e-02]]

  [[-7.57004023e-02]]

  [[ 9.32092592e-03]]

  [[-4.97150188e-03]]

  [[ 5.27332071e-03]]

  [[ 2.92452630e-02]]

  [[-8.48119557e-02]]

  [[ 7.17315124e-03]]

  [[ 4.96981200e-03]]

  [[ 1.31274657e-02]]

  [[ 2.01625004e-02]]

  [[ 8.20942223e-03]]

  [[-5.72074065e-03]]

  [[-6.25722632e-02]]

  [[ 6.95403945e-03]]

  [[ 2.41124984e-02]]

  [[ 4.64492850e-03]]

  [[-2.87231002e-02]]

  [[ 8.21816456e-03]]

  [[ 2.14161053e-02]]

  [[ 1.62437931e-02]]

  [[-3.46528515e-02]]

  [[-8.06601048e-02]]

  [[ 1.49957770e-02]]

  [[ 1.47775877e-02]]

  [[ 1.39000058e-01]]

  [[ 2.45470554e-02]]

  [[ 1.62569154e-02]]

  [[ 1.14495389e-01]]

  [[-3.04432563e-03]]

  [[-4.79385443e-02]]

  [[-3.43238818e-03]]

  [[-5.79470862e-03]]

  [[ 7.46816918e-02]]

  [[-4.37179580e-02]]

  [[ 3.69600169e-02]]

  [[ 1.44972447e-02]]

  [[-4.58983034e-02]]

  [[-1.09021943e-02]]

  [[-1.69508129e-01]]

  [[ 4.32487577e-02]]

  [[ 1.69376265e-02]]

  [[ 1.57722868e-02]]

  [[-2.04165354e-02]]

  [[-1.16768982e-02]]

  [[-3.97182629e-02]]

  [[ 4.43376005e-02]]

  [[ 2.46951152e-02]]

  [[-3.74769140e-03]]

  [[-9.40135680e-03]]

  [[-2.15491187e-02]]

  [[ 2.68130153e-02]]

  [[ 4.51520905e-02]]

  [[ 4.54569556e-04]]

  [[ 7.79565237e-03]]

  [[ 2.41098995e-03]]

  [[ 1.89307462e-02]]

  [[ 2.09914800e-02]]

  [[-2.58372887e-03]]

  [[ 6.67778589e-03]]

  [[ 3.98524813e-02]]

  [[ 1.09259393e-02]]

  [[-4.81030252e-03]]

  [[ 1.38937961e-02]]

  [[ 1.87336339e-03]]

  [[ 2.52581201e-02]]

  [[-1.69708654e-02]]

  [[-2.16493495e-02]]

  [[ 1.38234459e-02]]

  [[ 4.98335948e-03]]

  [[ 8.86609126e-03]]

  [[ 9.93847847e-02]]

  [[-5.57645364e-03]]

  [[-4.70465161e-02]]

  [[-1.67408921e-02]]

  [[ 8.63187201e-03]]

  [[-3.96817066e-02]]

  [[-4.48564999e-02]]

  [[ 2.32371166e-02]]

  [[ 1.55033646e-02]]

  [[ 1.97929284e-03]]

  [[ 1.27644173e-03]]

  [[ 2.64269579e-02]]

  [[-1.41129000e-02]]

  [[-4.27803723e-03]]

  [[ 5.66354534e-03]]

  [[-1.87719241e-02]]

  [[-3.16934325e-02]]

  [[-2.98461784e-02]]

  [[ 1.14559485e-02]]

  [[-6.55802339e-03]]

  [[ 1.30967930e-01]]

  [[ 3.13524492e-02]]

  [[-1.15360422e-02]]

  [[ 5.41329831e-02]]

  [[ 1.09630078e-02]]

  [[ 2.11277995e-02]]

  [[-1.57285593e-02]]

  [[ 1.33747887e-02]]

  [[ 1.29546095e-02]]

  [[ 2.61155311e-02]]

  [[ 6.87114662e-03]]

  [[ 1.94022581e-02]]

  [[-2.37603905e-03]]

  [[-4.56329733e-02]]

  [[-6.87548006e-03]]

  [[ 9.21095721e-03]]

  [[ 4.44262624e-02]]

  [[-2.37248912e-02]]

  [[-1.32882129e-02]]

  [[-3.69841158e-02]]

  [[-7.54546225e-02]]

  [[ 1.81183554e-02]]

  [[-1.18978061e-01]]

  [[-3.67596522e-02]]

  [[-4.70439382e-02]]

  [[ 7.75431003e-03]]

  [[ 2.65892968e-02]]

  [[-2.30454560e-02]]

  [[ 1.07235424e-02]]

  [[-1.81572251e-02]]

  [[-2.44045770e-03]]

  [[ 6.80524707e-02]]

  [[ 3.07886186e-03]]

  [[ 3.04123014e-03]]

  [[ 4.02800702e-02]]

  [[-2.63067801e-02]]

  [[-1.07967784e-03]]

  [[ 1.70508102e-02]]

  [[ 1.86214875e-02]]

  [[ 2.90800668e-02]]

  [[-6.50013760e-02]]

  [[ 1.51731698e-02]]

  [[-3.29534933e-02]]

  [[-8.13920274e-02]]

  [[ 2.64312024e-03]]

  [[ 2.81488206e-02]]

  [[-9.23862830e-02]]

  [[-4.43817638e-02]]

  [[-4.76438589e-02]]

  [[-1.78003702e-02]]

  [[-7.85223693e-02]]

  [[ 1.35842664e-02]]

  [[ 1.27863465e-02]]

  [[-2.32547484e-02]]

  [[ 1.34315519e-02]]

  [[-5.54027408e-03]]

  [[ 7.22770169e-02]]

  [[-8.42123933e-04]]

  [[ 1.24136666e-02]]

  [[ 3.27438302e-02]]

  [[-2.71868091e-02]]

  [[ 5.05466759e-03]]

  [[-3.03234681e-02]]

  [[-4.21883352e-03]]

  [[-2.98305582e-02]]

  [[ 5.78975957e-03]]

  [[-2.65165605e-03]]

  [[ 4.92159568e-04]]

  [[-3.00064608e-02]]

  [[ 2.56995130e-02]]

  [[-6.70462102e-03]]

  [[ 6.91663697e-02]]

  [[ 2.64768442e-03]]

  [[-6.59584999e-02]]

  [[-7.72388419e-03]]

  [[-2.52961386e-02]]

  [[-1.80565659e-02]]

  [[ 6.44486919e-02]]

  [[ 3.54242101e-02]]

  [[ 5.31433895e-03]]

  [[-3.26253250e-02]]

  [[-3.10957991e-02]]

  [[-1.63585506e-02]]

  [[-2.74708737e-02]]

  [[-6.90609822e-03]]

  [[ 3.83704645e-03]]

  [[ 2.22911849e-03]]

  [[ 2.90471166e-02]]

  [[ 3.31598404e-03]]

  [[ 3.54619659e-02]]

  [[-2.64196694e-02]]

  [[-2.19188370e-02]]

  [[ 2.46464950e-03]]

  [[ 4.89583425e-03]]

  [[-6.03535306e-03]]

  [[-1.36265410e-02]]

  [[-2.11363100e-02]]

  [[ 6.57502282e-03]]

  [[ 1.61189158e-02]]

  [[ 2.80409865e-03]]

  [[ 7.95664545e-03]]

  [[-7.41129275e-03]]

  [[ 1.09910309e-01]]

  [[ 2.42024139e-02]]

  [[ 8.71810410e-03]]

  [[-4.04324383e-02]]

  [[-2.07258482e-02]]

  [[-6.24485873e-02]]

  [[-9.86186881e-03]]

  [[ 6.10333029e-03]]

  [[-6.98284106e-03]]

  [[ 1.22500788e-02]]

  [[ 2.31394507e-02]]

  [[ 3.35798413e-03]]

  [[-1.75401997e-02]]

  [[ 7.90378079e-03]]

  [[-2.34991927e-02]]

  [[ 1.01002846e-02]]

  [[ 5.57914823e-02]]

  [[-3.95150669e-02]]

  [[ 9.93459113e-03]]

  [[ 9.23113897e-03]]

  [[ 4.47274745e-02]]

  [[ 6.44429354e-03]]

  [[-4.25791880e-03]]

  [[-2.02343389e-02]]

  [[ 3.55177671e-02]]

  [[ 2.36678799e-03]]

  [[-6.24791123e-02]]

  [[ 1.10150337e-01]]

  [[-6.70106262e-02]]

  [[-1.21539729e-02]]

  [[ 1.60379354e-02]]

  [[-5.62178157e-02]]

  [[ 7.27195339e-03]]

  [[ 6.46960586e-02]]

  [[-1.75551958e-02]]

  [[ 1.13052931e-02]]

  [[ 3.02758869e-02]]

  [[-1.73018128e-02]]

  [[-3.76971834e-03]]

  [[-2.15604566e-02]]

  [[ 4.45692940e-03]]]


 [[[-3.75227095e-03]]

  [[-1.41681274e-02]]

  [[ 2.14835834e-02]]

  [[ 2.54758430e-04]]

  [[ 1.74346268e-02]]

  [[ 2.77998718e-03]]

  [[ 3.50668356e-02]]

  [[-1.00945504e-02]]

  [[-3.28133861e-03]]

  [[-1.14802050e-03]]

  [[-2.47032959e-02]]

  [[ 1.98800508e-02]]

  [[ 1.13200638e-02]]

  [[-3.52948415e-03]]

  [[ 1.23779438e-02]]

  [[ 6.35906234e-02]]

  [[-2.66295229e-03]]

  [[ 6.66154968e-03]]

  [[ 5.21006621e-03]]

  [[-2.60874927e-02]]

  [[ 8.33907689e-04]]

  [[-2.50523277e-02]]

  [[-2.90150777e-03]]

  [[ 7.67727557e-04]]

  [[ 1.26101729e-02]]

  [[-1.88370720e-02]]

  [[ 4.04745853e-03]]

  [[ 4.46937000e-03]]

  [[ 5.76696452e-03]]

  [[-4.31173976e-04]]

  [[-2.85307262e-02]]

  [[-3.78477178e-03]]

  [[-3.72762047e-02]]

  [[-1.34614892e-02]]

  [[-1.02210324e-02]]

  [[ 1.01571353e-02]]

  [[-1.57083361e-03]]

  [[-4.41154279e-02]]

  [[-9.34132189e-02]]

  [[-4.34585027e-02]]

  [[ 7.67671168e-02]]

  [[ 1.03506949e-02]]

  [[ 8.75155628e-03]]

  [[ 1.24134496e-02]]

  [[-7.72849796e-03]]

  [[-6.15640432e-02]]

  [[-9.17323492e-03]]

  [[-9.42922942e-03]]

  [[-1.22277942e-02]]

  [[ 3.56377363e-02]]

  [[-1.36949020e-02]]

  [[ 1.09405175e-03]]

  [[-6.53767493e-03]]

  [[ 1.76761125e-03]]

  [[ 1.96859073e-02]]

  [[-5.16390577e-02]]

  [[ 2.93754134e-02]]

  [[ 3.68613936e-02]]

  [[ 7.29385903e-03]]

  [[-3.70718576e-02]]

  [[-4.97673824e-03]]

  [[-1.58400852e-02]]

  [[-2.06776476e-03]]

  [[-1.80165134e-02]]

  [[-5.90320006e-02]]

  [[-6.05343357e-02]]

  [[-6.91052526e-02]]

  [[ 1.19013637e-02]]

  [[-6.95115421e-03]]

  [[-5.96472155e-03]]

  [[ 2.48257536e-02]]

  [[ 2.39075883e-03]]

  [[ 1.57809276e-02]]

  [[-4.24190536e-02]]

  [[ 2.81260535e-03]]

  [[ 1.62959956e-02]]

  [[-2.02080756e-02]]

  [[-5.23561947e-02]]

  [[-1.28607452e-02]]

  [[ 1.35414384e-03]]

  [[ 2.45836889e-03]]

  [[ 6.64212834e-03]]

  [[-8.51025991e-03]]

  [[-2.68768314e-02]]

  [[-4.91427816e-03]]

  [[-8.33408069e-03]]

  [[-4.03355062e-02]]

  [[ 4.18552943e-03]]

  [[ 1.41705740e-02]]

  [[-6.51930226e-04]]

  [[-5.73344789e-02]]

  [[ 4.19662101e-03]]

  [[ 8.57600104e-03]]

  [[-3.67670357e-02]]

  [[-8.70158616e-03]]

  [[ 2.08685882e-02]]

  [[ 7.81539362e-03]]

  [[-8.74176808e-03]]

  [[-2.45568305e-02]]

  [[ 7.80278966e-02]]

  [[-8.17697775e-03]]

  [[-4.11447361e-02]]

  [[-3.44999656e-02]]

  [[-5.27317151e-02]]

  [[ 1.13847957e-03]]

  [[ 1.01895332e-02]]

  [[-4.65544760e-02]]

  [[ 8.02508220e-02]]

  [[ 5.57107478e-03]]

  [[ 5.84481061e-02]]

  [[ 6.44741440e-03]]

  [[ 5.32539468e-03]]

  [[ 2.90541481e-02]]

  [[-1.14336843e-02]]

  [[-6.70827106e-02]]

  [[ 4.97986823e-02]]

  [[-8.72122776e-03]]

  [[-2.26284713e-02]]

  [[ 4.07313928e-02]]

  [[-3.82924266e-02]]

  [[ 5.01677766e-03]]

  [[-3.93366301e-03]]

  [[ 2.33874246e-02]]

  [[ 4.18983288e-02]]

  [[ 3.87592837e-02]]

  [[ 1.71508864e-02]]

  [[-2.59076990e-03]]

  [[ 4.82793897e-02]]

  [[ 3.68659832e-02]]

  [[-3.22134979e-02]]

  [[-3.52558792e-02]]

  [[-1.99369360e-02]]

  [[-4.47152182e-03]]

  [[ 4.20076121e-03]]

  [[ 2.96303816e-02]]

  [[ 6.17285725e-03]]

  [[ 1.78250931e-02]]

  [[-3.71639319e-02]]

  [[-2.22505163e-02]]

  [[-4.66707599e-04]]

  [[-3.13304015e-03]]

  [[-2.36790851e-02]]

  [[-2.28942512e-03]]

  [[-1.05900383e-02]]

  [[ 3.19385272e-03]]

  [[-1.78062581e-02]]

  [[-3.16714235e-02]]

  [[ 2.07910407e-03]]

  [[-9.04826447e-03]]

  [[-1.41202714e-02]]

  [[ 1.60506368e-02]]

  [[-3.96194868e-02]]

  [[-1.56765338e-02]]

  [[ 5.86380344e-03]]

  [[-3.67407463e-02]]

  [[ 1.38711622e-02]]

  [[-1.11232661e-02]]

  [[-1.00392967e-01]]

  [[-2.80456580e-02]]

  [[-1.68381091e-02]]

  [[ 3.02029960e-03]]

  [[-1.02312835e-02]]

  [[ 1.24913352e-02]]

  [[-2.37511471e-02]]

  [[-3.04076332e-03]]

  [[-3.02472282e-02]]

  [[-1.97962299e-02]]

  [[ 2.68171076e-02]]

  [[ 1.23498579e-02]]

  [[-3.23026031e-02]]

  [[ 9.73552614e-02]]

  [[ 5.85111137e-03]]

  [[-1.24751532e-03]]

  [[ 7.88975786e-03]]

  [[ 2.99230162e-02]]

  [[-6.59106113e-03]]

  [[ 1.60898343e-01]]

  [[ 1.28576487e-01]]

  [[ 2.51415484e-02]]

  [[ 3.04173902e-02]]

  [[-1.11825451e-01]]

  [[ 7.23238988e-03]]

  [[ 1.86245665e-02]]

  [[ 7.53126398e-04]]

  [[-1.45133510e-02]]

  [[-1.40447346e-02]]

  [[ 1.19168535e-02]]

  [[ 1.75797194e-02]]

  [[-4.14733179e-02]]

  [[-2.42919736e-02]]

  [[-8.04817118e-03]]

  [[ 7.42999977e-03]]

  [[-2.02371422e-02]]

  [[-4.26094532e-02]]

  [[-1.11899443e-01]]

  [[ 2.40863357e-02]]

  [[ 2.09952239e-02]]

  [[ 2.17935629e-02]]

  [[ 7.66349910e-03]]

  [[ 5.37880324e-03]]

  [[ 5.82918711e-02]]

  [[ 1.29662757e-03]]

  [[-2.28642523e-02]]

  [[ 1.50258830e-02]]

  [[-5.75789958e-02]]

  [[ 1.13565668e-01]]

  [[ 2.38954909e-02]]

  [[ 2.13006679e-02]]

  [[ 5.85239306e-02]]

  [[ 3.34105529e-02]]

  [[ 1.32207647e-02]]

  [[-6.54044524e-02]]

  [[ 1.29242102e-02]]

  [[ 2.02330146e-02]]

  [[ 8.25170986e-03]]

  [[ 1.23976683e-02]]

  [[ 4.80816048e-03]]

  [[-1.44992946e-02]]

  [[-1.41837997e-02]]

  [[-1.25844209e-02]]

  [[ 1.07801467e-01]]

  [[ 3.22518758e-02]]

  [[ 1.21496894e-04]]

  [[ 7.76233897e-03]]

  [[ 1.62828863e-02]]

  [[ 9.87830833e-02]]

  [[ 3.10270884e-03]]

  [[-1.53701492e-02]]

  [[ 6.62717689e-03]]

  [[ 3.93952010e-03]]

  [[-6.62946422e-03]]

  [[ 6.50462210e-02]]

  [[-2.56524212e-03]]

  [[ 2.04451550e-02]]

  [[ 1.00587241e-01]]

  [[ 4.05647308e-02]]

  [[-2.63249185e-02]]

  [[ 5.27689839e-03]]

  [[ 1.36923790e-02]]

  [[ 2.11208779e-02]]

  [[-1.70758478e-02]]

  [[-1.52490074e-02]]

  [[-4.77793179e-02]]

  [[ 3.50758024e-02]]

  [[-3.99759188e-02]]

  [[-1.10139139e-02]]

  [[ 1.15400003e-02]]

  [[ 1.12876438e-01]]

  [[-1.39070209e-02]]

  [[-4.58440185e-02]]

  [[ 1.69014409e-02]]

  [[ 2.28479169e-02]]

  [[ 8.57680012e-03]]

  [[ 7.23832939e-03]]

  [[ 5.92519436e-03]]

  [[-4.42659147e-02]]

  [[-2.45651305e-02]]

  [[ 1.58228874e-02]]

  [[ 1.45096239e-02]]

  [[-4.58505787e-02]]

  [[-4.30592597e-02]]

  [[ 1.60654131e-02]]

  [[-1.61032367e-04]]

  [[-1.19432705e-02]]

  [[ 8.35757516e-03]]

  [[-6.52753711e-02]]

  [[ 7.16019887e-04]]

  [[-5.44177229e-03]]

  [[-2.99137030e-02]]

  [[-2.79524759e-03]]

  [[-4.19180244e-02]]

  [[ 1.32158725e-02]]

  [[-1.78584717e-02]]

  [[ 3.49851861e-03]]

  [[ 1.87461097e-02]]

  [[ 5.13316225e-03]]

  [[-1.64874727e-04]]

  [[ 4.60119499e-03]]

  [[ 1.95227079e-02]]

  [[ 3.33567220e-03]]

  [[-4.08089161e-02]]

  [[-3.79858501e-02]]

  [[ 5.63238608e-03]]

  [[-2.23530941e-02]]

  [[ 2.23910157e-02]]

  [[-5.53639457e-02]]

  [[ 1.13538317e-02]]

  [[ 1.25557974e-01]]

  [[-1.54479360e-02]]

  [[-1.48899516e-03]]

  [[-3.04635409e-02]]

  [[ 1.03354556e-02]]

  [[-1.69008467e-02]]

  [[-2.39798144e-04]]

  [[-5.43929189e-02]]

  [[-5.59254130e-03]]

  [[ 1.99713036e-02]]

  [[ 2.22505275e-02]]

  [[-6.41226349e-03]]

  [[-6.35911664e-03]]

  [[-7.52760610e-03]]

  [[ 6.65660128e-02]]

  [[ 5.19652069e-02]]

  [[ 7.45429937e-03]]

  [[ 9.67894215e-04]]

  [[-2.16233600e-02]]

  [[-9.64022893e-03]]

  [[-1.17395101e-02]]

  [[ 5.39468508e-03]]

  [[-1.94450915e-02]]

  [[ 1.05147082e-02]]

  [[-2.26706788e-02]]

  [[ 9.83821810e-04]]

  [[-1.09481327e-02]]

  [[ 3.05992812e-02]]

  [[-7.87157565e-03]]

  [[-7.02000130e-03]]

  [[-2.89352909e-02]]

  [[ 5.66774011e-02]]

  [[-4.17239359e-03]]

  [[-7.59588834e-03]]

  [[-5.37471613e-03]]

  [[ 3.38111967e-02]]

  [[-5.00367582e-02]]

  [[-3.67227904e-02]]

  [[-7.82854557e-02]]

  [[-6.57681981e-03]]

  [[ 3.92795950e-02]]

  [[-1.67006832e-02]]

  [[-2.30530016e-02]]

  [[-1.86911635e-02]]

  [[ 2.30982918e-02]]

  [[ 5.65688796e-02]]

  [[ 1.86287258e-02]]

  [[-1.55172488e-02]]

  [[-1.69976894e-02]]

  [[-1.49983019e-02]]

  [[ 9.27525666e-03]]

  [[ 5.13441768e-03]]

  [[ 5.11768050e-02]]

  [[-4.06350084e-02]]

  [[-1.69012055e-03]]

  [[-1.23570254e-02]]

  [[ 1.16060087e-02]]

  [[ 4.34326520e-03]]

  [[-9.71935131e-03]]

  [[ 7.09696207e-03]]

  [[ 7.98105635e-03]]

  [[-2.34645456e-02]]

  [[ 2.05670744e-02]]

  [[-2.29410571e-03]]

  [[ 2.35696789e-02]]

  [[-1.51193924e-02]]

  [[ 1.05298266e-01]]

  [[ 4.98891342e-03]]

  [[-8.60462710e-02]]

  [[-2.06178576e-02]]

  [[ 5.05511533e-04]]

  [[-1.59984175e-02]]

  [[-1.07044978e-02]]

  [[-1.21812476e-02]]

  [[-2.62889378e-02]]

  [[ 9.34480689e-03]]

  [[-2.90240087e-02]]

  [[-7.27157444e-02]]

  [[-1.34376930e-02]]

  [[-4.42016162e-02]]

  [[-2.53667422e-02]]

  [[ 2.11958457e-02]]

  [[-7.29039637e-03]]

  [[ 1.57132484e-02]]

  [[-5.96549828e-03]]

  [[ 4.61810939e-02]]

  [[-4.17668074e-02]]

  [[ 5.38670691e-03]]

  [[ 2.52405647e-02]]

  [[-2.96041779e-02]]

  [[ 2.20732088e-03]]

  [[-6.21931478e-02]]

  [[-5.61393164e-02]]

  [[ 4.15323116e-02]]

  [[ 6.53015450e-02]]

  [[-5.46321925e-03]]

  [[ 2.47769747e-02]]

  [[ 2.28195209e-02]]

  [[-7.61493444e-02]]

  [[ 5.08506484e-02]]

  [[ 1.50875505e-02]]

  [[ 7.05611473e-03]]

  [[-8.50111339e-03]]

  [[-2.63375463e-03]]

  [[-2.35162918e-02]]

  [[ 1.16398223e-02]]

  [[-1.06819876e-01]]

  [[ 2.85332166e-02]]

  [[-3.45041342e-02]]

  [[ 4.56716642e-02]]

  [[-1.70429032e-02]]

  [[ 1.34543609e-02]]

  [[ 3.50120813e-02]]

  [[-1.63065698e-02]]

  [[-5.31169958e-02]]

  [[-1.82356127e-02]]

  [[-3.77517520e-03]]

  [[-5.97104505e-02]]

  [[-6.61421120e-02]]

  [[-8.01091362e-03]]

  [[ 2.28221454e-02]]

  [[-9.88896340e-02]]

  [[-5.23242131e-02]]

  [[-5.97038828e-02]]

  [[ 2.60558147e-02]]

  [[ 4.99540456e-02]]

  [[ 3.36982869e-02]]

  [[-1.46865575e-02]]

  [[-1.36188196e-03]]

  [[ 1.49090579e-02]]

  [[ 7.99796730e-03]]

  [[ 2.85553187e-02]]

  [[-3.39855030e-02]]

  [[ 8.49014707e-03]]

  [[-1.27360309e-02]]

  [[ 1.12648048e-02]]

  [[-4.87713814e-02]]

  [[-7.44290603e-03]]

  [[ 6.22682786e-03]]

  [[-1.69477682e-03]]

  [[ 7.54720485e-03]]

  [[-2.21179966e-02]]

  [[ 2.74731684e-02]]

  [[ 2.89047183e-03]]

  [[ 1.57791991e-02]]

  [[-5.45769334e-02]]

  [[-1.72837246e-02]]

  [[ 2.58534476e-02]]

  [[ 8.55233669e-02]]

  [[ 6.03439519e-03]]

  [[ 1.26940187e-03]]

  [[ 3.11138891e-02]]

  [[ 2.72825975e-02]]

  [[-3.54409181e-02]]

  [[-9.84389056e-03]]

  [[ 7.98993781e-02]]

  [[ 3.39993834e-02]]

  [[-5.58295920e-02]]

  [[-7.68165383e-03]]

  [[ 1.28665827e-02]]

  [[-1.31572653e-02]]]


 [[[-8.66400544e-03]]

  [[ 1.70757193e-02]]

  [[-9.52953065e-04]]

  [[ 4.15577739e-02]]

  [[ 3.09584308e-02]]

  [[-6.50768727e-03]]

  [[ 6.53097965e-03]]

  [[ 3.56652737e-02]]

  [[ 3.51089910e-02]]

  [[-5.71282487e-03]]

  [[-4.71589491e-02]]

  [[-3.20261568e-02]]

  [[-1.37830973e-02]]

  [[ 4.49474230e-02]]

  [[ 2.17402428e-02]]

  [[-1.87733229e-02]]

  [[ 2.43228003e-02]]

  [[ 1.11689512e-02]]

  [[ 3.20123732e-02]]

  [[ 1.11578302e-02]]

  [[-1.40932277e-02]]

  [[ 2.29947083e-02]]

  [[-1.17056267e-02]]

  [[-3.03152055e-02]]

  [[ 2.23664735e-02]]

  [[-1.78586151e-02]]

  [[-3.66212092e-02]]

  [[-6.47767505e-04]]

  [[ 1.32707739e-02]]

  [[-1.08592808e-02]]

  [[ 6.45989273e-03]]

  [[ 5.97274415e-02]]

  [[ 4.74497722e-03]]

  [[ 5.22937067e-03]]

  [[ 1.09810717e-02]]

  [[ 1.58148129e-02]]

  [[ 4.60243458e-03]]

  [[ 8.65773112e-03]]

  [[ 3.97820286e-02]]

  [[-4.02483009e-02]]

  [[-6.15123101e-03]]

  [[ 2.51457863e-03]]

  [[ 8.78746621e-03]]

  [[-1.09245041e-02]]

  [[-4.20519523e-02]]

  [[ 3.68626565e-02]]

  [[ 2.19366867e-02]]

  [[ 1.75857393e-03]]

  [[ 6.25676941e-03]]

  [[ 6.28176108e-02]]

  [[-2.99146138e-02]]

  [[-1.97773566e-03]]

  [[ 2.81554256e-02]]

  [[ 2.13370025e-02]]

  [[ 7.65805319e-03]]

  [[-6.55226856e-02]]

  [[ 3.17173195e-03]]

  [[-5.99637767e-03]]

  [[ 4.71962587e-04]]

  [[-3.90140601e-02]]

  [[ 5.32501489e-02]]

  [[ 3.79474722e-02]]

  [[ 1.03008503e-03]]

  [[ 2.16489695e-02]]

  [[ 1.97933074e-02]]

  [[-1.26632350e-02]]

  [[-4.98033687e-03]]

  [[-1.86381228e-02]]

  [[-1.31147839e-02]]

  [[ 1.43845631e-02]]

  [[-7.11341128e-02]]

  [[-8.53575650e-04]]

  [[ 1.24305803e-02]]

  [[-1.07662104e-01]]

  [[-2.87592877e-02]]

  [[ 6.73986832e-03]]

  [[ 1.85757354e-02]]

  [[-1.00994244e-01]]

  [[ 4.62871836e-03]]

  [[ 1.80891622e-02]]

  [[ 5.90620600e-02]]

  [[ 6.54110834e-02]]

  [[-3.48396669e-03]]

  [[-5.55978119e-02]]

  [[ 1.95558257e-02]]

  [[ 2.70196702e-02]]

  [[ 1.61432736e-02]]

  [[-1.44100003e-02]]

  [[ 1.40434848e-02]]

  [[ 1.19360965e-02]]

  [[ 6.94664195e-02]]

  [[ 3.15111615e-02]]

  [[-7.78678507e-02]]

  [[-5.31845726e-03]]

  [[-5.71815334e-02]]

  [[-1.07617036e-03]]

  [[ 2.65787113e-02]]

  [[-1.32789547e-02]]

  [[-1.34439403e-02]]

  [[-2.88557410e-02]]

  [[ 1.64133105e-02]]

  [[ 3.75767574e-02]]

  [[-6.29046038e-02]]

  [[-6.81453049e-02]]

  [[ 3.69943827e-02]]

  [[-2.02438124e-02]]

  [[-1.02437764e-01]]

  [[ 1.40351936e-01]]

  [[-3.37776691e-02]]

  [[ 2.60328595e-02]]

  [[-1.35607086e-04]]

  [[ 1.95408706e-02]]

  [[ 6.80822432e-02]]

  [[ 8.48982600e-04]]

  [[ 8.30808561e-03]]

  [[-1.11227660e-02]]

  [[ 4.12129128e-04]]

  [[ 5.02546364e-03]]

  [[ 5.25609404e-02]]

  [[-1.92492525e-03]]

  [[-1.21257063e-02]]

  [[ 2.86164246e-02]]

  [[ 8.13586637e-02]]

  [[-8.46071541e-02]]

  [[ 1.26584778e-02]]

  [[-1.67293400e-02]]

  [[ 7.38320723e-02]]

  [[-5.49118556e-02]]

  [[ 6.78279921e-02]]

  [[-1.94487628e-02]]

  [[ 1.07242092e-02]]

  [[-3.63726192e-03]]

  [[-2.78754365e-02]]

  [[-1.35942148e-02]]

  [[ 4.20537554e-02]]

  [[ 5.10513447e-02]]

  [[ 5.52189862e-03]]

  [[ 1.00877900e-02]]

  [[ 4.58395444e-02]]

  [[ 2.76244171e-02]]

  [[ 1.45649174e-02]]

  [[ 2.86357906e-02]]

  [[ 5.08351251e-04]]

  [[ 3.56828123e-02]]

  [[ 6.37585949e-03]]

  [[-3.16960961e-02]]

  [[-4.41674665e-02]]

  [[ 2.44204272e-02]]

  [[ 2.92500164e-02]]

  [[ 2.64738109e-02]]

  [[ 1.82575043e-02]]

  [[-1.93294010e-03]]

  [[ 4.21323348e-03]]

  [[-4.71726322e-04]]

  [[-6.78473786e-02]]

  [[ 2.92101987e-02]]

  [[ 2.65299138e-02]]

  [[-5.60526587e-02]]

  [[ 9.86039788e-02]]

  [[ 4.09073681e-02]]

  [[-8.00507069e-02]]

  [[ 2.47623818e-03]]

  [[-3.71858105e-02]]

  [[-5.30797578e-02]]

  [[ 1.39280641e-02]]

  [[-4.19637226e-02]]

  [[-9.05124024e-02]]

  [[-5.32566980e-02]]

  [[ 1.64521001e-02]]

  [[-7.14968890e-02]]

  [[-3.36188748e-02]]

  [[-2.77142506e-03]]

  [[ 5.10801449e-02]]

  [[-5.00664022e-03]]

  [[ 2.01946571e-02]]

  [[-2.64083184e-02]]

  [[-8.49277452e-02]]

  [[-1.56561974e-02]]

  [[ 1.61071904e-02]]

  [[-9.69211292e-03]]

  [[ 4.15420458e-02]]

  [[-1.92956589e-02]]

  [[ 7.88078457e-02]]

  [[ 7.04455525e-02]]

  [[ 1.54395297e-01]]

  [[ 1.86734777e-02]]

  [[-1.81974266e-02]]

  [[-1.56647451e-02]]

  [[ 4.36117910e-02]]

  [[-6.67623803e-03]]

  [[-1.37311721e-03]]

  [[-1.79207558e-03]]

  [[-5.52591076e-03]]

  [[-1.29910391e-02]]

  [[-6.71085566e-02]]

  [[ 2.92963963e-02]]

  [[ 2.43293606e-02]]

  [[-1.01268757e-02]]

  [[-1.14046026e-03]]

  [[ 2.16893647e-02]]

  [[ 4.05458733e-03]]

  [[ 8.41532573e-02]]

  [[ 5.97739853e-02]]

  [[ 2.08930653e-02]]

  [[ 5.55878319e-02]]

  [[-4.17878665e-02]]

  [[-2.15050802e-02]]

  [[ 2.71287411e-02]]

  [[-5.14944531e-02]]

  [[-8.23412370e-03]]

  [[ 5.95385395e-02]]

  [[ 5.62686734e-02]]

  [[-1.45108439e-04]]

  [[ 5.16434899e-03]]

  [[ 2.75043398e-02]]

  [[ 6.73164055e-02]]

  [[-3.98958102e-03]]

  [[ 1.96699034e-02]]

  [[ 1.90401624e-03]]

  [[-2.26197187e-02]]

  [[ 2.22674999e-02]]

  [[ 1.26816612e-02]]

  [[ 3.15665780e-03]]

  [[-1.65909473e-02]]

  [[ 7.01948116e-03]]

  [[-4.92252130e-03]]

  [[ 3.18467841e-02]]

  [[-2.01965086e-02]]

  [[ 2.22796854e-02]]

  [[ 1.70955211e-02]]

  [[ 2.05848608e-02]]

  [[-7.25200176e-02]]

  [[ 2.77907345e-02]]

  [[ 2.48386548e-03]]

  [[ 3.05373222e-02]]

  [[ 1.50801037e-02]]

  [[-1.11782685e-01]]

  [[-1.28260255e-02]]

  [[-3.16459462e-02]]

  [[-6.11935668e-02]]

  [[ 1.75403189e-02]]

  [[ 3.28995772e-02]]

  [[-8.28451011e-03]]

  [[ 1.74511466e-02]]

  [[-5.53421071e-03]]

  [[-2.22454406e-03]]

  [[ 1.06642079e-02]]

  [[-2.50699278e-02]]

  [[ 1.07178977e-02]]

  [[ 5.58470078e-02]]

  [[ 2.79298816e-02]]

  [[ 5.71669312e-03]]

  [[ 6.47832640e-03]]

  [[ 1.59084366e-03]]

  [[ 2.35675462e-02]]

  [[-3.97613971e-04]]

  [[ 4.56094655e-04]]

  [[ 1.64968390e-02]]

  [[ 9.06034000e-03]]

  [[ 5.18616252e-02]]

  [[-2.12651528e-02]]

  [[ 2.20897496e-02]]

  [[-7.88402371e-03]]

  [[-9.83423553e-03]]

  [[-5.94172673e-03]]

  [[-6.62762970e-02]]

  [[-4.99025453e-03]]

  [[-2.51246197e-03]]

  [[ 1.94936036e-03]]

  [[ 8.46687797e-03]]

  [[ 3.54154296e-02]]

  [[ 1.06910206e-02]]

  [[-1.47816855e-02]]

  [[-3.13056936e-03]]

  [[ 2.46630609e-02]]

  [[ 7.08010001e-03]]

  [[ 2.46011913e-02]]

  [[ 1.23356348e-02]]

  [[-4.11030427e-02]]

  [[-3.61177102e-02]]

  [[ 2.04389933e-02]]

  [[-7.54488108e-04]]

  [[-1.99179854e-02]]

  [[-4.47404338e-03]]

  [[ 2.50528082e-02]]

  [[ 5.82703874e-02]]

  [[ 1.71787962e-02]]

  [[-8.10850319e-03]]

  [[-2.15695798e-03]]

  [[-3.02847996e-02]]

  [[-3.26619223e-02]]

  [[-3.61048877e-02]]

  [[ 1.50940269e-01]]

  [[ 1.51708722e-02]]

  [[-1.95310079e-02]]

  [[ 3.99632752e-03]]

  [[ 3.24999075e-03]]

  [[ 2.52076723e-02]]

  [[-1.27629321e-02]]

  [[ 1.35890311e-02]]

  [[ 1.71078444e-02]]

  [[-4.86712568e-02]]

  [[ 4.83308844e-02]]

  [[-1.60377342e-02]]

  [[ 2.32130149e-03]]

  [[-5.09917885e-02]]

  [[-5.89451613e-03]]

  [[ 3.96667197e-02]]

  [[-7.70421103e-02]]

  [[ 4.49818224e-02]]

  [[-4.29911129e-02]]

  [[-7.45962709e-02]]

  [[-2.19046846e-02]]

  [[-7.34072924e-03]]

  [[-5.13681956e-03]]

  [[-9.83326172e-05]]

  [[ 3.27138007e-02]]

  [[ 1.34357857e-03]]

  [[ 1.28675140e-02]]

  [[ 5.83980139e-03]]

  [[-4.32312302e-03]]

  [[ 5.51782595e-03]]

  [[-1.14925802e-02]]

  [[-1.72045175e-02]]

  [[-1.44334789e-02]]

  [[ 4.69687358e-02]]

  [[ 3.94174503e-03]]

  [[ 3.10446117e-02]]

  [[ 1.40640419e-03]]

  [[-2.05728151e-02]]

  [[ 2.57636905e-02]]

  [[ 2.15325449e-02]]

  [[ 7.20412657e-02]]

  [[ 5.17364638e-03]]

  [[-1.85770653e-02]]

  [[-3.05528361e-02]]

  [[-5.57263345e-02]]

  [[-1.28165139e-02]]

  [[ 2.07804870e-02]]

  [[-6.36442676e-02]]

  [[ 4.91877533e-02]]

  [[-2.65459093e-04]]

  [[-2.96799596e-02]]

  [[ 1.28914360e-02]]

  [[ 9.86838900e-03]]

  [[ 2.24855114e-02]]

  [[ 1.32022304e-02]]

  [[ 7.44698718e-02]]

  [[ 5.47534972e-02]]

  [[-1.39644705e-02]]

  [[ 5.28652081e-03]]

  [[ 1.23224044e-02]]

  [[-4.05866392e-02]]

  [[ 2.30520125e-02]]

  [[ 2.20681187e-02]]

  [[ 8.72791163e-04]]

  [[-6.52826428e-02]]

  [[-2.33269054e-02]]

  [[ 1.91115737e-02]]

  [[-3.13638784e-02]]

  [[ 3.70111428e-02]]

  [[ 2.91517973e-02]]

  [[ 4.89008725e-02]]

  [[-1.45570021e-02]]

  [[-2.60024108e-02]]

  [[ 2.66906945e-03]]

  [[-2.38216724e-02]]

  [[-2.66358778e-02]]

  [[-4.05177660e-02]]

  [[-1.01789339e-02]]

  [[ 5.68561908e-03]]

  [[ 3.11039574e-03]]

  [[-1.18431132e-02]]

  [[ 1.21599287e-01]]

  [[-4.83291633e-02]]

  [[ 7.30453618e-03]]

  [[-4.90556099e-02]]

  [[ 5.68318041e-03]]

  [[ 9.11877584e-03]]

  [[-4.98434878e-04]]

  [[-1.13218417e-02]]

  [[-5.32699078e-02]]

  [[-5.71563579e-02]]

  [[-4.59291879e-03]]

  [[ 2.12006439e-02]]

  [[ 3.39002945e-02]]

  [[ 6.48423433e-02]]

  [[ 1.98248401e-02]]

  [[ 3.33751133e-03]]

  [[ 1.71435326e-02]]

  [[-8.22517723e-02]]

  [[-8.37655272e-03]]

  [[-6.41460270e-02]]

  [[ 5.61225452e-02]]

  [[-7.67467916e-02]]

  [[ 1.44032331e-03]]

  [[-2.76749693e-02]]

  [[-4.70080413e-03]]

  [[-1.50018791e-02]]

  [[-6.71183094e-02]]

  [[ 2.17718780e-02]]

  [[ 3.59854139e-02]]

  [[ 7.81823471e-02]]

  [[ 1.85205415e-02]]

  [[-4.95757051e-02]]

  [[-1.78892037e-03]]

  [[-1.00475289e-02]]

  [[-1.88858639e-02]]

  [[-2.11464781e-02]]

  [[ 9.08335298e-02]]

  [[ 4.36140411e-02]]

  [[ 2.43457574e-02]]

  [[ 8.06825012e-02]]

  [[-4.76473011e-03]]

  [[ 2.63415873e-02]]

  [[ 2.62780823e-02]]

  [[ 3.45819145e-02]]

  [[-3.97455599e-03]]

  [[-1.18186306e-02]]

  [[-1.13436226e-02]]

  [[ 1.29637541e-02]]

  [[ 3.16191614e-02]]

  [[ 1.10018402e-02]]

  [[-2.48528048e-02]]

  [[-2.12110355e-02]]

  [[ 4.15071705e-03]]

  [[ 5.73467836e-03]]

  [[ 1.89948780e-03]]

  [[-2.49570627e-02]]

  [[ 6.10693963e-03]]

  [[-1.33554870e-02]]

  [[ 1.04105975e-02]]

  [[-7.66417291e-03]]

  [[ 3.50604212e-04]]

  [[ 1.98982544e-02]]

  [[-3.34225670e-02]]

  [[ 1.93584971e-02]]

  [[-8.47733230e-04]]

  [[-1.03594055e-02]]

  [[ 3.59032080e-02]]

  [[-8.27270225e-02]]

  [[-4.43367772e-02]]

  [[-2.13431716e-02]]

  [[-6.13552425e-03]]

  [[ 1.19295560e-01]]

  [[ 1.38124479e-02]]

  [[-8.17788113e-03]]

  [[ 9.64681152e-03]]]


 [[[ 1.15161752e-02]]

  [[ 3.27282362e-02]]

  [[ 2.36336049e-02]]

  [[ 1.06384214e-02]]

  [[-3.68404984e-02]]

  [[ 2.51347795e-02]]

  [[ 1.77991670e-02]]

  [[-4.15858701e-02]]

  [[-6.43813168e-04]]

  [[ 5.52451201e-02]]

  [[ 1.06697734e-02]]

  [[-5.07791117e-02]]

  [[ 8.19930993e-03]]

  [[-4.41479199e-02]]

  [[ 1.02963429e-02]]

  [[-5.33379465e-02]]

  [[-2.91985665e-02]]

  [[-1.77762918e-02]]

  [[ 3.42289358e-02]]

  [[-1.54678272e-02]]

  [[ 1.83191393e-02]]

  [[ 2.23626643e-02]]

  [[-1.35140037e-02]]

  [[ 1.26537576e-03]]

  [[ 1.13220178e-02]]

  [[ 3.85587872e-03]]

  [[-9.51717229e-05]]

  [[ 1.08002909e-02]]

  [[ 1.49922883e-02]]

  [[ 1.33233634e-03]]

  [[-1.25444541e-02]]

  [[ 4.42921184e-02]]

  [[-3.36610600e-02]]

  [[ 6.31100172e-03]]

  [[-1.44779328e-02]]

  [[-3.05454130e-03]]

  [[ 9.67308506e-03]]

  [[-2.14142352e-02]]

  [[-9.14190486e-02]]

  [[ 2.89822146e-02]]

  [[ 1.32630346e-02]]

  [[ 2.04918291e-02]]

  [[-3.97080518e-02]]

  [[ 1.28605543e-02]]

  [[-1.72732759e-03]]

  [[-1.26227243e-02]]

  [[-3.87063948e-03]]

  [[-2.62737204e-03]]

  [[ 6.34542853e-02]]

  [[ 1.23964055e-02]]

  [[-3.47025529e-03]]

  [[-2.97370274e-02]]

  [[ 1.00998189e-02]]

  [[-1.30017474e-02]]

  [[ 4.64845821e-02]]

  [[-3.16010155e-02]]

  [[ 2.38827206e-02]]

  [[ 1.70160457e-02]]

  [[-1.03994729e-02]]

  [[-4.56460677e-02]]

  [[ 5.12330374e-03]]

  [[-1.69520788e-02]]

  [[-1.21745188e-03]]

  [[ 3.24342720e-04]]

  [[ 6.36479631e-02]]

  [[ 1.68204010e-01]]

  [[-9.91852861e-03]]

  [[-2.73593166e-03]]

  [[ 3.42370570e-02]]

  [[ 9.87698138e-03]]

  [[ 9.54493601e-03]]

  [[-1.33510288e-02]]

  [[ 1.99870914e-02]]

  [[-1.81594100e-02]]

  [[ 3.00295111e-02]]

  [[-2.77564651e-03]]

  [[ 2.46473234e-02]]

  [[-1.88281089e-02]]

  [[-1.03749121e-02]]

  [[-1.83845460e-02]]

  [[ 4.48445827e-02]]

  [[-4.43648128e-03]]

  [[-8.17102566e-03]]

  [[ 2.84623429e-02]]

  [[ 1.93335060e-02]]

  [[-1.02766817e-02]]

  [[-7.69622102e-02]]

  [[-3.32405344e-02]]

  [[ 7.60530308e-02]]

  [[ 8.84925597e-04]]

  [[-3.17960754e-02]]

  [[-7.73847057e-03]]

  [[-2.24039014e-02]]

  [[ 9.17632282e-02]]

  [[-7.33625749e-03]]

  [[ 1.88842311e-03]]

  [[ 3.06827691e-03]]

  [[ 1.07243040e-03]]

  [[-7.95765594e-03]]

  [[ 6.11275807e-02]]

  [[ 7.14625465e-03]]

  [[-3.03392783e-02]]

  [[ 3.17888036e-02]]

  [[-3.56415920e-02]]

  [[ 3.27768810e-02]]

  [[ 1.67122278e-02]]

  [[ 1.18579706e-02]]

  [[ 7.88189992e-02]]

  [[ 4.59573753e-02]]

  [[ 4.31646369e-02]]

  [[ 1.25487912e-02]]

  [[ 2.88526658e-02]]

  [[-9.01176184e-02]]

  [[-1.11656438e-03]]

  [[ 1.17927622e-02]]

  [[-2.19069403e-02]]

  [[ 1.15394406e-03]]

  [[ 1.25652757e-02]]

  [[ 7.20975455e-03]]

  [[-2.36211028e-02]]

  [[-1.69820024e-03]]

  [[-1.42370379e-02]]

  [[-8.73584896e-02]]

  [[-5.46143427e-02]]

  [[-4.61548455e-02]]

  [[-1.19196307e-02]]

  [[-2.58201268e-02]]

  [[-2.76527759e-02]]

  [[-1.06663881e-02]]

  [[-1.05183572e-02]]

  [[ 5.03730886e-02]]

  [[ 3.66916647e-03]]

  [[-1.19119789e-03]]

  [[-5.66663111e-05]]

  [[ 1.08540161e-02]]

  [[-3.37550440e-03]]

  [[ 2.44263746e-03]]

  [[ 1.95721840e-03]]

  [[ 7.39919692e-02]]

  [[ 1.72380917e-02]]

  [[ 1.06142266e-02]]

  [[ 2.44891718e-02]]

  [[-1.92534048e-02]]

  [[ 1.13417506e-02]]

  [[-1.50603689e-02]]

  [[ 9.40003619e-03]]

  [[ 5.52997226e-03]]

  [[ 7.18752760e-03]]

  [[ 2.28200313e-02]]

  [[ 3.68483961e-02]]

  [[ 2.74290480e-02]]

  [[ 5.82562499e-02]]

  [[ 3.55654559e-03]]

  [[ 1.40908975e-02]]

  [[-1.43407667e-02]]

  [[-1.13525558e-02]]

  [[-5.71320532e-03]]

  [[ 3.61509738e-03]]

  [[-7.73557127e-02]]

  [[-2.76534446e-03]]

  [[-1.30789960e-02]]

  [[ 7.22350460e-03]]

  [[-3.08044627e-03]]

  [[-1.01300245e-02]]

  [[ 1.34101175e-02]]

  [[ 4.55524772e-02]]

  [[-1.40527803e-02]]

  [[-3.95525098e-02]]

  [[ 9.45264660e-03]]

  [[ 3.54796238e-02]]

  [[ 2.64577083e-02]]

  [[ 2.01925542e-03]]

  [[-1.33147174e-02]]

  [[ 1.50330076e-02]]

  [[ 3.78828906e-02]]

  [[-6.24313997e-03]]

  [[-8.32420588e-02]]

  [[-1.69042107e-02]]

  [[-4.49802503e-02]]

  [[ 1.15050348e-02]]

  [[-5.21271005e-02]]

  [[ 1.77749561e-03]]

  [[ 3.24974745e-03]]

  [[-4.41592708e-02]]

  [[-2.61466373e-02]]

  [[ 1.74395852e-02]]

  [[ 1.32232187e-02]]

  [[ 1.99225247e-02]]

  [[-2.19990052e-02]]

  [[-1.96984261e-01]]

  [[-8.27692747e-02]]

  [[-1.35886529e-02]]

  [[-3.74516882e-02]]

  [[-5.71788521e-04]]

  [[ 9.39078256e-03]]

  [[ 9.92445624e-04]]

  [[-1.28686037e-02]]

  [[-1.68251786e-02]]

  [[ 1.80959292e-02]]

  [[-1.83319803e-02]]

  [[-5.23582585e-02]]

  [[-2.90306527e-02]]

  [[ 8.31130799e-03]]

  [[-2.67675649e-02]]

  [[ 2.04175413e-02]]

  [[ 5.94337806e-02]]

  [[ 6.37362003e-02]]

  [[-8.68442655e-03]]

  [[ 2.29202539e-01]]

  [[-2.80592963e-02]]

  [[-3.79121602e-02]]

  [[ 8.28103125e-02]]

  [[ 6.48516463e-03]]

  [[ 1.66504290e-02]]

  [[ 1.38972132e-02]]

  [[-7.13674724e-02]]

  [[-1.14348568e-02]]

  [[-7.83090666e-03]]

  [[ 2.88181077e-03]]

  [[-9.70545132e-03]]

  [[ 8.15614499e-03]]

  [[ 2.33856239e-03]]

  [[ 1.38539514e-02]]

  [[ 3.75207234e-03]]

  [[-3.94950109e-03]]

  [[-5.10745607e-02]]

  [[ 3.85271106e-03]]

  [[-5.28862188e-03]]

  [[-1.01487953e-02]]

  [[-8.43815506e-03]]

  [[ 7.51302214e-05]]

  [[ 5.82368812e-03]]

  [[-1.41068138e-02]]

  [[ 1.56889632e-02]]

  [[-3.50983590e-02]]

  [[-8.53541214e-03]]

  [[ 8.82512890e-03]]

  [[-1.21293506e-02]]

  [[ 5.09487949e-02]]

  [[-4.49979529e-02]]

  [[ 8.90235081e-02]]

  [[-8.65811668e-03]]

  [[-3.82979959e-02]]

  [[ 4.82458156e-03]]

  [[ 4.21686508e-02]]

  [[-1.91357117e-02]]

  [[-3.39914300e-03]]

  [[ 2.46527791e-02]]

  [[-1.76503640e-02]]

  [[ 5.85047081e-02]]

  [[-2.58041564e-02]]

  [[ 1.09564969e-02]]

  [[ 1.64466947e-02]]

  [[ 1.90674141e-02]]

  [[ 4.52914275e-03]]

  [[ 1.19121792e-02]]

  [[-5.13770524e-03]]

  [[ 1.76530741e-02]]

  [[-3.27459606e-03]]

  [[ 2.40908880e-02]]

  [[-4.77336422e-02]]

  [[ 1.74893707e-03]]

  [[-6.47314591e-03]]

  [[ 2.14786492e-02]]

  [[ 1.59647409e-02]]

  [[-7.61636440e-03]]

  [[ 8.55697878e-03]]

  [[ 1.75719429e-02]]

  [[-3.01558226e-02]]

  [[ 1.83907952e-02]]

  [[ 3.98013182e-02]]

  [[ 4.41255048e-02]]

  [[-7.00261397e-03]]

  [[-8.73637944e-03]]

  [[-6.93311170e-02]]

  [[ 2.40026545e-02]]

  [[-4.62151766e-02]]

  [[-5.07568242e-03]]

  [[ 1.03990510e-02]]

  [[ 6.77960068e-02]]

  [[-1.58747975e-02]]

  [[-3.45433988e-02]]

  [[-3.94603284e-03]]

  [[ 5.86253684e-03]]

  [[ 7.82227051e-03]]

  [[-5.79821020e-02]]

  [[-2.28575952e-02]]

  [[ 3.49979438e-02]]

  [[-4.14988725e-03]]

  [[ 1.97404088e-03]]

  [[-1.26327928e-02]]

  [[-1.66744385e-02]]

  [[ 2.18063407e-02]]

  [[ 1.76394114e-03]]

  [[ 1.38628483e-02]]

  [[ 9.70671326e-03]]

  [[-1.87963098e-02]]

  [[-1.70202628e-02]]

  [[ 6.40786886e-02]]

  [[ 6.04230678e-03]]

  [[-2.08480167e-04]]

  [[ 5.39286435e-02]]

  [[-6.99798949e-03]]

  [[ 4.81016687e-05]]

  [[-7.52614997e-03]]

  [[-1.09491507e-02]]

  [[ 3.86737324e-02]]

  [[-8.93159490e-03]]

  [[ 5.60704060e-03]]

  [[ 6.92260358e-03]]

  [[ 2.96791438e-02]]

  [[-3.97341922e-02]]

  [[ 2.00972967e-02]]

  [[-2.77311541e-03]]

  [[ 3.53484377e-02]]

  [[ 2.73295511e-02]]

  [[-1.29147507e-02]]

  [[ 8.17538723e-02]]

  [[-1.06010661e-02]]

  [[-1.31100125e-03]]

  [[-1.23578468e-02]]

  [[-6.96344860e-03]]

  [[-3.98405232e-02]]

  [[-4.30258401e-02]]

  [[-1.59470551e-02]]

  [[ 7.09817419e-03]]

  [[ 5.41602494e-03]]

  [[ 1.70448431e-04]]

  [[-1.79672632e-02]]

  [[-1.03025055e-02]]

  [[ 2.21368414e-03]]

  [[-5.12042362e-03]]

  [[-5.46997078e-02]]

  [[ 3.53888213e-03]]

  [[-5.99127542e-03]]

  [[ 4.64702100e-02]]

  [[ 4.51355986e-03]]

  [[-2.42877146e-03]]

  [[-4.14699093e-02]]

  [[ 4.00028042e-02]]

  [[ 1.10743726e-02]]

  [[-2.71705771e-03]]

  [[-9.03476588e-03]]

  [[-1.88020617e-02]]

  [[-1.07157994e-02]]

  [[ 2.01426875e-02]]

  [[ 1.26309833e-03]]

  [[-3.73764522e-02]]

  [[-2.21765265e-02]]

  [[ 1.88081600e-02]]

  [[-1.61367655e-02]]

  [[-7.55095482e-02]]

  [[-7.45607947e-04]]

  [[-2.54985131e-02]]

  [[ 2.36557145e-02]]

  [[ 5.12356982e-02]]

  [[ 7.71391159e-03]]

  [[ 2.94845831e-03]]

  [[ 2.46971101e-02]]

  [[ 2.75424961e-02]]

  [[ 4.03686892e-03]]

  [[ 4.77919988e-02]]

  [[-2.06013564e-02]]

  [[ 3.09518836e-02]]

  [[ 2.85136746e-03]]

  [[-6.41631037e-02]]

  [[ 2.09604483e-02]]

  [[ 5.83344586e-02]]

  [[ 5.73814809e-02]]

  [[ 2.87310332e-02]]

  [[-8.14182858e-04]]

  [[ 1.38208214e-02]]

  [[ 3.01711373e-02]]

  [[-2.42739487e-02]]

  [[ 5.19652292e-03]]

  [[-1.68441176e-01]]

  [[ 1.21022679e-01]]

  [[ 6.45984942e-03]]

  [[ 2.70905644e-02]]

  [[ 6.46082126e-03]]

  [[-4.99115586e-02]]

  [[-3.63501906e-03]]

  [[-1.36287976e-02]]

  [[-1.99544132e-02]]

  [[ 2.10431460e-02]]

  [[-8.12804401e-02]]

  [[-4.31202576e-02]]

  [[-3.93013330e-03]]

  [[ 1.03523377e-02]]

  [[ 3.04981507e-03]]

  [[-5.66793308e-02]]

  [[ 5.51926671e-03]]

  [[ 5.68490215e-02]]

  [[-3.94250527e-02]]

  [[ 2.97576599e-02]]

  [[ 6.43745437e-02]]

  [[-1.63749419e-02]]

  [[ 4.17979807e-03]]

  [[ 1.32278381e-02]]

  [[-1.63245313e-02]]

  [[-1.42233642e-02]]

  [[-5.84327243e-02]]

  [[ 2.70085428e-02]]

  [[ 3.45309521e-03]]

  [[-1.96471401e-02]]

  [[ 1.39213575e-03]]

  [[-2.08760183e-02]]

  [[-1.85815711e-02]]

  [[-4.77934964e-02]]

  [[-3.05711348e-02]]

  [[-9.86437593e-03]]

  [[-5.02660168e-06]]

  [[-2.95984298e-02]]

  [[ 5.38136847e-02]]

  [[ 2.11526901e-02]]

  [[ 2.74286233e-03]]

  [[ 4.06858996e-02]]

  [[ 3.06587964e-02]]

  [[ 2.99656671e-03]]

  [[-2.46104188e-02]]

  [[ 3.94366868e-02]]

  [[ 1.25931585e-02]]

  [[ 6.89379638e-03]]

  [[-2.91867629e-02]]

  [[-1.23833623e-02]]

  [[-4.12617717e-03]]

  [[-3.22010391e-03]]

  [[ 1.21015999e-02]]

  [[-1.83044478e-01]]

  [[ 1.06566316e-02]]

  [[ 1.83361731e-02]]

  [[-3.54178697e-02]]

  [[ 2.07222551e-02]]

  [[-7.05118477e-02]]

  [[-1.59496460e-02]]

  [[-1.80790480e-02]]

  [[-7.16936775e-04]]

  [[-2.07249559e-02]]

  [[ 8.34586564e-03]]

  [[ 6.43713400e-02]]

  [[ 4.27990407e-02]]

  [[-3.51559594e-02]]

  [[ 5.75477518e-02]]

  [[ 1.83212869e-02]]

  [[ 5.87565526e-02]]

  [[ 1.92663993e-03]]

  [[-8.76600854e-03]]

  [[-2.18676887e-02]]]


 [[[ 4.02803384e-02]]

  [[ 5.16653918e-02]]

  [[-2.85086054e-02]]

  [[-5.04162814e-03]]

  [[ 2.86282767e-02]]

  [[ 4.96905446e-02]]

  [[ 4.34338301e-02]]

  [[-4.45041284e-02]]

  [[ 1.40288165e-02]]

  [[-4.22985666e-02]]

  [[-1.13566041e-01]]

  [[-2.21509933e-02]]

  [[-1.51103502e-02]]

  [[ 2.84665618e-02]]

  [[-7.74716306e-03]]

  [[-3.09662260e-02]]

  [[-1.08840624e-02]]

  [[ 2.19560303e-02]]

  [[-2.39782240e-02]]

  [[ 9.79303047e-02]]

  [[-7.35521084e-03]]

  [[ 2.76080146e-02]]

  [[ 1.64938979e-02]]

  [[-2.43683718e-03]]

  [[ 1.43339792e-02]]

  [[ 3.81490886e-02]]

  [[-4.13133204e-02]]

  [[ 1.66591047e-03]]

  [[ 1.38253043e-03]]

  [[ 4.61858362e-02]]

  [[-4.48566377e-02]]

  [[ 1.21984491e-02]]

  [[ 8.33753794e-02]]

  [[ 4.41688597e-02]]

  [[ 7.26956083e-03]]

  [[ 9.31215845e-03]]

  [[ 2.43985071e-03]]

  [[-2.75445804e-02]]

  [[-2.72142887e-02]]

  [[ 2.26842053e-02]]

  [[-3.49203609e-02]]

  [[ 1.72726437e-02]]

  [[ 1.44848078e-02]]

  [[-2.31419690e-02]]

  [[ 2.53808182e-02]]

  [[ 3.96581739e-02]]

  [[ 1.20915025e-02]]

  [[-5.82047738e-03]]

  [[-3.17735747e-02]]

  [[ 4.53195795e-02]]

  [[-3.37231788e-03]]

  [[-6.57950938e-02]]

  [[ 3.40662245e-03]]

  [[ 3.91067890e-03]]

  [[ 2.30636466e-02]]

  [[-3.80734652e-02]]

  [[ 7.56180496e-04]]

  [[ 4.42875475e-02]]

  [[ 1.74232665e-02]]

  [[-5.79225495e-02]]

  [[ 3.76329641e-03]]

  [[-3.28620221e-03]]

  [[ 1.80089772e-02]]

  [[-2.71459352e-02]]

  [[ 3.52889076e-02]]

  [[ 4.01176587e-02]]

  [[-3.41832116e-02]]

  [[ 3.83229228e-03]]

  [[ 1.38252657e-02]]

  [[ 3.31896916e-02]]

  [[-5.39143607e-02]]

  [[ 2.27961354e-02]]

  [[ 4.92954580e-03]]

  [[ 5.40663637e-02]]

  [[-2.72241253e-02]]

  [[ 8.21112934e-03]]

  [[-4.18032631e-02]]

  [[-5.82441222e-03]]

  [[ 6.73079211e-03]]

  [[-1.68390982e-02]]

  [[-4.21784483e-02]]

  [[-4.04313207e-02]]

  [[-2.75875069e-03]]

  [[ 7.93629885e-03]]

  [[-1.35153169e-02]]

  [[ 1.08581716e-02]]

  [[ 8.07384253e-02]]

  [[-1.28533058e-02]]

  [[-2.75447946e-02]]

  [[ 2.40360778e-02]]

  [[ 2.41207406e-02]]

  [[-6.17397670e-03]]

  [[ 3.04083843e-02]]

  [[ 1.06130745e-02]]

  [[-8.34869500e-03]]

  [[-1.17400166e-04]]

  [[ 3.44969071e-02]]

  [[ 2.96275187e-02]]

  [[-5.35896607e-03]]

  [[ 1.22365326e-01]]

  [[-4.29326575e-03]]

  [[ 9.73647740e-03]]

  [[ 5.38021922e-02]]

  [[-1.04397409e-01]]

  [[ 3.83256115e-02]]

  [[-1.13104433e-01]]

  [[-3.89939100e-02]]

  [[ 2.07613781e-03]]

  [[-2.28112796e-03]]

  [[ 3.93134728e-02]]

  [[ 1.86060984e-02]]

  [[ 6.83439150e-03]]

  [[-6.26941249e-02]]

  [[-9.31382552e-03]]

  [[ 1.50393667e-02]]

  [[ 1.70137454e-02]]

  [[-5.31779742e-03]]

  [[-5.07355593e-02]]

  [[-4.30170037e-02]]

  [[ 1.60038974e-02]]

  [[-1.12822140e-02]]

  [[-1.88342091e-02]]

  [[-7.79832527e-02]]

  [[ 2.47200839e-02]]

  [[-3.63676772e-02]]

  [[ 6.61520567e-03]]

  [[ 8.50388873e-03]]

  [[-2.89597660e-02]]

  [[-7.08639100e-02]]

  [[ 2.42325012e-02]]

  [[-8.78506526e-02]]

  [[-9.76433512e-03]]

  [[-2.02121679e-02]]

  [[-2.14286280e-04]]

  [[-1.24157947e-02]]

  [[ 7.85771534e-02]]

  [[ 3.90477292e-03]]

  [[-5.20059094e-02]]

  [[-2.65270229e-02]]

  [[-3.15792253e-03]]

  [[ 6.98064594e-03]]

  [[ 1.55458180e-02]]

  [[ 1.35157267e-02]]

  [[ 6.69348799e-03]]

  [[-1.07655395e-02]]

  [[-4.44185399e-02]]

  [[ 7.74482489e-02]]

  [[ 8.12297501e-03]]

  [[ 1.38159534e-02]]

  [[ 2.29728539e-02]]

  [[ 2.44549438e-02]]

  [[-4.88735735e-03]]

  [[-1.95605140e-02]]

  [[-3.99142206e-02]]

  [[ 9.81457457e-02]]

  [[ 1.91552062e-02]]

  [[-1.87451188e-02]]

  [[-3.41258384e-02]]

  [[-1.22627579e-01]]

  [[-1.44831073e-02]]

  [[-1.95592884e-02]]

  [[-5.49739087e-03]]

  [[-6.69022207e-04]]

  [[-7.40122050e-03]]

  [[-5.08976821e-03]]

  [[-1.13495521e-01]]

  [[-4.12671268e-02]]

  [[-2.50549149e-02]]

  [[ 2.19706516e-03]]

  [[-5.17783202e-02]]

  [[ 1.31366730e-01]]

  [[-2.28506215e-02]]

  [[-8.93215835e-02]]

  [[-2.45653937e-04]]

  [[ 3.01216058e-02]]

  [[ 2.40658540e-02]]

  [[ 6.06622659e-02]]

  [[ 3.73019045e-03]]

  [[-4.19716276e-02]]

  [[-1.46620736e-01]]

  [[ 7.51597248e-03]]

  [[ 7.77825806e-03]]

  [[ 5.52168414e-02]]

  [[ 4.40412536e-02]]

  [[-1.40432245e-03]]

  [[ 1.05562704e-02]]

  [[-3.58234684e-04]]

  [[-5.86860767e-03]]

  [[-3.85758020e-02]]

  [[-1.18514784e-02]]

  [[-2.45652185e-03]]

  [[ 3.16354446e-02]]

  [[ 4.76523936e-02]]

  [[ 3.83699648e-02]]

  [[-6.37733415e-02]]

  [[-1.39896851e-02]]

  [[-6.49576932e-02]]

  [[-3.08817485e-03]]

  [[ 4.50804643e-03]]

  [[ 1.67699214e-02]]

  [[ 3.52316238e-02]]

  [[ 3.41883786e-02]]

  [[-4.83330945e-03]]

  [[-1.45136779e-02]]

  [[ 6.17463291e-02]]

  [[ 3.75238322e-02]]

  [[ 5.14697507e-02]]

  [[ 5.84381027e-03]]

  [[ 1.35212047e-02]]

  [[-7.48182982e-02]]

  [[-4.30593155e-02]]

  [[-3.40039954e-02]]

  [[-1.07449974e-04]]

  [[-2.32345164e-02]]

  [[-4.21680883e-02]]

  [[ 2.56533711e-03]]

  [[-1.42838052e-02]]

  [[ 2.31326115e-03]]

  [[-4.05578874e-02]]

  [[-7.15710744e-02]]

  [[-1.00730278e-01]]

  [[-1.35152331e-02]]

  [[-1.51715856e-02]]

  [[-2.75029112e-02]]

  [[-1.02634840e-02]]

  [[-3.55971903e-02]]

  [[ 1.49979396e-02]]

  [[-4.00367267e-02]]

  [[ 2.90834950e-03]]

  [[ 1.32403644e-02]]

  [[ 1.40148809e-03]]

  [[ 3.26401629e-02]]

  [[ 5.39596984e-03]]

  [[ 8.46961420e-03]]

  [[ 5.16269170e-02]]

  [[-6.80671036e-02]]

  [[ 2.47211922e-02]]

  [[ 7.34649831e-03]]

  [[ 1.64683685e-02]]

  [[ 8.45895931e-02]]

  [[ 3.24613266e-02]]

  [[ 3.24527323e-02]]

  [[ 1.32135808e-01]]

  [[-3.78864584e-03]]

  [[ 2.39615832e-02]]

  [[-5.36068622e-03]]

  [[ 1.52409365e-02]]

  [[-1.34990467e-02]]

  [[ 6.37471117e-03]]

  [[-1.95824448e-02]]

  [[-3.08861192e-02]]

  [[-3.29360105e-02]]

  [[-7.19676027e-03]]

  [[ 8.54460672e-02]]

  [[-1.17500015e-01]]

  [[ 1.16142360e-02]]

  [[ 8.67834035e-03]]

  [[ 3.66338305e-02]]

  [[ 1.31900879e-02]]

  [[-1.55815268e-02]]

  [[ 7.94237778e-02]]

  [[ 1.70763005e-02]]

  [[-2.12611314e-02]]

  [[-4.51417677e-02]]

  [[-1.23832868e-02]]

  [[ 6.47652987e-03]]

  [[-4.38207909e-02]]

  [[-3.86379007e-03]]

  [[-6.56449702e-04]]

  [[ 5.92431277e-02]]

  [[ 4.07723635e-02]]

  [[-4.51334938e-03]]

  [[ 7.46578490e-03]]

  [[-1.07421791e-02]]

  [[ 4.91982549e-02]]

  [[-8.05063359e-03]]

  [[ 4.35835496e-02]]

  [[ 1.03100222e-02]]

  [[ 2.18740404e-02]]

  [[-6.14302699e-04]]

  [[ 2.30326224e-02]]

  [[-1.57704689e-02]]

  [[ 1.75950062e-02]]

  [[ 1.03578810e-03]]

  [[-3.00591160e-02]]

  [[ 3.32696103e-02]]

  [[ 4.61303303e-03]]

  [[-5.20024169e-03]]

  [[-2.72391539e-04]]

  [[-2.41200114e-03]]

  [[-7.80922361e-03]]

  [[-8.25191569e-03]]

  [[-2.69330628e-02]]

  [[ 4.07938287e-02]]

  [[ 3.36367860e-02]]

  [[-7.65267527e-03]]

  [[-1.99391805e-02]]

  [[-2.82790605e-02]]

  [[ 2.08570622e-02]]

  [[ 2.50139832e-02]]

  [[-1.43807782e-02]]

  [[-1.84694137e-02]]

  [[-3.33731845e-02]]

  [[-1.25484830e-02]]

  [[ 5.94060011e-02]]

  [[ 3.93170193e-02]]

  [[ 2.16621775e-02]]

  [[ 2.81813163e-02]]

  [[ 3.70232761e-02]]

