Subnet: [6, 6, 6, 6, 6, 6, 6, 6, 6, 6, 6, 6, 6, 6, 6, 6, 3, 3, 3, 3], [4, 4, 4, 4, 2]
Weight Matrix shape: (336, 1, 5, 5)
[[[[ 1.09646916e-02 -1.34185748e-02 -9.73347668e-03 -2.53883045e-04
     2.25269254e-02]
   [ 8.51385482e-03 -4.38550785e-02 -1.41123787e-01 -1.04197226e-01
     7.22114230e-03]
   [-5.62769696e-02 -1.31423920e-01 -2.32034206e-01 -2.01950192e-01
    -7.81565830e-02]
   [-4.81551550e-02 -1.26380742e-01 -2.24552438e-01 -2.02190071e-01
    -7.03775734e-02]
   [-1.32705830e-02 -4.01901864e-02 -1.11000799e-01 -9.30894986e-02
    -5.43596270e-03]]]


 [[[ 3.96054536e-02  2.44631041e-02 -4.11498696e-02 -4.57857130e-03
     3.68272141e-02]
   [ 7.48099759e-03 -3.56162488e-02 -9.65615436e-02 -6.29120022e-02
    -6.44752523e-03]
   [-7.93138370e-02 -1.19368851e-01 -1.86978728e-01 -1.71939909e-01
    -6.96595833e-02]
   [-4.96075563e-02 -9.86764506e-02 -1.58583447e-01 -1.74137786e-01
    -5.92678897e-02]
   [-1.42577495e-02 -2.78659519e-02 -8.27527493e-02 -8.33294541e-02
    -1.39798336e-02]]]


 [[[ 6.11732854e-03 -3.94307775e-03 -5.60865514e-02 -2.15548836e-02
     1.01854783e-02]
   [-5.05128689e-03 -5.30615076e-02 -1.25734732e-01 -1.11057498e-01
    -1.53343577e-03]
   [-4.72725667e-02 -1.36323422e-01 -2.02759564e-01 -1.89014316e-01
    -7.20399618e-02]
   [-1.59198083e-02 -1.27772287e-01 -1.86761722e-01 -2.15721920e-01
    -7.37767965e-02]
   [ 3.08351824e-03 -3.24316099e-02 -1.06930323e-01 -1.09303318e-01
    -8.36706534e-03]]]


 [[[ 3.12432721e-02  1.12727063e-03 -4.79083136e-02 -2.12251656e-02
     9.08002537e-03]
   [-1.18817063e-02 -7.45558217e-02 -1.38251007e-01 -1.17231861e-01
    -2.53023952e-02]
   [-6.64810836e-02 -1.49741039e-01 -2.10784033e-01 -1.83677554e-01
    -8.21364298e-02]
   [ 3.04896943e-03 -8.35536718e-02 -1.94428787e-01 -1.68071926e-01
    -3.50978263e-02]
   [ 4.39109728e-02  1.24955981e-03 -9.59258527e-02 -5.90992086e-02
     2.24266909e-02]]]


 [[[ 2.53348909e-02  1.55462995e-02 -1.95585974e-02  4.73472103e-03
     2.21799407e-02]
   [-6.00829488e-04 -6.39734492e-02 -1.54880583e-01 -1.02984354e-01
    -2.19777394e-02]
   [-4.53987867e-02 -1.34261817e-01 -1.99412376e-01 -1.84225067e-01
    -7.35127106e-02]
   [-2.35149059e-02 -1.12082548e-01 -2.04696059e-01 -1.91711411e-01
    -5.76642863e-02]
   [ 1.37102129e-02 -3.45220044e-02 -9.01459157e-02 -8.02107751e-02
     2.62825172e-02]]]


 [[[ 1.69327110e-02  1.51546963e-03 -3.24456245e-02 -3.58317094e-03
     5.20715490e-03]
   [-9.52303316e-03 -4.39629704e-02 -1.17138945e-01 -5.54857217e-02
    -1.75922904e-02]
   [-3.02662458e-02 -1.01780504e-01 -1.79886937e-01 -1.55128613e-01
    -8.14056471e-02]
   [-2.53608786e-02 -9.40294713e-02 -1.62334189e-01 -1.62582621e-01
    -6.82921484e-02]
   [ 3.41403447e-02 -3.47222085e-03 -7.63348341e-02 -6.94822669e-02
     1.36124054e-02]]]


 [[[ 6.00732444e-03  1.84291825e-02 -4.68774810e-02 -8.50337278e-03
     3.87079502e-03]
   [-1.74286813e-02 -5.94974197e-02 -1.20766565e-01 -8.37372467e-02
    -8.98826215e-03]
   [-3.25473994e-02 -1.36572018e-01 -2.16559961e-01 -1.64521649e-01
    -4.91616726e-02]
   [-2.49933172e-02 -9.18325037e-02 -2.02513009e-01 -1.83490604e-01
    -5.64707443e-02]
   [-8.65885522e-04 -1.42076779e-02 -8.42345133e-02 -7.64719546e-02
     1.32752666e-02]]]


 [[[-2.11532898e-02 -2.05039736e-02  5.70900515e-02  2.13933717e-02
    -3.42871174e-02]
   [-2.00440232e-02  5.52576631e-02  1.38035789e-01  8.16568583e-02
     2.39016023e-02]
   [ 4.64284196e-02  9.93241891e-02  1.78155139e-01  1.91326410e-01
     7.22511783e-02]
   [ 5.02149798e-02  6.42152652e-02  1.60966501e-01  1.71402335e-01
     4.19199206e-02]
   [-3.81518900e-02 -8.02995544e-03  7.50118420e-02  7.07340315e-02
    -1.41218957e-02]]]


 [[[-4.55909845e-04 -3.39806043e-02 -6.03771880e-02 -3.50575186e-02
     6.89154863e-03]
   [-3.86309773e-02 -9.30273384e-02 -1.36702225e-01 -1.02441587e-01
    -3.51481102e-02]
   [-5.90654984e-02 -1.48249626e-01 -1.91719815e-01 -1.67707011e-01
    -6.87468648e-02]
   [-2.97036506e-02 -8.85705501e-02 -1.70835376e-01 -1.48576871e-01
    -2.50132550e-02]
   [ 1.82056502e-02 -8.56306776e-03 -7.64248967e-02 -5.30453026e-02
     2.27816701e-02]]]


 [[[ 1.23604601e-02 -6.31199824e-03  4.03836282e-04  1.14862425e-02
     3.33260596e-02]
   [ 1.84690412e-02 -5.76346889e-02 -7.74607956e-02 -7.50391036e-02
     8.99856351e-03]
   [-4.62756939e-02 -1.28511667e-01 -1.85637966e-01 -1.70431256e-01
    -3.71908173e-02]
   [-4.58579212e-02 -9.66394767e-02 -1.66988060e-01 -1.61346883e-01
    -4.72737700e-02]
   [-7.78746326e-03 -3.78224477e-02 -8.16802830e-02 -7.68123791e-02
     4.32986161e-03]]]


 [[[-5.70132174e-02 -1.60995647e-02 -4.59961928e-02 -3.56008895e-02
    -1.26926284e-02]
   [-3.36460546e-02 -3.18317302e-02 -4.81740944e-02 -3.44487615e-02
    -2.34731976e-02]
   [-6.25457391e-02 -5.01718409e-02 -5.99260479e-02 -3.68001051e-02
    -3.93601432e-02]
   [-1.65982042e-02 -1.61267072e-02 -3.42671163e-02 -3.30442078e-02
    -4.42447054e-04]
   [-4.59037796e-02 -2.96252258e-02 -6.65259361e-02 -4.60907221e-02
    -2.39556525e-02]]]


 [[[-4.65615140e-03 -1.34724872e-02 -1.22829666e-02 -5.42223454e-02
    -1.82078350e-02]
   [-1.05276564e-02 -5.90336882e-02 -6.22517690e-02 -8.33971649e-02
    -3.35394144e-02]
   [-6.70216903e-02 -1.22640185e-01 -1.66055083e-01 -1.64245054e-01
    -9.90120322e-02]
   [-3.26220989e-02 -8.78632367e-02 -1.10568695e-01 -1.56844020e-01
    -7.32073560e-02]
   [ 2.35097557e-02 -4.18955833e-02 -3.51048484e-02 -7.28058368e-02
    -8.13257415e-03]]]


 [[[ 6.21379353e-03  1.32742049e-02 -1.25522621e-03 -2.13310262e-03
     2.21849158e-02]
   [ 3.01529351e-03 -4.25268784e-02 -1.01143934e-01 -1.06939785e-01
    -1.58583801e-02]
   [-4.27555107e-02 -1.11579530e-01 -1.85992688e-01 -1.64287418e-01
    -7.39933252e-02]
   [-4.15252484e-02 -1.04349680e-01 -1.58267468e-01 -1.51442125e-01
    -6.26341552e-02]
   [ 1.14824763e-02 -4.06759195e-02 -9.10972878e-02 -8.58628303e-02
    -1.17831649e-02]]]


 [[[-5.75608294e-03  1.58157200e-03 -1.20274946e-02 -1.29413903e-02
     1.86376423e-02]
   [-1.98131073e-02 -5.91995791e-02 -1.13941304e-01 -7.90426657e-02
    -2.84721591e-02]
   [ 1.82805602e-02 -1.01653792e-01 -2.08733499e-01 -1.64617658e-01
    -6.50114641e-02]
   [ 6.38030563e-03 -8.11118633e-02 -1.81412667e-01 -1.49863064e-01
    -4.30535153e-02]
   [ 1.75232999e-02 -2.52263714e-03 -3.49103995e-02 -3.95401232e-02
     4.24347399e-03]]]


 [[[-2.88936030e-02 -4.67845276e-02 -5.84676228e-02 -3.95213962e-02
    -6.62669688e-02]
   [-3.52594964e-02 -8.17655846e-02 -1.38775140e-01 -1.20480597e-01
    -4.50379178e-02]
   [ 1.20055256e-02 -9.78542417e-02 -2.21445277e-01 -1.53781623e-01
    -4.88369092e-02]
   [ 2.99437884e-02 -1.00793079e-01 -1.88674331e-01 -1.13809414e-01
    -2.48930976e-02]
   [-1.28467698e-02 -2.16369741e-02 -5.15959002e-02 -1.67521369e-02
     1.16079189e-02]]]


 [[[-2.27120388e-02  8.80763959e-03  3.57788987e-02  2.77615022e-02
    -2.39540953e-02]
   [-1.22135133e-02  4.18792628e-02  9.78893265e-02  7.61785582e-02
    -4.70776251e-03]
   [ 1.89614743e-02  9.07066762e-02  1.97030693e-01  2.08763480e-01
     4.93479930e-02]
   [ 9.91768483e-03  5.88905104e-02  1.88528121e-01  1.87736392e-01
     4.85988967e-02]
   [-1.72552895e-02  8.90914723e-03  6.59702867e-02  7.39801750e-02
    -1.90587528e-02]]]


 [[[ 5.98379737e-03  1.77893862e-02  5.86167490e-03  3.44360154e-03
     2.65553240e-02]
   [-7.68173719e-03 -5.15899584e-02 -1.21959135e-01 -9.61585715e-02
    -1.43131251e-02]
   [-2.80969199e-02 -1.34067997e-01 -2.50415117e-01 -2.01813951e-01
    -4.85687964e-02]
   [-2.43745074e-02 -1.01379648e-01 -1.98705316e-01 -1.86655685e-01
    -4.18160073e-02]
   [ 8.95436667e-03 -2.30592825e-02 -5.01371436e-02 -6.02655783e-02
     2.77461484e-02]]]


 [[[ 1.02285817e-02 -1.20734684e-02 -6.31361902e-02 -3.78334634e-02
     2.58769151e-02]
   [-1.30947391e-02 -5.22207133e-02 -1.23321459e-01 -9.15906206e-02
    -2.03324705e-02]
   [-4.57342640e-02 -1.12113453e-01 -1.56866327e-01 -1.34436578e-01
    -7.81867579e-02]
   [-5.55087887e-02 -9.04392004e-02 -1.47511661e-01 -1.28893122e-01
    -7.58033693e-02]
   [-1.62253454e-02 -2.84000225e-02 -9.38726664e-02 -8.04397166e-02
    -9.67505388e-03]]]


 [[[ 1.86222438e-02 -2.05613105e-04 -1.64332427e-02  1.97369559e-03
     3.48700508e-02]
   [-1.71275460e-03 -4.88271378e-02 -1.12604029e-01 -9.01020318e-02
    -6.17881492e-03]
   [-3.67510691e-02 -1.10665068e-01 -1.92647174e-01 -1.61036968e-01
    -5.42492904e-02]
   [-1.51707521e-02 -8.87664855e-02 -1.67523250e-01 -1.53635859e-01
    -4.51942943e-02]
   [ 1.10037788e-03 -3.15205902e-02 -7.25922436e-02 -5.00794500e-02
     8.14701989e-03]]]


 [[[-2.52361521e-02  6.11257786e-03  5.23536541e-02  2.56815348e-02
    -3.35935391e-02]
   [ 6.59389328e-03  1.09884493e-01  1.39393851e-01  1.05453625e-01
     4.63538393e-02]
   [ 3.55088972e-02  1.21928178e-01  2.16279298e-01  2.11622804e-01
     7.20537454e-02]
   [-1.07694678e-02  4.53349985e-02  1.67987213e-01  1.53297976e-01
     1.42149748e-02]
   [-4.02586646e-02 -1.48254456e-02  3.80854122e-02  1.52742472e-02
    -4.17122282e-02]]]


 [[[-1.57282148e-02 -8.43397062e-03 -7.01738745e-02 -6.24821484e-02
    -2.52284613e-02]
   [-6.80973427e-03 -6.24457598e-02 -1.33089066e-01 -1.04431257e-01
    -9.16122366e-03]
   [-2.64210999e-03 -8.91292095e-02 -1.37590304e-01 -1.41521931e-01
    -5.38977459e-02]
   [-2.90182941e-02 -7.83897042e-02 -1.56594947e-01 -1.56203762e-01
    -5.08452132e-02]
   [-2.35766498e-03 -5.49477153e-02 -1.20780364e-01 -1.02381758e-01
    -3.00192162e-02]]]


 [[[ 1.38554256e-02 -1.20430952e-02 -4.13135029e-02 -3.82132344e-02
     6.56079617e-04]
   [-5.35524916e-03 -7.03279153e-02 -1.47580415e-01 -1.10242352e-01
    -2.61468589e-02]
   [-4.25420552e-02 -1.32667571e-01 -2.22329348e-01 -1.96691334e-01
    -9.01573822e-02]
   [-1.90885104e-02 -1.07634224e-01 -2.11952597e-01 -1.98376313e-01
    -6.82482719e-02]
   [ 2.80543752e-02 -5.31822629e-03 -8.73920694e-02 -7.11095706e-02
     1.48119247e-02]]]


 [[[-2.37443857e-02 -2.41686236e-02  1.88579503e-03 -3.72103155e-02
    -1.58056524e-02]
   [-5.60123213e-02 -8.36581215e-02 -1.34454101e-01 -1.10447474e-01
    -3.13836671e-02]
   [-1.94214750e-02 -1.40399188e-01 -2.04783484e-01 -1.61322266e-01
    -6.04761504e-02]
   [-3.42444852e-02 -1.01279087e-01 -1.68298736e-01 -1.39790460e-01
    -5.91660365e-02]
   [-3.86661142e-02 -5.26486039e-02 -5.11393286e-02 -7.20424503e-02
    -3.51877064e-02]]]


 [[[-5.95619250e-03  1.32899666e-02  7.54729882e-02  4.81504500e-02
     3.22686061e-02]
   [ 2.73182876e-02 -2.69246567e-02 -1.85611565e-02 -3.25355381e-02
    -9.68109351e-03]
   [ 9.14415047e-02 -3.02328616e-02 -3.12849879e-01 -2.06551313e-01
    -2.77841203e-02]
   [ 6.90720379e-02 -4.29674983e-02 -1.92762256e-01 -1.42028734e-01
     3.24167423e-02]
   [ 4.92996350e-02 -1.44981090e-02 -9.05782264e-03 -2.31461022e-02
     3.91708128e-02]]]


 [[[-2.82855220e-02  1.26739210e-02 -2.96278261e-02 -2.63270531e-02
    -2.95426277e-03]
   [-1.81564428e-02 -6.57880977e-02 -1.44946262e-01 -1.08611286e-01
    -1.89737994e-02]
   [-5.52290641e-02 -1.24595657e-01 -2.34364301e-01 -2.01309279e-01
    -7.55590796e-02]
   [ 4.88831894e-03 -7.70709291e-02 -1.73751593e-01 -1.70489520e-01
    -2.98802406e-02]
   [ 6.91755349e-03  1.84778944e-02 -5.48731461e-02 -2.40506399e-02
     1.99655443e-02]]]


 [[[ 3.43424664e-03 -2.47125402e-02 -6.92624822e-02 -5.28090037e-02
     4.09654388e-03]
   [-1.11998441e-02 -6.99419081e-02 -1.34899884e-01 -1.01812124e-01
    -4.55847345e-02]
   [-5.78867570e-02 -1.00615129e-01 -1.68632224e-01 -1.44187376e-01
    -7.71191269e-02]
   [-4.69587334e-02 -6.51465282e-02 -1.43646002e-01 -1.37244731e-01
    -5.72521761e-02]
   [ 1.67650990e-02 -3.88198458e-02 -8.54736194e-02 -8.02108273e-02
    -1.87536329e-02]]]


 [[[-3.89052890e-02 -1.39975045e-02  1.21362172e-02  2.78723817e-02
    -1.77255664e-02]
   [ 1.94380712e-02  4.19153608e-02  1.08314149e-01  9.98121724e-02
     2.80098449e-02]
   [ 5.24775833e-02  1.33547932e-01  1.88244119e-01  1.72628999e-01
     1.00742832e-01]
   [ 3.01814880e-02  1.09619468e-01  1.71649098e-01  1.78343713e-01
     8.76389220e-02]
   [-1.07252281e-02  3.78193259e-02  7.74869472e-02  8.25554579e-02
     2.61749607e-02]]]


 [[[ 4.85693477e-02  3.10590230e-02 -4.67517227e-03  1.34361349e-02
     3.12603973e-02]
   [ 1.61135606e-02 -2.95862574e-02 -1.07852899e-01 -6.97188675e-02
    -1.00676995e-02]
   [-4.19926569e-02 -1.09438866e-01 -1.73917308e-01 -1.64924532e-01
    -9.92861390e-02]
   [-4.36791070e-02 -1.04283772e-01 -1.66998699e-01 -1.60729885e-01
    -8.07146579e-02]
   [ 7.34087452e-03 -2.78010964e-02 -1.12272374e-01 -8.70637819e-02
    -5.42081101e-03]]]


 [[[ 5.09029580e-03  7.60036986e-03 -2.11612135e-03  6.42816210e-03
     2.64181532e-02]
   [-2.00266880e-03 -6.21771887e-02 -1.40583754e-01 -9.18725953e-02
    -1.45006692e-02]
   [-2.76973639e-02 -1.48089156e-01 -2.28834555e-01 -1.72989741e-01
    -6.81171641e-02]
   [-1.05137229e-02 -9.71142426e-02 -1.98726073e-01 -1.61172748e-01
    -4.12680842e-02]
   [ 3.46785113e-02  1.83937373e-03 -1.13538623e-01 -8.19742158e-02
     2.12980602e-02]]]


 [[[ 1.68499853e-02 -2.21900526e-03 -2.95196883e-02 -3.47669683e-02
     1.30221192e-02]
   [ 3.04821506e-03 -7.46269822e-02 -1.30908832e-01 -1.22039214e-01
    -1.88744087e-02]
   [-9.59262159e-03 -1.10278010e-01 -2.02176854e-01 -1.88993320e-01
    -5.88346459e-02]
   [-1.31277693e-02 -1.02634631e-01 -2.00566545e-01 -2.11994678e-01
    -6.42298982e-02]
   [ 3.52603309e-02 -1.94246322e-02 -7.46185333e-02 -1.12160809e-01
     1.55016268e-02]]]


 [[[ 1.21139390e-02 -2.13844292e-02 -3.20631750e-02 -3.73286642e-02
    -5.76833030e-03]
   [-2.13482566e-02 -6.63232803e-02 -1.41823724e-01 -1.03126690e-01
    -4.70720232e-02]
   [-4.04260121e-03 -1.18701145e-01 -1.68895662e-01 -1.53306603e-01
    -8.59771520e-02]
   [-2.78278999e-02 -9.65330750e-02 -1.33648813e-01 -1.53097078e-01
    -7.94182569e-02]
   [ 2.28265673e-02 -4.55093011e-02 -6.86370432e-02 -7.53372982e-02
    -1.95131283e-02]]]


 [[[ 1.65062828e-03 -1.97963770e-02 -5.04115596e-02 -2.20849663e-02
     1.31583994e-03]
   [-4.75567393e-03 -5.97727858e-02 -8.44063014e-02 -8.86566713e-02
    -9.76259937e-04]
   [-3.84250507e-02 -1.23091206e-01 -1.62059516e-01 -1.42625883e-01
    -6.14054054e-02]
   [-8.56519304e-03 -7.28401169e-02 -1.68944478e-01 -1.46751374e-01
    -4.35216464e-02]
   [ 2.02183314e-02 -2.73901653e-02 -9.90100279e-02 -6.86514154e-02
    -1.08133992e-02]]]


 [[[-8.90491810e-03 -9.55679920e-03 -1.17362468e-02  4.13151400e-04
    -1.45414995e-03]
   [ 7.22770719e-03 -5.88531792e-02 -1.16430923e-01 -8.60535949e-02
    -2.01878008e-02]
   [ 2.05814857e-02 -1.08202137e-01 -2.43507132e-01 -2.04962149e-01
    -3.31664085e-02]
   [ 1.54499263e-02 -8.77949670e-02 -1.99636742e-01 -1.90615267e-01
    -2.83176098e-02]
   [-1.19271432e-03 -1.10380473e-02 -8.83812085e-03 -1.00678140e-02
    -1.76138561e-02]]]


 [[[ 1.15287481e-02 -2.20096041e-03 -3.88642922e-02 -2.33172178e-02
     1.64608099e-02]
   [ 1.78305283e-02 -4.80255932e-02 -1.52045920e-01 -1.03723109e-01
    -9.09484550e-03]
   [-5.56686753e-03 -1.00810662e-01 -1.94650963e-01 -1.75683677e-01
    -5.28861471e-02]
   [-1.17291207e-03 -8.26764330e-02 -1.74413651e-01 -1.67769805e-01
    -5.41440621e-02]
   [ 4.38029654e-02 -2.55845045e-03 -7.65213445e-02 -6.78498000e-02
     3.81727181e-02]]]


 [[[ 6.73422590e-03  2.06799130e-03 -1.94962863e-02  1.10497000e-02
     2.25059818e-02]
   [ 1.85193811e-02 -4.89875525e-02 -1.29798353e-01 -9.02508125e-02
    -4.58338484e-03]
   [-4.06686738e-02 -1.19427189e-01 -1.88015938e-01 -1.72832012e-01
    -7.94534534e-02]
   [-2.36455188e-03 -9.89293233e-02 -1.96931556e-01 -1.91430137e-01
    -5.74507788e-02]
   [ 4.39213701e-02 -3.26997004e-02 -9.83542278e-02 -6.27026558e-02
     2.46764068e-02]]]


 [[[ 1.47317611e-02  1.73178948e-02 -2.96711847e-02 -1.24884695e-02
     2.02477854e-02]
   [ 4.57087671e-03 -3.87885533e-02 -1.02212973e-01 -9.91406664e-02
    -2.24134186e-04]
   [-3.27691808e-02 -1.13101356e-01 -2.15772420e-01 -1.91283345e-01
    -6.31665587e-02]
   [-1.02307331e-02 -6.31877854e-02 -1.93612233e-01 -1.76127911e-01
    -4.39084880e-02]
   [ 3.68204378e-02 -6.49480941e-03 -8.31257552e-02 -6.02197386e-02
     2.76514813e-02]]]


 [[[-6.96025277e-03 -1.07834730e-02 -2.50556525e-02 -1.26531022e-02
    -1.68166030e-02]
   [-2.59511452e-02 -7.15379566e-02 -1.35989204e-01 -1.01943359e-01
    -3.71722952e-02]
   [-2.95767635e-02 -1.09912515e-01 -1.72239199e-01 -1.62479088e-01
    -7.28169158e-02]
   [-3.76653229e-03 -8.35206732e-02 -1.70085162e-01 -1.59861758e-01
    -7.18078837e-02]
   [ 3.04570030e-02 -5.57959173e-03 -5.89646697e-02 -4.57178466e-02
     1.91562977e-02]]]


 [[[-2.93380028e-04 -2.08211634e-02 -7.16148829e-03 -1.94782969e-02
     6.81160484e-03]
   [-2.21680254e-02 -7.70566687e-02 -9.85800549e-02 -8.21613371e-02
    -1.88894924e-02]
   [-6.62909299e-02 -9.56025571e-02 -1.32345170e-01 -1.52395949e-01
    -7.33464509e-02]
   [-6.17299825e-02 -1.02335401e-01 -1.51792750e-01 -1.29290566e-01
    -7.84796476e-02]
   [-2.09831428e-02 -3.50539610e-02 -7.55060762e-02 -8.32337737e-02
    -2.38960255e-02]]]


 [[[-9.42070503e-03 -8.06814642e-04 -3.91328102e-03 -1.44778257e-02
    -1.94320101e-02]
   [-1.05142463e-02  5.31986840e-02  8.80989358e-02  7.73439258e-02
     1.05771571e-02]
   [ 2.81058229e-03  8.90269578e-02  2.06322640e-01  1.70939758e-01
     4.97419722e-02]
   [ 1.46801975e-02  8.63838792e-02  1.88647673e-01  1.85133800e-01
     4.36992422e-02]
   [-7.60097895e-03  2.06089728e-02  5.81550039e-02  3.84980142e-02
    -7.58866686e-03]]]


 [[[ 1.38718570e-02  4.57033515e-02  7.23642483e-02  5.67029603e-02
     9.33537818e-03]
   [ 2.73075141e-02  1.14258744e-01  1.55416608e-01  1.45331621e-01
     4.74931896e-02]
   [ 4.41866517e-02  1.22469045e-01  2.07377583e-01  1.82300851e-01
     8.62080008e-02]
   [ 1.08230272e-02  5.23975901e-02  1.44938961e-01  1.34592101e-01
     2.03632377e-02]
   [-1.88061944e-03 -3.35593969e-02  4.66178022e-02  1.88445933e-02
    -4.01411988e-02]]]


 [[[-1.17076200e-03 -7.05032749e-03  1.33244097e-02  2.53181923e-02
    -2.43881810e-02]
   [ 2.15123128e-02  3.51228528e-02  7.33696222e-02  8.82921964e-02
     2.51124185e-02]
   [ 1.58206448e-02  9.33290049e-02  2.46188834e-01  1.68679208e-01
     6.79492503e-02]
   [ 1.00918952e-02  9.57302675e-02  1.71299607e-01  1.38884440e-01
     3.93883176e-02]
   [-2.45942883e-02  2.09762342e-03  3.01960632e-02  5.49313687e-02
    -6.04145974e-03]]]


 [[[ 1.42205311e-02 -8.61982349e-03 -4.78169955e-02 -2.91514304e-02
     1.67538729e-02]
   [-2.20733825e-02 -6.08272366e-02 -1.26419455e-01 -9.51999575e-02
    -2.93922555e-02]
   [-4.78985868e-02 -1.17320120e-01 -1.51877165e-01 -1.45157546e-01
    -7.79033750e-02]
   [-3.37560624e-02 -9.82477292e-02 -1.61146030e-01 -1.56228706e-01
    -6.88797310e-02]
   [ 1.97442267e-02 -3.32058072e-02 -9.94929597e-02 -8.75652432e-02
     6.38506562e-03]]]


 [[[ 1.79976900e-03  1.31907007e-02  8.85450654e-03 -2.34425161e-03
     3.16478341e-04]
   [-2.37330217e-02 -6.45661876e-02 -8.11273307e-02 -9.28393677e-02
    -2.40040347e-02]
   [-6.78459480e-02 -1.20503403e-01 -1.47703379e-01 -1.55129597e-01
    -1.04792662e-01]
   [-8.35391805e-02 -1.16112612e-01 -1.56556547e-01 -1.66102946e-01
    -1.27980307e-01]
   [-1.20577589e-02 -5.19296117e-02 -6.94161430e-02 -8.30867887e-02
    -3.75278182e-02]]]


 [[[ 9.52546299e-03  1.28634162e-02 -3.24180573e-02 -3.91368493e-02
     2.47050803e-02]
   [ 2.06828467e-03 -5.85853457e-02 -1.25984713e-01 -1.11676395e-01
    -2.83230431e-02]
   [-1.30193708e-02 -1.10606395e-01 -1.76914647e-01 -1.60877645e-01
    -8.02094340e-02]
   [-1.18357716e-02 -7.22777620e-02 -1.64514422e-01 -1.49758339e-01
    -6.51314929e-02]
   [ 8.35307129e-03  3.64806876e-03 -8.28344151e-02 -5.89701682e-02
     7.73489242e-03]]]


 [[[-2.76431739e-02 -3.80420275e-02 -5.40111177e-02 -6.73256069e-02
    -4.00117226e-02]
   [-1.93031821e-02 -6.56288192e-02 -7.59136826e-02 -5.63471429e-02
    -5.10191470e-02]
   [-5.02505749e-02 -8.69326293e-02 -7.84450769e-02 -9.35013518e-02
    -5.43573610e-02]
   [-3.95134278e-02 -6.51101023e-02 -7.69484490e-02 -1.04612052e-01
    -3.45046893e-02]
   [-8.02382827e-03 -2.75071226e-02 -6.95841163e-02 -5.56217618e-02
    -1.99060179e-02]]]


 [[[-8.94927513e-03 -1.40580041e-02  1.98323280e-02  7.59382674e-04
    -1.08299870e-02]
   [ 6.56685280e-03  4.21482399e-02  1.08605951e-01  8.81974250e-02
     4.33811499e-03]
   [ 2.62311213e-02  1.19829737e-01  1.92214713e-01  1.92645445e-01
     6.15411140e-02]
   [-1.42460279e-02  8.82517472e-02  1.81939349e-01  1.74561322e-01
     2.63791941e-02]
   [-2.12425850e-02  1.85550340e-02  8.16350728e-02  5.15808091e-02
    -1.65538676e-02]]]


 [[[ 1.95232555e-02  2.09926553e-02  1.32031636e-02  2.24076747e-03
     2.21846141e-02]
   [ 4.99793934e-03 -5.25718182e-02 -8.75268653e-02 -6.04283810e-02
    -3.78921890e-04]
   [-2.48324312e-02 -9.57346857e-02 -1.64140195e-01 -1.63344473e-01
    -7.21828789e-02]
   [-3.96117382e-02 -1.05016053e-01 -1.78805262e-01 -1.74830332e-01
    -7.69960359e-02]
   [ 1.10496804e-02 -4.69082743e-02 -1.02348775e-01 -8.94630700e-02
    -1.81047060e-02]]]


 [[[-2.00477112e-02 -1.80230569e-02 -5.23084886e-02 -4.95044515e-02
    -6.93669124e-03]
   [ 1.12896580e-02 -1.01730585e-01 -1.28231511e-01 -1.13431819e-01
    -5.07092029e-02]
   [-5.06968237e-03 -1.22029573e-01 -1.78938538e-01 -1.71757296e-01
    -7.90179968e-02]
   [-1.66737270e-02 -1.05102077e-01 -1.44210115e-01 -1.47342369e-01
    -7.95468837e-02]
   [ 1.65116824e-02 -3.62129547e-02 -7.88883120e-02 -6.65601119e-02
    -3.00663300e-02]]]


 [[[ 3.43589881e-03  4.67472486e-02  4.75779362e-02  3.55860554e-02
     2.54750997e-02]
   [ 2.02266090e-02  8.10017660e-02  1.91382363e-01  1.56525552e-01
     6.13581799e-02]
   [ 9.17675719e-03  7.17685372e-02  1.84508517e-01  1.79801404e-01
     4.70658764e-02]
   [-3.58654410e-02  1.62597150e-02  1.37398154e-01  9.92651805e-02
    -9.44478903e-03]
   [-2.38410980e-02 -3.02343611e-02 -1.14279157e-02 -2.58252509e-02
    -2.99126897e-02]]]


 [[[ 8.43324047e-03  3.92432278e-03  6.68352172e-02  4.08653617e-02
    -1.89548149e-03]
   [ 6.85788551e-03  7.36562163e-02  1.26676157e-01  1.03887156e-01
     4.73775528e-02]
   [ 3.80903147e-02  1.08917199e-01  1.96332946e-01  2.09379673e-01
     8.19047913e-02]
   [ 2.74309563e-03  4.55316082e-02  1.72478542e-01  1.71722904e-01
     1.23265237e-02]
   [-4.07947302e-02 -3.65970209e-02  2.56666075e-02  3.02123595e-02
    -3.56976390e-02]]]


 [[[ 8.02508555e-03 -1.33902682e-02 -1.66895669e-02 -1.71100441e-02
    -1.24918092e-02]
   [-8.69124662e-03 -6.43678457e-02 -1.17970012e-01 -9.34834927e-02
    -3.02664097e-02]
   [-2.69325636e-02 -1.04567304e-01 -1.74185514e-01 -1.54416114e-01
    -6.09949678e-02]
   [-2.49275602e-02 -1.16393194e-01 -1.59085721e-01 -1.63538665e-01
    -7.16216788e-02]
   [ 1.58929231e-03 -4.41087745e-02 -8.60940665e-02 -6.42380491e-02
    -2.34834589e-02]]]


 [[[ 1.51309436e-02  1.82697037e-03  3.00162025e-02  1.86558198e-02
    -8.72830208e-03]
   [ 8.50030780e-03  8.41872767e-02  1.26515910e-01  8.88710991e-02
     2.47891359e-02]
   [ 4.03958671e-02  1.19870558e-01  1.81503549e-01  1.80132702e-01
     6.97953850e-02]
   [ 2.52446588e-02  8.56107101e-02  1.84592396e-01  1.76806018e-01
     5.84860295e-02]
   [-1.64013430e-02  1.42438663e-02  8.67844000e-02  6.39116243e-02
    -7.10843690e-03]]]


 [[[ 2.87953280e-02 -6.16948912e-03 -3.18842009e-02 -1.26451775e-02
     2.45141611e-02]
   [-6.68687094e-03 -4.12947200e-02 -1.04723468e-01 -1.08934440e-01
    -1.63952168e-02]
   [-6.57488778e-02 -1.20938502e-01 -1.95104584e-01 -1.76182210e-01
    -9.59991366e-02]
   [-4.72425595e-02 -9.45336893e-02 -1.73288196e-01 -1.69974715e-01
    -8.68763402e-02]
   [ 4.23235167e-03  9.42707434e-03 -4.13381346e-02 -4.22001444e-02
     6.79154508e-03]]]


 [[[-3.12800556e-02 -1.60938837e-02 -4.74330634e-02 -4.85041514e-02
    -3.46315131e-02]
   [-4.16020229e-02 -1.04477935e-01 -1.56848580e-01 -1.39452547e-01
    -3.93033177e-02]
   [-7.84159824e-03 -9.65648592e-02 -1.85668007e-01 -1.48122191e-01
    -7.11182654e-02]
   [-3.23202386e-02 -8.30192044e-02 -1.40439942e-01 -1.32639423e-01
    -4.25339565e-02]
   [-1.95553992e-02 -6.30563498e-02 -7.71889240e-02 -6.78618476e-02
    -3.27923596e-02]]]


 [[[ 8.96058511e-03 -1.23856571e-02  2.00179275e-02  1.82593353e-02
     4.07436583e-03]
   [-2.18730271e-02 -6.34795353e-02 -6.10746592e-02 -6.42132610e-02
    -1.86800342e-02]
   [-7.00406730e-02 -1.18308671e-01 -1.24339193e-01 -1.27470434e-01
    -9.95918885e-02]
   [-8.47445130e-02 -1.14640310e-01 -1.23198040e-01 -1.18292592e-01
    -9.13294703e-02]
   [-2.42045689e-02 -6.33805171e-02 -5.95910177e-02 -4.27707434e-02
    -1.25952885e-02]]]


 [[[-1.66621301e-02  7.84450769e-03  2.94396747e-02  1.46340486e-02
     5.72805805e-03]
   [-3.93243320e-03  6.08352534e-02  1.28937095e-01  9.45617929e-02
     3.57987769e-02]
   [-1.84851848e-02  1.17951013e-01  2.07757145e-01  1.60838112e-01
     5.76131269e-02]
   [-1.62649131e-03  7.54527226e-02  1.86298802e-01  1.59379587e-01
     4.80058715e-02]
   [-2.77292752e-03  3.54647934e-02  6.30949810e-02  6.94183037e-02
     1.79220643e-02]]]


 [[[-2.57951766e-02 -5.35258912e-02 -9.61503237e-02 -5.11389375e-02
    -2.46107075e-02]
   [-3.76472846e-02 -1.10634238e-01 -1.49629608e-01 -1.24066129e-01
    -6.86063319e-02]
   [-4.71356772e-02 -1.41896188e-01 -1.93311021e-01 -1.75518379e-01
    -6.42303303e-02]
   [-2.52290163e-02 -8.57174024e-02 -1.26539737e-01 -1.09978698e-01
    -3.22188362e-02]
   [ 4.77306684e-03 -3.07010114e-03 -8.19216482e-03 -1.48004610e-02
     1.54778706e-02]]]


 [[[-1.25441253e-02 -5.10671735e-03 -4.78275083e-02 -4.39036749e-02
     1.17579410e-02]
   [-1.56798377e-03 -5.87239489e-02 -1.15294471e-01 -7.95641989e-02
     1.20183569e-03]
   [-4.47878130e-02 -9.92327705e-02 -1.54899508e-01 -1.67660594e-01
    -5.91320135e-02]
   [-3.42071354e-02 -9.59013626e-02 -1.80721790e-01 -1.85073942e-01
    -6.12783991e-02]
   [ 8.11085757e-03 -1.94091275e-02 -8.76194388e-02 -8.62599090e-02
     6.40377263e-03]]]


 [[[ 1.84765272e-02  5.75384777e-03 -3.60551625e-02 -1.96721181e-02
     6.37157634e-03]
   [ 2.20147520e-03 -5.23257032e-02 -1.07473731e-01 -8.68481547e-02
    -1.56238396e-02]
   [-3.95582020e-02 -9.94047597e-02 -1.47405937e-01 -1.32899702e-01
    -6.29249290e-02]
   [-3.54298986e-02 -8.10670853e-02 -1.55956507e-01 -1.45897001e-01
    -6.39894903e-02]
   [ 2.39165071e-02 -2.30585691e-02 -9.97912213e-02 -9.16262418e-02
    -7.01854052e-03]]]


 [[[-6.78256201e-03  6.81769382e-03  3.66209261e-02  1.22879792e-04
    -3.12144607e-02]
   [-7.78054725e-03  4.68276702e-02  1.11896262e-01  8.73843580e-02
     7.15127308e-03]
   [ 1.17881792e-02  1.04291394e-01  1.79984301e-01  1.77525878e-01
     5.60491197e-02]
   [ 2.68129371e-02  7.68890902e-02  1.81989789e-01  1.75784409e-01
     4.05774638e-02]
   [-2.94938348e-02  7.59639358e-03  8.14045668e-02  6.27229437e-02
    -2.02582199e-02]]]


 [[[ 1.19644757e-02 -1.90873409e-03  8.92219320e-03  2.25603245e-02
     1.59888472e-02]
   [ 7.57509423e-03 -5.28635085e-02 -1.17252693e-01 -7.93865770e-02
     9.07364395e-03]
   [-2.72848792e-02 -1.12164482e-01 -1.80875197e-01 -1.61209211e-01
    -4.71611619e-02]
   [-4.60880995e-02 -7.18750283e-02 -1.86000109e-01 -1.71352267e-01
    -6.56868443e-02]
   [-2.24737525e-02 -1.80371497e-02 -7.65164942e-02 -5.88604175e-02
    -1.40957697e-03]]]


 [[[ 1.60363354e-02 -2.38237646e-03 -1.61079410e-02 -1.46995755e-02
    -8.19856953e-03]
   [-8.33550282e-03 -4.69365828e-02 -7.11212754e-02 -9.23376009e-02
    -3.03548574e-02]
   [-3.35843191e-02 -9.55191851e-02 -1.48880228e-01 -1.44335940e-01
    -6.59056678e-02]
   [-4.03170511e-02 -1.04504548e-01 -1.42484307e-01 -1.35391191e-01
    -9.51465741e-02]
   [-1.93318930e-02 -2.87868213e-02 -9.46391672e-02 -8.93492922e-02
    -3.14457752e-02]]]


 [[[-1.93896387e-02 -3.77358161e-02 -4.10492755e-02 -2.51074284e-02
    -4.05290572e-04]
   [-1.93485357e-02 -1.03647701e-01 -1.44499555e-01 -1.11069269e-01
    -5.47457039e-02]
   [-2.86975447e-02 -1.01586334e-01 -1.55006096e-01 -1.34486809e-01
    -8.05422589e-02]
   [-2.37428620e-02 -8.04588795e-02 -1.43195495e-01 -1.26583710e-01
    -5.56751564e-02]
   [ 4.45089536e-03 -1.70369744e-02 -5.79828881e-02 -4.84968126e-02
     4.44741827e-03]]]


 [[[ 1.42967876e-03 -1.70078948e-02 -6.38418877e-03 -3.02844904e-02
    -8.74903344e-04]
   [-2.46589109e-02 -5.37610874e-02 -9.99501199e-02 -8.68863240e-02
    -3.46675552e-02]
   [ 7.48753548e-03 -9.99445021e-02 -1.61638826e-01 -1.51004955e-01
    -8.21457654e-02]
   [-3.42320055e-02 -9.71172526e-02 -1.33878827e-01 -1.46783292e-01
    -7.58092552e-02]
   [ 2.24449057e-02 -2.87431329e-02 -5.91199994e-02 -9.07375962e-02
    -2.92101596e-02]]]


 [[[ 3.25532928e-02  1.96313970e-02  2.45810971e-02  7.96071813e-03
    -1.12154186e-02]
   [ 2.25602482e-02  7.48157203e-02  1.07619338e-01  8.22699517e-02
     6.21757330e-03]
   [ 2.65606903e-02  1.31868571e-01  2.12048337e-01  1.94530398e-01
     6.71642721e-02]
   [ 1.89488358e-03  7.96959996e-02  1.87548637e-01  1.46515280e-01
     3.16886194e-02]
   [ 4.44758451e-03  3.88791109e-03  6.68694302e-02  5.98568022e-02
    -3.29178870e-02]]]


 [[[-5.23532629e-02 -6.91714212e-02 -1.09873936e-02  7.08177174e-03
    -2.76765432e-02]
   [-2.89693549e-02 -5.42198569e-02 -3.33995856e-02  7.53388973e-03
    -2.34683026e-02]
   [-1.21265903e-01 -1.02166899e-01 -7.15845451e-02 -7.93654099e-03
    -2.82594692e-02]
   [-5.47597520e-02 -5.31420112e-02 -4.58113253e-02 -1.34369358e-03
     9.77976061e-03]
   [-4.12540287e-02 -4.62573990e-02 -9.22758430e-02 -6.11901470e-02
    -3.31214033e-02]]]


 [[[-3.04478500e-02 -2.95381956e-02 -6.23837532e-03 -3.22260410e-02
    -3.09645869e-02]
   [-4.77445265e-03  2.51993742e-02  7.09104612e-02  4.51534390e-02
    -1.52364764e-02]
   [ 1.14350002e-02  9.69143137e-02  1.80490166e-01  1.42801777e-01
     5.13599068e-02]
   [ 1.27950823e-03  8.63303766e-02  1.99791804e-01  1.91491887e-01
     4.75420319e-02]
   [ 2.16996707e-02  4.98818122e-02  6.71278834e-02  8.14169869e-02
     1.88388545e-02]]]


 [[[-1.82526615e-02 -3.83314979e-03 -3.97372507e-02 -2.75694672e-02
     9.11048893e-03]
   [-3.24815735e-02 -7.24705830e-02 -9.42222774e-02 -7.83406645e-02
    -3.69984843e-02]
   [-7.97340125e-02 -1.03758305e-01 -1.32969826e-01 -1.07035659e-01
    -9.89269316e-02]
   [-7.11335838e-02 -1.01733290e-01 -1.34312853e-01 -1.18044488e-01
    -9.88004655e-02]
   [-2.14986373e-02 -2.13085860e-02 -6.86283857e-02 -8.83678421e-02
    -2.49843691e-02]]]


 [[[-4.06693704e-02 -3.11717242e-02  8.63891561e-03 -1.41425235e-02
    -3.61990705e-02]
   [ 3.44587979e-03  5.64988628e-02  1.04604259e-01  9.18237567e-02
     3.16958465e-02]
   [ 1.81362443e-02  1.08960398e-01  1.76533386e-01  1.75144196e-01
     7.48890191e-02]
   [ 5.00908727e-03  7.71869272e-02  1.50696918e-01  1.74075261e-01
     6.33772537e-02]
   [-2.36027017e-02  1.70829110e-02  6.39172867e-02  4.06855494e-02
    -3.77935707e-03]]]


 [[[-4.66227457e-02 -6.90484839e-03  3.30348645e-04 -1.07292989e-02
     2.81800819e-03]
   [-2.59324126e-02 -5.41327223e-02 -1.03870220e-01 -8.83420706e-02
    -4.41660993e-02]
   [-3.74595001e-02 -1.16404958e-01 -2.03219250e-01 -1.56607747e-01
    -6.08580299e-02]
   [-2.10355897e-03 -8.75577256e-02 -1.80657715e-01 -1.62702367e-01
    -4.89339679e-02]
   [ 1.76152401e-02 -1.48895765e-02 -6.88751191e-02 -5.88340461e-02
     1.19343763e-02]]]


 [[[-6.76047150e-03  1.02717876e-02  4.88602668e-02  4.36081886e-02
    -9.25213564e-03]
   [ 8.61203764e-03  4.02295776e-02  9.90186334e-02  8.03583264e-02
     4.23184149e-02]
   [ 5.64173460e-02  8.87693539e-02  1.43851563e-01  1.37663230e-01
     7.86863938e-02]
   [ 4.34447862e-02  7.90981054e-02  1.48063287e-01  1.43992007e-01
     7.31923059e-02]
   [ 1.02853924e-02  3.60979363e-02  8.04230720e-02  7.92685449e-02
     4.30876240e-02]]]


 [[[ 1.52043365e-02  2.13731788e-02  9.38151032e-03  2.42131427e-02
     4.05834466e-02]
   [ 2.23404653e-02 -4.42731753e-02 -1.08336575e-01 -6.82608038e-02
     1.09068546e-02]
   [-4.81613055e-02 -1.30007222e-01 -1.78051099e-01 -1.66802824e-01
    -7.13344514e-02]
   [-5.40680252e-02 -1.00470230e-01 -1.83034346e-01 -1.76015854e-01
    -6.71645999e-02]
   [-1.87770987e-03 -5.30992895e-02 -8.82765576e-02 -6.72791004e-02
     1.32458899e-02]]]


 [[[ 3.08097806e-02 -7.31857400e-03 -1.53072895e-02  1.40050601e-03
     3.23617347e-02]
   [-1.71762600e-03 -5.10040149e-02 -8.20745006e-02 -8.17235038e-02
    -2.42927019e-02]
   [-2.32172627e-02 -1.17676921e-01 -1.80880412e-01 -1.27882868e-01
    -7.23312572e-02]
   [-2.06536278e-02 -1.01178199e-01 -1.66013479e-01 -1.55193880e-01
    -5.47009706e-02]
   [ 3.48284747e-03 -2.58651227e-02 -7.83788934e-02 -8.45472217e-02
    -2.28114352e-02]]]


 [[[-2.13950593e-02 -5.48667274e-03  2.40526907e-03 -2.48256605e-03
    -2.01588999e-02]
   [-7.24918162e-03  5.48947453e-02  8.98500159e-02  5.61725795e-02
     6.09949371e-03]
   [ 1.36666428e-02  9.57258940e-02  1.99537113e-01  1.71075970e-01
     4.51405011e-02]
   [ 2.46114694e-02  7.65893310e-02  1.98995620e-01  1.87444136e-01
     3.36421169e-02]
   [ 2.23763902e-02  5.40759601e-02  8.72869417e-02  7.21529722e-02
     8.53860751e-03]]]


 [[[-2.88249925e-03 -5.12402412e-03 -5.96173890e-02 -1.91454906e-02
     1.35882935e-02]
   [-3.42713995e-03 -3.42199132e-02 -1.24128364e-01 -9.23126936e-02
    -8.06273054e-03]
   [-7.12968931e-02 -9.50074792e-02 -2.07624838e-01 -1.50202066e-01
    -4.99161147e-02]
   [-3.85134928e-02 -8.08902606e-02 -1.82166219e-01 -1.69254526e-01
    -6.34716675e-02]
   [ 1.54577745e-02 -1.18625667e-02 -9.40291062e-02 -8.40819776e-02
     2.26092972e-02]]]


 [[[ 4.34531039e-03 -1.44594014e-02 -5.87179400e-02 -4.36464697e-02
     1.09641124e-02]
   [-2.46566515e-02 -7.38060623e-02 -1.16510645e-01 -1.02796324e-01
    -3.07054538e-02]
   [-4.03843820e-02 -1.16563849e-01 -1.53247222e-01 -1.48803636e-01
    -7.47927055e-02]
   [-2.18072478e-02 -8.03781673e-02 -1.60733670e-01 -1.60350904e-01
    -5.60354069e-02]
   [ 2.89867185e-02 -2.62215771e-02 -9.46684778e-02 -8.57863650e-02
     4.57585678e-02]]]


 [[[-3.53608318e-02 -1.06793046e-02 -2.82353908e-03 -6.40642876e-03
    -3.11130825e-02]
   [ 1.55703351e-02  5.95601499e-02  9.72884968e-02  8.03004280e-02
     6.72812667e-03]
   [ 3.15868855e-02  1.21519320e-01  2.20521241e-01  1.93257138e-01
     5.84765635e-02]
   [-1.09221821e-03  8.98649544e-02  2.06066206e-01  1.68795422e-01
     4.35538329e-02]
   [-1.52152553e-02  7.65513582e-03  6.98218197e-02  5.59748337e-02
    -1.93674434e-02]]]


 [[[-1.31599810e-02  4.92166542e-03  2.74322201e-02  1.86134689e-02
    -1.17841288e-02]
   [ 1.29700114e-03  6.28187656e-02  1.24822460e-01  9.44578648e-02
     2.01719105e-02]
   [ 1.80139411e-02  1.15429647e-01  2.05797389e-01  1.88222751e-01
     5.02450727e-02]
   [ 1.47197098e-02  1.05785184e-01  1.74014762e-01  1.60860434e-01
     4.55509014e-02]
   [-2.42930814e-03  1.95939410e-02  7.47909546e-02  6.11210875e-02
     1.78336520e-02]]]


 [[[ 2.43637171e-02  1.04288757e-02 -3.01066320e-02 -4.06421460e-02
     2.89645456e-02]
   [ 3.22970413e-02 -4.14996743e-02 -1.10189706e-01 -9.16212276e-02
    -9.46350582e-03]
   [-4.19065654e-02 -9.59274173e-02 -1.57996684e-01 -1.61307022e-01
    -7.73680806e-02]
   [-2.06031483e-02 -8.88346061e-02 -1.52117833e-01 -1.54642880e-01
    -7.89363533e-02]
   [ 1.15746958e-02 -1.51332123e-02 -6.75875023e-02 -8.41457248e-02
    -7.75796873e-03]]]


 [[[ 5.44667840e-02  2.51730438e-02  4.04884927e-02  8.56354162e-02
     5.35224937e-02]
   [ 2.79931724e-03 -6.31816536e-02 -6.79699779e-02 -4.03378271e-02
    -2.47044209e-03]
   [-5.54519482e-02 -1.57573402e-01 -1.93994075e-01 -1.48364499e-01
    -9.23478156e-02]
   [-5.70789836e-02 -1.80511087e-01 -1.66057289e-01 -1.68378055e-01
    -1.31292433e-01]
   [-2.07524933e-02 -9.57411751e-02 -7.28823543e-02 -7.35840276e-02
    -4.45603803e-02]]]


 [[[-7.07754819e-03  1.32942991e-02  5.94144175e-03  1.17881466e-02
     8.91742238e-04]
   [ 3.75645305e-03  5.35770394e-02  6.75538629e-02  7.04242885e-02
     3.82670499e-02]
   [ 2.02372614e-02  8.82182196e-02  2.00003490e-01  1.71937659e-01
     5.36630005e-02]
   [ 1.32090067e-02  7.57192969e-02  1.70401186e-01  1.89596370e-01
     3.16702835e-02]
   [ 4.58876090e-03  4.19430733e-02  3.17768678e-02  3.60648334e-02
     1.75214354e-02]]]


 [[[-1.89229138e-02  2.48416606e-02  7.03019127e-02  4.70433161e-02
     5.49579831e-03]
   [-1.08104176e-03  7.57062063e-02  1.54006079e-01  1.13806315e-01
     3.43098752e-02]
   [-1.64516922e-03  1.20798685e-01  2.37540647e-01  1.87240794e-01
     7.09311217e-02]
   [-2.44929083e-02  6.47525266e-02  1.74584031e-01  1.62140176e-01
     4.72123176e-02]
   [-4.89393771e-02  9.22995526e-03  7.26898015e-02  5.64844012e-02
    -2.92362738e-02]]]


 [[[ 1.31480703e-02  1.40033662e-02 -4.18125093e-02 -1.30921640e-02
     3.65797579e-02]
   [-1.40703795e-02 -6.10363707e-02 -1.19430386e-01 -9.73822027e-02
    -1.59323774e-02]
   [-4.90035079e-02 -9.17936787e-02 -1.66008741e-01 -1.63836092e-01
    -7.69654512e-02]
   [-5.36184348e-02 -9.12454203e-02 -1.55585796e-01 -1.47716954e-01
    -6.61450028e-02]
   [-6.74152980e-03 -2.51215603e-02 -8.55626687e-02 -6.93356544e-02
     6.25770120e-03]]]


 [[[-2.58018859e-02  1.33400355e-02 -2.11759638e-02  2.21074661e-04
     7.54827168e-03]
   [ 1.21923275e-02 -6.68427022e-03  3.73947807e-02  2.87853703e-02
     2.36034449e-02]
   [ 3.53364903e-03  6.20304644e-02  2.59962648e-01  2.01199919e-01
     2.35805549e-02]
   [ 7.13955890e-03  4.33282256e-02  2.19673708e-01  2.12097496e-01
     3.67633775e-02]
   [ 4.06189542e-03  1.54626193e-02 -2.09172331e-02  2.11354494e-02
     1.65202678e-03]]]


 [[[-3.40848602e-02 -2.70565618e-02 -2.75584459e-02 -3.93663868e-02
    -2.74910890e-02]
   [-4.99311797e-02 -8.85098130e-02 -1.39159665e-01 -1.31866664e-01
    -6.50114864e-02]
   [-5.55447526e-02 -1.49235681e-01 -1.65676713e-01 -1.70375019e-01
    -9.43388119e-02]
   [-1.25301443e-02 -6.09811060e-02 -1.20302878e-01 -1.15705736e-01
    -7.39119053e-02]
   [ 2.43297778e-02 -3.45999561e-03 -2.67608352e-02 -2.73504425e-02
     1.90820396e-02]]]


 [[[ 2.02827179e-03 -1.71834901e-02 -5.42260669e-02 -2.83613224e-02
    -8.58899765e-03]
   [-2.09691189e-02 -6.61688894e-02 -1.00772329e-01 -8.61523524e-02
    -3.44253629e-02]
   [-5.30478843e-02 -1.13951862e-01 -1.48526400e-01 -1.48207411e-01
    -8.94457102e-02]
   [-4.30513285e-02 -9.64848846e-02 -1.40437648e-01 -1.34755030e-01
    -7.24056885e-02]
   [ 1.93118285e-02 -1.90984365e-02 -6.95352405e-02 -6.19474836e-02
    -1.86116602e-02]]]


 [[[-1.88035052e-02  1.85565368e-04  1.16229651e-03 -4.25722683e-03
    -3.52140591e-02]
   [ 1.47020696e-02  7.48583674e-02  1.21401131e-01  9.54923779e-02
     1.32034142e-02]
   [ 5.04962653e-02  1.14261627e-01  2.14053154e-01  1.72626168e-01
     6.14668503e-02]
   [ 3.38086933e-02  1.04931794e-01  1.83918983e-01  1.71312943e-01
     4.75086793e-02]
   [-3.38019035e-03  2.71230862e-02  8.59030187e-02  7.69413412e-02
     2.08096765e-03]]]


 [[[ 2.67458204e-02  2.79515516e-02  1.72498003e-02  2.17079595e-02
     1.57270189e-02]
   [ 2.80339196e-02 -2.17104219e-02 -6.60707355e-02 -4.68332060e-02
    -4.40810481e-03]
   [ 8.20380356e-03 -7.97501355e-02 -1.72199935e-01 -1.46699399e-01
    -5.80957718e-02]
   [-2.12677028e-02 -8.55487883e-02 -1.79639041e-01 -1.87504560e-01
    -6.60984814e-02]
   [ 9.93118435e-03 -2.28868630e-02 -7.37952888e-02 -6.77394792e-02
    -7.23649608e-03]]]


 [[[-1.39539479e-03 -7.86157697e-03 -2.09662057e-02 -2.83753891e-02
    -1.69752073e-03]
   [-4.40556603e-03 -5.18509485e-02 -1.01085000e-01 -9.02572572e-02
    -2.65727304e-02]
   [-4.29027602e-02 -1.09881863e-01 -1.76084176e-01 -1.42097667e-01
    -7.50584900e-02]
   [ 2.03699060e-03 -8.53412002e-02 -1.60270825e-01 -1.55615747e-01
    -4.55553532e-02]
   [ 2.38417722e-02 -1.72006395e-02 -8.30460489e-02 -6.25383183e-02
     1.43110054e-02]]]


 [[[-5.33514656e-03  2.20394274e-03 -5.94005585e-02 -3.79375070e-02
    -3.12689575e-03]
   [-6.24728389e-03 -7.38864616e-02 -8.97020474e-02 -8.28101337e-02
    -3.55933793e-02]
   [-3.93581055e-02 -1.08302839e-01 -1.50770053e-01 -1.54623896e-01
    -9.57563519e-02]
   [-4.42146510e-02 -1.11597441e-01 -1.49081618e-01 -1.43868148e-01
    -8.84904787e-02]
   [-1.37483776e-02 -3.28260176e-02 -7.80639425e-02 -7.59342089e-02
    -2.50986107e-02]]]


 [[[ 2.82201860e-02  2.15855893e-02 -2.71396199e-03  3.53914307e-04
    -2.68216548e-03]
   [ 3.94212641e-02  6.80541098e-02  1.05270557e-01  1.02217443e-01
     5.04065678e-02]
   [ 1.36094047e-02  9.86823961e-02  1.97961926e-01  1.81037843e-01
     7.21821263e-02]
   [ 1.03805512e-02  9.05997232e-02  1.84053704e-01  1.74295172e-01
     5.47544882e-02]
   [ 6.57106144e-03  3.34424712e-02  6.08833954e-02  4.98649329e-02
     4.69717057e-03]]]


 [[[ 4.08657920e-03  1.67809725e-02  3.06322967e-04 -6.55467436e-03
     2.85154488e-02]
   [ 4.50379867e-03 -1.87505921e-03 -2.41120420e-02 -3.24350372e-02
    -1.04433512e-02]
   [-7.17641935e-02 -1.12350732e-01 -1.36311442e-01 -1.35236382e-01
    -9.30167735e-02]
   [-7.68116191e-02 -1.20581731e-01 -1.42792940e-01 -1.50725216e-01
    -1.21717162e-01]
   [-4.03742306e-02 -5.97495884e-02 -8.51559341e-02 -9.09779817e-02
    -4.36041653e-02]]]


 [[[-1.47634009e-02 -1.01283528e-02  1.20906970e-02  1.19561553e-02
    -1.82606764e-02]
   [ 4.39208699e-03  5.35155386e-02  1.12100415e-01  1.08080916e-01
     1.73659138e-02]
   [ 2.69870404e-02  1.08345039e-01  2.00106442e-01  1.81484863e-01
     6.13453463e-02]
   [ 1.28867123e-02  6.60631061e-02  1.67790160e-01  1.58182546e-01
     4.58633825e-02]
   [-2.41264030e-02 -2.08569551e-03  7.00374544e-02  5.61236478e-02
    -4.74968506e-03]]]


 [[[-8.60837474e-03 -4.70872596e-03 -6.34369440e-04 -3.51399183e-03
    -1.69782173e-02]
   [ 5.77440904e-03  3.25277932e-02  7.39678293e-02  6.93862438e-02
     1.95693243e-02]
   [ 4.44505140e-02  1.14104457e-01  1.90047011e-01  1.89979821e-01
     7.99254403e-02]
   [ 2.36102156e-02  9.23323035e-02  1.53870836e-01  1.50041938e-01
     5.13904393e-02]
   [ 1.02003189e-02  5.73932100e-03  7.14647993e-02  4.54604365e-02
    -1.28847118e-02]]]


 [[[ 1.19267758e-02  1.15972850e-02  2.09437050e-02  1.97204147e-02
     5.66559844e-03]
   [ 6.73506595e-03  5.82435876e-02  1.08864203e-01  9.34654176e-02
     3.44231352e-02]
   [-2.58893389e-02  1.04133807e-01  2.34791562e-01  1.74604908e-01
     6.04653209e-02]
   [-9.59969312e-03  8.84027779e-02  1.85631976e-01  1.55504480e-01
     4.00533639e-02]
   [ 1.72943540e-03  4.51066941e-02  8.51195157e-02  6.15007021e-02
    -8.86958931e-03]]]


 [[[ 9.15961433e-03  1.54990535e-02 -2.81071682e-02 -1.20894983e-02
     1.84392054e-02]
   [ 3.13338265e-03 -8.27650055e-02 -1.29671648e-01 -1.14280224e-01
    -3.78236696e-02]
   [-3.08091510e-02 -1.24342963e-01 -2.13531151e-01 -1.82322890e-01
    -9.36590061e-02]
   [-1.16286995e-02 -1.13194324e-01 -1.76559567e-01 -1.61289811e-01
    -7.06069469e-02]
   [ 1.81659386e-02 -3.35702971e-02 -1.03934005e-01 -7.82156810e-02
    -8.13368335e-03]]]


 [[[ 5.41388243e-02  1.62788182e-02 -1.55537305e-02  2.83496752e-02
     5.69711998e-02]
   [ 3.65636982e-02 -3.74165550e-02 -1.06732301e-01 -7.38895759e-02
     2.40175929e-02]
   [-1.00042466e-02 -1.23014212e-01 -2.16679946e-01 -1.84562370e-01
    -5.16592860e-02]
   [-1.01980558e-02 -8.94110203e-02 -1.86582118e-01 -1.53077722e-01
    -3.85999642e-02]
   [ 4.11310196e-02  1.56359002e-02 -8.39543194e-02 -3.98940295e-02
     4.25005294e-02]]]


 [[[-1.79597968e-03 -1.70305427e-02 -3.80384997e-02 -2.41763350e-02
     6.66449196e-04]
   [-2.27406546e-02 -5.23124114e-02 -7.90617317e-02 -8.81480277e-02
    -3.06279175e-02]
   [-6.26327991e-02 -9.25409943e-02 -1.51580870e-01 -1.46458626e-01
    -8.36246312e-02]
   [-4.68949266e-02 -8.76033828e-02 -1.48966134e-01 -1.35592148e-01
    -6.79950044e-02]
   [-5.99372294e-03 -3.23405862e-02 -7.78876469e-02 -7.77941495e-02
    -7.96708651e-03]]]


 [[[-2.79532839e-02 -1.15964105e-02 -3.35868038e-02 -4.73571904e-02
    -2.33615544e-02]
   [-3.28413844e-02 -6.92687258e-02 -1.04941018e-01 -1.06693827e-01
    -6.51680976e-02]
   [-4.74123918e-02 -1.00847021e-01 -1.27820626e-01 -1.45108864e-01
    -6.62805736e-02]
   [-1.52307907e-02 -8.07583034e-02 -1.00665487e-01 -1.28292531e-01
    -7.30400532e-02]
   [-7.51871010e-03 -2.82952748e-02 -4.59410399e-02 -6.82997480e-02
    -2.39236765e-02]]]


 [[[-4.35396656e-03  5.32146916e-03  3.26231830e-02  2.04554331e-02
    -5.28102275e-03]
   [ 2.72688037e-03  6.55645281e-02  1.05243780e-01  1.01444162e-01
     2.45282538e-02]
   [ 4.50088494e-02  1.28110126e-01  1.90238580e-01  1.70494124e-01
     7.74314180e-02]
   [ 2.16640085e-02  7.81300068e-02  1.75203130e-01  1.95528939e-01
     6.45935610e-02]
   [-1.89474523e-02  2.52417754e-02  6.65715486e-02  7.08360747e-02
     8.11623596e-03]]]


 [[[-2.42821146e-02 -2.58821622e-02 -6.06572703e-02 -7.70036206e-02
    -4.31062356e-02]
   [-4.11284715e-02 -1.03666060e-01 -1.44110009e-01 -1.22087032e-01
    -1.01146206e-01]
   [-6.12451620e-02 -1.14504352e-01 -1.63687423e-01 -1.66145399e-01
    -1.05641276e-01]
   [-1.83144249e-02 -3.62261608e-02 -1.05085604e-01 -9.23065171e-02
    -2.49031582e-03]
   [ 1.48465522e-02  4.16288935e-02  4.48242761e-03  3.02273054e-02
     2.55336091e-02]]]


 [[[-3.82134272e-03 -4.09028819e-03  1.93226635e-02  1.11611076e-02
    -2.34311447e-02]
   [ 9.78346728e-03  4.31753211e-02  9.71138924e-02  7.07707182e-02
     9.86761600e-03]
   [ 4.67178002e-02  1.13502674e-01  1.89672828e-01  1.68879330e-01
     6.05538636e-02]
   [ 3.49656157e-02  8.93284678e-02  1.94960088e-01  1.83816299e-01
     6.14438877e-02]
   [-6.30406849e-03  4.45629470e-02  7.78830647e-02  6.98217824e-02
    -1.16220070e-02]]]


 [[[-2.99467910e-02 -4.36483044e-03  2.16525160e-02  1.95635911e-02
    -1.31333508e-02]
   [ 1.63268093e-02  4.64535393e-02  9.04474854e-02  7.89871886e-02
     9.74325929e-03]
   [ 2.77662650e-02  9.91400778e-02  1.63661122e-01  1.72457993e-01
     6.22035153e-02]
   [ 7.50761619e-03  8.43933001e-02  1.62289247e-01  1.69316858e-01
     7.81537667e-02]
   [-1.81554854e-02  1.24665946e-02  6.37258291e-02  6.76425993e-02
    -1.11224111e-02]]]


 [[[-1.17940700e-03 -5.80419460e-03  1.49848666e-02 -2.16205213e-02
    -1.29698822e-03]
   [-2.39036325e-03  3.96402515e-02  9.30719525e-02  7.08112121e-02
     1.37390411e-02]
   [ 1.19872773e-02  1.13985486e-01  1.90288782e-01  1.91773877e-01
     4.22507972e-02]
   [-8.15172959e-03  7.35487789e-02  1.69858605e-01  1.75334692e-01
     3.67151164e-02]
   [-1.21853985e-02  2.47175265e-02  7.85248205e-02  4.96149622e-02
    -1.16882734e-02]]]


 [[[ 2.40394124e-03 -9.19034283e-05 -7.65536027e-03  1.84864718e-02
     2.29838490e-02]
   [ 4.73589636e-03 -4.51614074e-02 -1.16550751e-01 -7.44648948e-02
     6.63015340e-03]
   [-2.86044087e-02 -1.09045997e-01 -2.25065589e-01 -1.59872174e-01
    -3.27338837e-02]
   [ 2.58363667e-04 -8.41809437e-02 -1.95095867e-01 -1.57352984e-01
    -2.22805757e-02]
   [ 1.64724328e-02  3.22277588e-03 -7.77700841e-02 -5.06451093e-02
     3.13704088e-02]]]


 [[[-2.76856758e-02  2.06617285e-02 -7.04802619e-03  2.40757279e-02
    -2.85218027e-03]
   [-9.01162252e-03  5.81269599e-02  6.57454506e-02  6.06471375e-02
     3.78682353e-02]
   [-1.95860844e-02  7.89489597e-02  2.09653616e-01  1.47589043e-01
     4.27596644e-02]
   [-2.06865545e-04  7.74493963e-02  1.82395816e-01  1.54781014e-01
     3.43431532e-02]
   [-3.11353132e-02  9.16171260e-03  4.69453372e-02  5.45263067e-02
    -2.68212892e-02]]]


 [[[-7.70088471e-03 -2.44983169e-03  3.67625989e-02  3.54775637e-02
    -2.01112544e-03]
   [ 1.27280690e-02  3.69068980e-02  1.03023857e-01  6.44542500e-02
     1.44380946e-02]
   [ 2.13970635e-02  8.14246461e-02  1.62068605e-01  1.52885571e-01
     5.28240539e-02]
   [ 2.90489115e-04  6.39396533e-02  1.61659300e-01  1.60922036e-01
     4.06459644e-02]
   [ 4.63801262e-04  1.18231978e-02  7.94939473e-02  7.03820512e-02
    -1.45707134e-04]]]


 [[[-1.02333669e-02  8.34304374e-03  5.64594306e-02  4.46479470e-02
    -3.71435483e-04]
   [-5.99358464e-03  7.28814825e-02  1.17901690e-01  1.11102447e-01
     3.57908756e-02]
   [ 5.06065004e-02  1.21549010e-01  1.73459858e-01  1.69305325e-01
     8.85980576e-02]
   [ 3.85187492e-02  9.45048928e-02  1.62771761e-01  1.68184459e-01
     6.90966025e-02]
   [-1.57078709e-02  1.57912038e-02  7.58293718e-02  7.18400851e-02
     4.51186718e-03]]]


 [[[-1.71780251e-02 -1.04848146e-02 -6.60242513e-02 -3.31331640e-02
    -2.71232892e-03]
   [-3.30164768e-02 -7.81835392e-02 -1.17402226e-01 -1.12126231e-01
    -4.90410738e-02]
   [-2.51788031e-02 -8.57889876e-02 -1.55868903e-01 -1.33615777e-01
    -5.90663888e-02]
   [-3.00534051e-02 -8.57992098e-02 -1.30415052e-01 -1.34214774e-01
    -5.69457449e-02]
   [-1.04258694e-02 -3.27928849e-02 -6.76226914e-02 -4.32688072e-02
    -1.26976809e-02]]]


 [[[ 1.92896929e-02  2.53780540e-02  4.30935528e-03 -4.09627473e-03
     8.98644142e-03]
   [ 2.47683227e-02  5.94446138e-02  7.92826936e-02  6.48566037e-02
     2.98100282e-02]
   [-2.22932291e-03  8.89178365e-02  1.69761732e-01  1.55225947e-01
     1.98353101e-02]
   [ 1.70240980e-02  9.49778035e-02  1.77687004e-01  1.62391409e-01
     3.98823209e-02]
   [ 3.20357503e-03  4.69664894e-02  4.87737693e-02  6.29628599e-02
     2.11777333e-02]]]


 [[[ 2.68551428e-03 -1.64675470e-02 -2.40225513e-02 -6.07840382e-02
    -2.28459183e-02]
   [-5.47939120e-03 -6.34556040e-02 -1.13319151e-01 -9.74473879e-02
    -3.06155998e-02]
   [-4.40368950e-02 -1.09182775e-01 -1.54112265e-01 -1.44924760e-01
    -7.32386783e-02]
   [-2.76358915e-03 -8.14948454e-02 -1.27305225e-01 -1.30395457e-01
    -5.20708747e-02]
   [ 5.58596046e-04 -3.12034059e-02 -7.01819137e-02 -4.74066027e-02
    -1.15997074e-02]]]


 [[[-1.06788930e-02 -8.80306866e-03 -2.12914422e-02 -3.62043977e-02
     9.87124536e-03]
   [-1.59558058e-02 -6.62305579e-02 -9.17327330e-02 -6.39429986e-02
    -9.71018523e-03]
   [-5.23853600e-02 -1.03214920e-01 -1.54687777e-01 -1.24455497e-01
    -7.42489845e-02]
   [-4.65054475e-02 -1.05506472e-01 -1.40811816e-01 -1.37231693e-01
    -4.97733057e-02]
   [-1.20124789e-02 -4.05941047e-02 -9.31883976e-02 -6.87807798e-02
    -2.42831316e-02]]]


 [[[-1.45116206e-02 -2.27263719e-02 -2.88158469e-02 -6.02192106e-03
    -8.62566661e-03]
   [-1.12195192e-02  4.12620418e-02  8.57258141e-02  5.52700199e-02
     5.63221704e-03]
   [-1.71508156e-02  8.87925997e-02  2.39472672e-01  1.56493768e-01
     2.08149757e-02]
   [-3.62809072e-03  5.77682033e-02  1.96679384e-01  1.55195311e-01
     1.32401278e-02]
   [-3.66812423e-02  9.12623294e-03  3.20320167e-02  1.85168330e-02
    -1.95205491e-02]]]


 [[[-1.36162220e-02 -9.54346266e-03 -3.39886658e-02 -2.89641079e-02
     1.51554262e-02]
   [-1.11494232e-02 -5.89142740e-02 -9.28054452e-02 -8.21647197e-02
    -5.42641804e-02]
   [-5.88246062e-02 -9.44034308e-02 -1.08590886e-01 -1.16730288e-01
    -6.81346655e-02]
   [-8.50619227e-02 -1.03568539e-01 -1.28285244e-01 -1.46046266e-01
    -8.82823542e-02]
   [-3.76061127e-02 -5.96947558e-02 -8.52003992e-02 -8.52560699e-02
    -4.77329604e-02]]]


 [[[ 1.03373220e-02  2.64525060e-02  4.82260436e-02  2.33919248e-02
     6.38631638e-03]
   [ 2.64192764e-02  7.84733370e-02  1.13481380e-01  9.07133147e-02
     3.47804017e-02]
   [ 1.74530391e-02  9.96434763e-02  1.55555665e-01  1.53579488e-01
     7.93234631e-02]
   [ 2.49753315e-02  1.01949893e-01  1.55183598e-01  1.53905153e-01
     6.75112903e-02]
   [-8.58955178e-03  2.83633955e-02  7.92071745e-02  7.38175511e-02
     9.31980833e-03]]]


 [[[ 2.46201493e-02  5.05780242e-02  7.09310472e-02  8.60029384e-02
     4.72890958e-02]
   [ 4.53000106e-02  1.32933721e-01  1.46361455e-01  1.35659352e-01
     8.52363557e-02]
   [ 2.84489468e-02  1.34929851e-01  2.12740004e-01  1.76556855e-01
     8.63665193e-02]
   [-8.18050373e-03  5.65866306e-02  1.45417824e-01  1.25845581e-01
     2.55531073e-02]
   [-1.23414984e-02 -1.86677109e-02  2.04815827e-02  1.87185388e-02
    -4.53712083e-02]]]


 [[[ 4.63972948e-02  3.19389217e-02 -1.39871920e-02  8.73094797e-03
     3.32619287e-02]
   [ 1.53359519e-02 -2.79532168e-02 -8.86932835e-02 -7.82144293e-02
    -7.98902102e-03]
   [-2.24066786e-02 -9.48588923e-02 -1.78175300e-01 -1.51169524e-01
    -4.85979617e-02]
   [-3.44394520e-02 -8.55944157e-02 -1.72860652e-01 -1.76014826e-01
    -6.05718158e-02]
   [ 2.98785921e-02 -1.72106773e-02 -9.08655822e-02 -8.44542459e-02
     2.48106360e-03]]]


 [[[ 4.28019091e-03 -3.52906552e-03  2.21790168e-02  4.00369428e-02
    -1.60435634e-03]
   [ 1.11583844e-02  7.28673190e-02  1.09422326e-01  7.91607872e-02
     2.34302189e-02]
   [-9.65461694e-03  1.20787673e-01  2.07296908e-01  1.72367901e-01
     7.31233358e-02]
   [-4.51127067e-03  9.32696313e-02  1.71609789e-01  1.42278820e-01
     5.34429587e-02]
   [-3.30583155e-02  3.04799918e-02  6.37012944e-02  4.69761044e-02
    -2.15670858e-02]]]


 [[[ 1.09238895e-02  6.71190163e-03  2.18104143e-02  2.69414857e-02
    -4.27345000e-03]
   [ 1.53262662e-02  6.74878731e-02  1.04849525e-01  8.41079056e-02
     1.73105299e-02]
   [ 1.49848359e-02  1.07695661e-01  2.05522329e-01  1.84114754e-01
     4.86978330e-02]
   [ 1.62843280e-02  8.89479369e-02  1.75304949e-01  1.55915782e-01
     5.18445708e-02]
   [ 1.75371254e-03  1.23276263e-02  5.72253168e-02  6.02962971e-02
     1.89616904e-03]]]


 [[[-1.15208328e-02  1.16219174e-03 -9.75497719e-03 -8.99191294e-03
     2.80627445e-03]
   [ 1.01650683e-02  5.42826727e-02  8.05446282e-02  1.58794951e-02
    -6.97732111e-03]
   [ 3.22693922e-02  8.73059779e-02  1.82725936e-01  1.64021701e-01
     2.27369033e-02]
   [ 2.80557070e-02  9.78189334e-02  1.98444277e-01  1.85840741e-01
     7.88231045e-02]
   [-2.35554148e-02  5.33906855e-02  1.32653907e-01  8.60561505e-02
     2.19647400e-03]]]


 [[[-1.96880028e-02 -1.73213556e-02 -2.58470457e-02 -1.25310821e-02
    -3.49954609e-03]
   [-1.89586598e-02 -5.45725673e-02 -1.05165318e-01 -8.45993534e-02
    -2.58696862e-02]
   [-5.19545637e-02 -1.23218790e-01 -1.78327665e-01 -1.63160726e-01
    -7.13076517e-02]
   [-1.11448960e-02 -8.71590078e-02 -1.93491518e-01 -1.81584984e-01
    -4.92561832e-02]
   [ 2.47401539e-02 -2.61111688e-02 -1.03633046e-01 -5.61479852e-02
     4.87744983e-04]]]


 [[[-1.98437851e-02 -1.50786387e-02  2.49872115e-02  1.67489629e-02
    -4.78346348e-02]
   [ 1.37351349e-03  5.38178906e-02  1.32829636e-01  1.01442434e-01
     2.43791100e-02]
   [ 2.74439361e-02  1.16139814e-01  2.26914182e-01  1.99669734e-01
     7.88059086e-02]
   [ 2.83872392e-02  9.39632654e-02  1.70853540e-01  1.71474382e-01
     4.52801436e-02]
   [-2.87484173e-02  2.75315455e-04  4.36896905e-02  3.71821560e-02
    -4.16089743e-02]]]


 [[[ 1.36989700e-02  6.92962902e-03 -3.73605974e-02 -1.49392178e-02
     1.84670500e-02]
   [ 1.67905837e-02 -2.40164995e-02 -7.29288235e-02 -6.60192668e-02
     1.17427774e-03]
   [-3.00640427e-02 -6.73846602e-02 -2.03321695e-01 -1.70730710e-01
    -4.32463624e-02]
   [ 2.46594362e-02 -6.13603592e-02 -1.74079627e-01 -1.43160835e-01
    -4.14880365e-03]
   [ 4.20124307e-02  4.20522090e-04 -6.59836009e-02 -5.61487824e-02
     1.55106764e-02]]]


 [[[ 1.69334579e-02  3.70188244e-02  1.31797483e-02  4.22301628e-02
    -4.11198800e-03]
   [ 1.96678992e-02  6.39333352e-02  1.02474473e-01  1.01096116e-01
     2.87833046e-02]
   [ 5.71681112e-02  1.09572284e-01  1.71255797e-01  1.64688706e-01
     9.04053226e-02]
   [ 5.24938293e-02  7.62280375e-02  1.72558546e-01  1.50323585e-01
     6.81587160e-02]
   [ 2.79309158e-03  1.63920373e-02  6.55890033e-02  6.70178831e-02
     6.21656235e-03]]]


 [[[ 8.89180321e-03  1.59399863e-02  1.12086143e-02  5.71826380e-03
     9.38576739e-03]
   [-1.34095652e-02  3.59795950e-02  6.31834045e-02  3.22259590e-02
    -1.29765151e-02]
   [ 5.37707619e-02  9.34095457e-02  1.32709071e-01  1.20638438e-01
     1.73625629e-02]
   [ 3.68889160e-02  1.33044749e-01  1.82485387e-01  1.86357751e-01
     1.05613247e-01]
   [ 4.36231643e-02  6.03777617e-02  1.29284218e-01  1.15028605e-01
     2.08152961e-02]]]


 [[[ 1.86135918e-02  1.08818272e-02 -1.26361325e-02 -2.01895889e-02
     3.01397126e-02]
   [-1.01298075e-02 -7.16351867e-02 -1.30732685e-01 -9.25780684e-02
    -2.05743555e-02]
   [-6.16529509e-02 -9.41447690e-02 -1.51116490e-01 -1.46320939e-01
    -7.86439255e-02]
   [-4.73091081e-02 -9.78783295e-02 -1.34799898e-01 -1.39890388e-01
    -7.80320168e-02]
   [-9.74470470e-03 -3.52761745e-02 -8.12385529e-02 -8.14744085e-02
    -2.65953857e-02]]]


 [[[-8.41475383e-04 -1.07848011e-02  5.39686857e-03 -5.95109817e-03
    -2.24278979e-02]
   [ 5.79678174e-03  4.36288938e-02  1.06737405e-01  7.52913430e-02
     6.33681240e-03]
   [ 1.84703227e-02  9.12805721e-02  2.00998291e-01  1.77286744e-01
     5.01190089e-02]
   [ 2.42501851e-02  5.53587936e-02  1.78025082e-01  1.71255112e-01
     3.41491662e-02]
   [-2.51213033e-02  4.67815297e-03  6.90958500e-02  5.02285361e-02
    -2.54510492e-02]]]


 [[[-6.87691011e-03  2.39002518e-03  9.73799825e-03  1.41216311e-04
    -1.13155125e-02]
   [-9.32295620e-03  5.44903465e-02  1.01357996e-01  7.39999861e-02
     1.26955155e-02]
   [ 1.10323485e-02  1.08399652e-01  2.25189880e-01  2.12260291e-01
     6.53361455e-02]
   [-2.54767407e-02  7.04029351e-02  2.07644954e-01  1.87391922e-01
     1.58277787e-02]
   [-2.22526304e-02 -1.18907755e-02  6.72655031e-02  5.07149659e-02
    -3.55635211e-02]]]


 [[[ 9.44114290e-03  2.00871509e-02  2.47926768e-02  8.31015129e-03
    -2.03354713e-02]
   [ 1.96599662e-02  4.70770597e-02  1.11562498e-01  9.09617990e-02
     1.44615676e-02]
   [ 3.73463891e-02  9.78910998e-02  1.82928324e-01  1.59825981e-01
     5.61212823e-02]
   [ 4.02595960e-02  1.02636069e-01  1.70731947e-01  1.41139776e-01
     5.76704293e-02]
   [ 5.24163945e-04  4.00309339e-02  9.06631723e-02  7.13708475e-02
     5.26473066e-03]]]


 [[[-8.51929374e-03 -9.13442392e-03 -4.74905968e-02 -9.17860027e-03
    -1.45810200e-02]
   [ 3.55300843e-03 -5.07212579e-02 -1.21284671e-01 -1.01450309e-01
    -3.28413434e-02]
   [ 5.12317009e-03 -1.24642745e-01 -1.80139795e-01 -1.66711852e-01
    -7.70237446e-02]
   [-1.15984613e-02 -1.07830174e-01 -1.83581308e-01 -1.40078649e-01
    -7.32714012e-02]
   [-2.09897887e-02 -4.97283638e-02 -1.00219123e-01 -7.50491694e-02
    -2.88257040e-02]]]


 [[[ 3.56817693e-02 -1.14102075e-02 -3.38852927e-02  3.40194348e-03
    -2.07874570e-02]
   [-1.63790472e-02 -7.41448551e-02 -7.61732534e-02 -7.34304711e-02
    -6.10746741e-02]
   [-6.93339854e-02 -8.72142017e-02 -6.31589293e-02 -7.92066008e-02
    -9.93884876e-02]
   [-7.62941465e-02 -7.29623884e-02 -4.14259508e-02 -9.81583819e-02
    -1.03173912e-01]
   [-1.94654819e-02 -1.17188143e-02 -1.31015312e-02 -2.11188868e-02
    -3.65385301e-02]]]


 [[[-8.91158637e-03 -1.19340774e-02 -2.27682758e-02 -3.68218236e-02
    -5.03348093e-03]
   [-2.08717883e-02 -5.89889996e-02 -9.78442952e-02 -7.21972436e-02
    -4.47471216e-02]
   [-4.30299975e-02 -1.04437575e-01 -1.72632396e-01 -1.36761129e-01
    -8.18365440e-02]
   [-4.76595834e-02 -9.49776322e-02 -1.27488896e-01 -1.20192461e-01
    -6.31511807e-02]
   [-2.87440885e-02 -3.15423571e-02 -5.00792339e-02 -8.04326460e-02
    -3.39047723e-02]]]


 [[[-1.42680863e-02 -1.74764059e-02 -2.05535330e-02 -4.31596041e-02
     6.95935823e-03]
   [-3.00048152e-03 -5.33926636e-02 -8.64550173e-02 -7.40352646e-02
    -4.56966348e-02]
   [-2.06250194e-02 -1.03092499e-01 -1.53747082e-01 -1.23785287e-01
    -8.02679658e-02]
   [-6.09979313e-03 -9.30809453e-02 -1.36236429e-01 -1.44661710e-01
    -5.58941029e-02]
   [-8.28848593e-03 -2.72146575e-02 -7.31011555e-02 -7.15411752e-02
    -1.81173105e-02]]]


 [[[ 1.89714190e-02  2.43664738e-02 -1.11632319e-02  1.16876876e-02
     2.01450400e-02]
   [ 1.33670168e-02 -5.15881106e-02 -8.42949599e-02 -6.96531013e-02
    -7.96926674e-03]
   [-5.37806787e-02 -1.26199543e-01 -1.72166750e-01 -1.50791019e-01
    -6.89920411e-02]
   [-5.25262430e-02 -1.19386159e-01 -1.62840843e-01 -1.73337415e-01
    -5.77434748e-02]
   [-4.28613694e-03 -3.43789048e-02 -9.94215757e-02 -8.32416490e-02
     2.17903173e-03]]]


 [[[ 2.01134402e-02  1.50805730e-02  1.36799123e-02  3.06148231e-02
     4.46642041e-02]
   [-1.43069215e-02 -7.79937878e-02 -1.39188036e-01 -1.10932045e-01
    -2.56694797e-02]
   [-4.39946838e-02 -1.57915413e-01 -1.83859855e-01 -2.02329800e-01
    -9.79587436e-02]
   [-1.96159184e-02 -1.06042579e-01 -1.89509094e-01 -1.67842090e-01
    -5.11889234e-02]
   [ 1.98833458e-02 -2.94882432e-02 -9.19523537e-02 -7.08932951e-02
     1.80184562e-02]]]


 [[[-1.77726895e-02 -5.50902598e-02 -1.20128423e-01 -2.87751742e-02
    -3.04917097e-02]
   [-2.77229231e-02 -5.71376234e-02 -5.80655830e-03  8.53461772e-03
    -3.88245168e-03]
   [-8.78050998e-02 -6.23528361e-02  1.34933785e-01 -6.20505475e-02
    -6.80118427e-02]
   [-4.09190841e-02 -3.45038548e-02 -3.33574452e-02 -2.73489356e-02
    -3.96757619e-03]
   [-1.87437627e-02 -3.23563814e-02 -3.88345942e-02  1.45812985e-02
     3.15258875e-02]]]


 [[[ 4.01426898e-03 -2.13391520e-02 -1.28636919e-02 -3.31261866e-02
    -7.86557235e-03]
   [ 6.62674941e-03 -3.39227542e-02 -7.97716901e-02 -5.57990000e-02
    -8.51209741e-03]
   [-5.10802157e-02 -7.98480213e-02 -1.32390648e-01 -1.33236125e-01
    -6.76068068e-02]
   [-5.93365021e-02 -1.08542025e-01 -1.35355443e-01 -1.36852741e-01
    -6.65898770e-02]
   [-3.05695012e-02 -6.38654530e-02 -8.80022049e-02 -9.91435349e-02
    -5.27407043e-02]]]


 [[[ 1.92673469e-03 -9.01173335e-03 -3.48259583e-02 -1.74227301e-02
    -4.16657887e-03]
   [ 8.76379944e-03 -1.14034396e-03  5.31001389e-02  3.62075232e-02
    -1.33515173e-03]
   [-1.22463247e-02  3.69896479e-02  1.49379864e-01  1.29567772e-01
    -6.72842935e-03]
   [ 3.69909555e-02  1.06170341e-01  1.89446375e-01  1.76404908e-01
     4.04686928e-02]
   [ 2.75984011e-03  4.85442504e-02  1.28816932e-01  1.16753437e-01
     2.70793959e-02]]]


 [[[-1.35220494e-02  2.99811596e-03  2.72208862e-02  1.32783558e-02
    -3.08698025e-02]
   [ 3.26477620e-03  6.45360127e-02  1.15358189e-01  8.80729705e-02
     3.18184309e-02]
   [ 3.84937711e-02  1.26140818e-01  1.77197501e-01  1.84043065e-01
     6.89733922e-02]
   [ 1.29968207e-02  8.11159536e-02  1.78600803e-01  1.87115207e-01
     5.57790510e-02]
   [-9.08749178e-03 -9.42861009e-03  5.20101935e-02  5.93689047e-02
    -1.74747091e-02]]]


 [[[ 2.01632874e-03 -2.64348704e-02 -3.89738008e-02 -3.41358818e-02
     5.54863131e-03]
   [-2.26074085e-02 -6.67787939e-02 -1.17485650e-01 -9.62575674e-02
    -3.09640206e-02]
   [-5.43835089e-02 -1.14044920e-01 -1.57426655e-01 -1.50631845e-01
    -8.87790993e-02]
   [-4.58577983e-02 -8.74919668e-02 -1.35588437e-01 -1.30228698e-01
    -7.21136853e-02]
   [ 6.65472401e-03 -1.69079900e-02 -8.02913681e-02 -6.50910288e-02
    -3.48821515e-03]]]


 [[[-3.81673984e-02 -7.17517408e-03 -7.31721595e-02 -3.95567268e-02
    -1.38798719e-02]
   [-3.27329747e-02 -8.55119675e-02 -1.01041391e-01 -9.96686742e-02
    -4.07422557e-02]
   [ 6.44292915e-04 -9.36569870e-02 -1.75693825e-01 -1.42930984e-01
    -6.39455691e-02]
   [ 2.36126464e-02 -5.80579340e-02 -1.57803193e-01 -1.32152840e-01
    -2.07423978e-02]
   [ 2.93906573e-02 -1.41215930e-03 -4.87058461e-02 -5.20112328e-02
     2.64893882e-02]]]


 [[[-4.77842335e-03 -5.13031799e-03 -4.86538932e-02 -3.73412296e-02
     1.79085676e-02]
   [-4.19781171e-03 -4.42361906e-02 -1.31968051e-01 -8.75745565e-02
    -1.53579060e-02]
   [-3.35303545e-02 -1.17464870e-01 -1.98870718e-01 -1.78224057e-01
    -6.28880709e-02]
   [-3.60194966e-02 -9.59694609e-02 -1.96184784e-01 -1.88669890e-01
    -5.31369448e-02]
   [ 4.05677296e-02 -9.31494776e-03 -8.61363113e-02 -5.67081571e-02
     4.42806184e-02]]]


 [[[-1.27357701e-02 -1.52720436e-02 -3.56515273e-02 -2.58943904e-02
     5.81562426e-03]
   [-8.94833822e-03 -6.24922365e-02 -1.31072298e-01 -1.01702996e-01
    -3.52365784e-02]
   [-2.20803544e-02 -1.22537538e-01 -1.99820533e-01 -1.87605262e-01
    -6.82900548e-02]
   [-1.91474445e-02 -7.97281042e-02 -1.58821419e-01 -1.60728738e-01
    -4.89859208e-02]
   [ 2.10603746e-03 -1.50602907e-02 -7.60602131e-02 -5.70337772e-02
     2.62196399e-02]]]


 [[[ 1.96389500e-02  8.48919211e-04 -5.20474836e-03 -4.89523495e-03
     2.60827281e-02]
   [-5.66951884e-03 -3.61634083e-02 -7.91495517e-02 -6.76492825e-02
     5.24011115e-03]
   [-4.13768031e-02 -8.71310756e-02 -1.45839468e-01 -1.19003460e-01
    -5.40266074e-02]
   [-4.39145640e-02 -9.66425091e-02 -1.31955907e-01 -1.46768555e-01
    -4.56021726e-02]
   [ 8.58166534e-03 -3.33959348e-02 -8.17341208e-02 -6.56274632e-02
    -2.23430023e-02]]]


 [[[-1.01839416e-02 -4.20686007e-02 -6.49093837e-02 -3.20837349e-02
    -1.00837578e-03]
   [-2.93336939e-02 -9.08223465e-02 -1.38555348e-01 -8.60459805e-02
    -4.88796793e-02]
   [-6.43907040e-02 -1.28764331e-01 -1.60904855e-01 -1.30532548e-01
    -8.51743072e-02]
   [-3.71995457e-02 -9.67406407e-02 -1.51260525e-01 -1.34002909e-01
    -4.88679893e-02]
   [-2.89052520e-02 -5.99145554e-02 -1.14970267e-01 -7.88017958e-02
    -1.53246643e-02]]]


 [[[ 4.35723551e-03  5.02951210e-03  1.32199218e-02 -1.10935536e-03
    -1.57066900e-02]
   [ 1.03213685e-02  5.70827499e-02  1.18451104e-01  9.74731818e-02
     3.07888091e-02]
   [ 2.98745334e-02  1.00087106e-01  1.78145558e-01  1.69009641e-01
     5.30717112e-02]
   [ 1.81969367e-02  7.90248439e-02  1.59145221e-01  1.65011227e-01
     2.25951076e-02]
   [ 1.62306838e-02  3.43955681e-02  7.30847046e-02  5.38043268e-02
    -1.45287532e-02]]]


 [[[-9.06389114e-03  1.57605711e-04  2.02679504e-02  6.69210684e-03
    -1.02457814e-02]
   [-8.50566663e-03  4.10313457e-02  9.04067308e-02  7.10652694e-02
    -2.88883783e-03]
   [ 4.42503653e-02  1.20037869e-01  2.00779408e-01  1.69040412e-01
     4.07088473e-02]
   [ 1.56253818e-02  8.11204538e-02  1.91985428e-01  1.86988175e-01
     5.58336340e-02]
   [-1.65919401e-02  1.82707813e-02  5.55329435e-02  5.58027104e-02
    -2.01321952e-02]]]


 [[[-5.98202273e-02 -3.57913077e-02 -3.17296050e-02 -5.56516051e-02
    -3.89987901e-02]
   [-4.18581963e-02 -6.81707487e-02 -1.42299920e-01 -1.36768222e-01
    -7.99322277e-02]
   [-7.39927962e-02 -1.13021143e-01 -1.79195315e-01 -1.52249292e-01
    -7.43360817e-02]
   [ 1.42086786e-03 -6.64517507e-02 -1.53490737e-01 -1.22173548e-01
    -1.91137269e-02]
   [ 1.03120506e-02  1.19196076e-03 -5.00592925e-02 -5.92011437e-02
    -2.25471362e-04]]]


 [[[-5.41275041e-03 -5.10705914e-03 -6.78488344e-04 -5.24320034e-03
    -8.81372672e-03]
   [-5.42655913e-03 -2.60269381e-02 -8.49689543e-02 -7.63649344e-02
    -1.02382908e-02]
   [-5.45489900e-02 -1.01353399e-01 -1.68859079e-01 -1.46985725e-01
    -4.83535752e-02]
   [-5.57087585e-02 -9.77346897e-02 -1.65673360e-01 -1.47339612e-01
    -7.88000971e-02]
   [-1.57177523e-02 -3.92057039e-02 -9.97711122e-02 -6.90601319e-02
    -4.44652000e-03]]]


 [[[ 1.55562749e-02  5.62092988e-03  1.51835186e-02  9.50023066e-03
     1.73452031e-02]
   [ 4.30701999e-03  2.94338409e-02  9.17589962e-02  7.48520792e-02
     1.01335989e-02]
   [ 2.05762312e-02  1.01554155e-01  1.96721852e-01  1.80093572e-01
     4.44958657e-02]
   [ 3.43005732e-02  8.17362368e-02  2.01244712e-01  1.33381203e-01
     5.17963842e-02]
   [-9.21762735e-03  2.65092421e-02  8.66122842e-02  7.18448088e-02
     7.19258841e-03]]]


 [[[ 2.79451013e-02  4.14576055e-03 -4.50855866e-02 -1.48147941e-02
     1.96143482e-02]
   [ 1.28538916e-02 -7.62572438e-02 -8.38049352e-02 -6.03409521e-02
    -4.88825403e-02]
   [-5.60210980e-02 -8.96854103e-02 -1.17744841e-01 -1.28636897e-01
    -9.08207521e-02]
   [-4.39292192e-02 -9.24455673e-02 -1.30758524e-01 -1.15417823e-01
    -7.73652121e-02]
   [ 2.06344090e-02 -3.13310623e-02 -8.25011656e-02 -6.76015913e-02
    -9.45353787e-03]]]


 [[[-8.97456054e-03  7.22221844e-03  1.43296793e-02  2.65771691e-02
    -7.52081443e-03]
   [ 4.67370776e-03  4.16845419e-02  9.78871137e-02  8.66445303e-02
    -7.30371242e-03]
   [-2.15255260e-03  9.87401828e-02  1.95733964e-01  1.79466277e-01
     3.74290049e-02]
   [-1.04573956e-02  9.31126326e-02  1.99353218e-01  1.68322727e-01
     4.76386398e-02]
   [-2.55830269e-02  2.03938019e-02  1.02150865e-01  6.96018785e-02
    -1.47819705e-02]]]


 [[[ 5.79332095e-03  5.07446565e-03  2.40337700e-02 -8.60394165e-03
    -1.61339771e-02]
   [-4.82723350e-03  3.55111100e-02  1.12395994e-01  7.21784756e-02
     9.34298709e-03]
   [ 3.09802294e-02  1.28621057e-01  1.75316721e-01  1.30749717e-01
     6.26490116e-02]
   [ 4.95795086e-02  9.17659476e-02  1.37152299e-01  1.49865270e-01
     5.93836419e-02]
   [ 2.50705164e-02  4.30904403e-02  6.76072687e-02  7.76299164e-02
    -1.46123236e-02]]]


 [[[-1.70977321e-02  2.75443797e-03  3.36872712e-02  5.16124181e-02
    -1.87838264e-02]
   [-4.47147014e-03  8.14779550e-02  1.30772725e-01  1.08373798e-01
     2.90859006e-02]
   [ 1.49658707e-04  1.30235150e-01  2.23841026e-01  1.78182647e-01
     4.76287790e-02]
   [-3.07580438e-02  7.38669634e-02  2.04110518e-01  1.79030061e-01
     2.20573936e-02]
   [-1.02369748e-02  1.05228052e-02  6.97402284e-02  5.32340743e-02
    -1.58281904e-02]]]


 [[[-2.53025685e-02  2.91811097e-02  3.81290652e-02  7.66999880e-03
    -1.04078595e-02]
   [-7.86440331e-04  6.42082319e-02  1.02902740e-01  1.25312939e-01
     2.01544035e-02]
   [ 2.60946844e-02  1.52815700e-01  1.78087905e-01  1.82711631e-01
     9.47237238e-02]
   [ 1.63987593e-03  9.11796540e-02  1.53428987e-01  1.59088552e-01
     8.36308971e-02]
   [-2.75796875e-02  2.26801168e-02  8.54296237e-02  8.68474618e-02
     2.41251178e-02]]]


 [[[ 4.31243284e-03  2.06226055e-02 -2.90491362e-03  8.00648425e-03
     1.77331809e-02]
   [ 1.09528136e-02 -3.73173617e-02 -1.00750484e-01 -8.24419335e-02
     9.03987698e-03]
   [-3.01435236e-02 -9.13948715e-02 -1.72448799e-01 -1.52156383e-01
    -7.86352083e-02]
   [-4.19342443e-02 -1.22986943e-01 -1.41659901e-01 -1.66782647e-01
    -9.13618058e-02]
   [-4.63776710e-03 -2.86623780e-02 -1.22082785e-01 -8.64683390e-02
    -2.31100749e-02]]]


 [[[-2.48270202e-02  1.45176286e-03 -3.56441662e-02 -2.17703618e-02
    -3.48590640e-03]
   [-9.95971635e-03 -4.33487184e-02 -9.78473127e-02 -6.59699738e-02
    -1.88778620e-02]
   [-6.51464164e-02 -9.79851410e-02 -1.32293880e-01 -1.33099735e-01
    -6.53348416e-02]
   [-3.62351760e-02 -8.29732791e-02 -1.28389269e-01 -1.56412631e-01
    -7.24059716e-02]
   [ 1.43107632e-02 -2.34009977e-02 -8.90551805e-02 -5.69023602e-02
     1.07820258e-02]]]


 [[[-3.19157750e-03 -1.97650064e-02 -4.30996157e-03  3.20919277e-03
    -2.00819820e-02]
   [ 5.17816981e-03  5.20986952e-02  7.82418847e-02  6.55820966e-02
     6.46432815e-03]
   [ 2.08352506e-02  1.06545933e-01  1.68196842e-01  1.92341357e-01
     6.51556849e-02]
   [ 6.39267871e-03  9.14363191e-02  1.61549106e-01  1.75983071e-01
     8.66863579e-02]
   [ 1.93265863e-02  1.92937646e-02  4.22257110e-02  5.00601791e-02
     3.31590660e-02]]]


 [[[-7.00610969e-03  9.77331027e-03  3.25608999e-02  1.36742890e-02
    -5.26473019e-03]
   [ 5.96913323e-03  6.19465522e-02  1.04056008e-01  8.42913985e-02
     2.80840863e-02]
   [ 2.42886059e-02  9.42484438e-02  1.84393138e-01  1.77146256e-01
     4.08215187e-02]
   [-3.43638763e-04  8.82934853e-02  1.74540371e-01  1.61097556e-01
     4.05852273e-02]
   [ 6.55142311e-03  3.65994163e-02  6.43610060e-02  5.09061143e-02
     2.01485138e-02]]]


 [[[-1.96127291e-03 -3.02545242e-02 -3.67286429e-02 -1.78113952e-02
    -1.41427452e-02]
   [-2.35112868e-02 -9.31402817e-02 -1.16365016e-01 -1.02711156e-01
    -6.10303059e-02]
   [-7.26462826e-02 -1.18563399e-01 -1.43377334e-01 -1.19598009e-01
    -9.12507549e-02]
   [-5.50223775e-02 -9.93788168e-02 -1.24380752e-01 -1.28351629e-01
    -8.38626027e-02]
   [-2.14712694e-02 -4.30425592e-02 -8.99606496e-02 -5.92900366e-02
    -1.21190343e-02]]]


 [[[-2.59609777e-04  2.95653865e-02  3.20587680e-02  3.40407714e-02
    -1.20971892e-02]
   [ 1.17824096e-02  6.31725341e-02  1.21457800e-01  8.42379853e-02
     2.17379164e-02]
   [ 3.27618793e-02  1.07723735e-01  1.65385649e-01  1.57767713e-01
     5.37716299e-02]
   [ 4.22107168e-02  1.03051290e-01  1.63268134e-01  1.72699660e-01
     4.70743142e-02]
   [-1.03877680e-02  3.93119566e-02  8.56934041e-02  6.29982725e-02
     3.37665877e-03]]]


 [[[ 2.29905006e-02  1.21478094e-02  3.74567471e-02  4.04334925e-02
     3.63169461e-02]
   [ 2.90871244e-02 -3.30215879e-02 -1.07040115e-01 -6.57851771e-02
     3.94488871e-03]
   [-4.18596268e-02 -1.34034619e-01 -1.77353591e-01 -1.55642077e-01
    -7.56222159e-02]
   [-3.91353481e-02 -1.10956281e-01 -1.75151259e-01 -1.58928439e-01
    -5.63182347e-02]
   [ 2.18941011e-02 -2.91888211e-02 -6.11163303e-02 -4.30672280e-02
     2.12508887e-02]]]


 [[[ 1.74808968e-02 -2.71037593e-02 -9.53851081e-03 -6.58284314e-03
    -8.50391481e-03]
   [-1.01054730e-02 -8.01636279e-02 -1.04524344e-01 -8.55531543e-02
    -4.98104952e-02]
   [-1.41499275e-02 -1.14487052e-01 -1.82749733e-01 -1.61964208e-01
    -5.67670912e-02]
   [-2.50280369e-02 -9.73680541e-02 -1.49402782e-01 -1.27788842e-01
    -6.06349707e-02]
   [ 2.07219878e-03 -2.91904472e-02 -7.77968392e-02 -6.80549815e-02
    -3.19876149e-02]]]


 [[[-3.03644370e-02  1.00714015e-02  5.53766452e-02  2.71735433e-02
    -2.65089609e-02]
   [ 8.22617952e-03  5.23419753e-02  1.23301379e-01  8.22694451e-02
     3.02151702e-02]
   [ 2.85931453e-02  1.15209259e-01  1.67412296e-01  1.65328234e-01
     8.51223245e-02]
   [ 9.64622386e-03  6.84262961e-02  1.68212488e-01  1.61252141e-01
     4.59550135e-02]
   [-4.37368155e-02  3.68303061e-03  6.00225776e-02  6.09024167e-02
    -7.32798968e-03]]]


 [[[ 2.57433187e-02 -3.26832896e-03 -3.32780778e-02 -2.24273931e-02
     1.80762373e-02]
   [-1.85479354e-02 -4.55526523e-02 -8.65704715e-02 -7.49959648e-02
    -1.59236062e-02]
   [-7.32144415e-02 -1.02725200e-01 -1.52374059e-01 -1.25372201e-01
    -7.07639679e-02]
   [-2.88299192e-02 -1.00105591e-01 -1.47534832e-01 -1.29106686e-01
    -4.63590659e-02]
   [-6.38670661e-03 -4.07711379e-02 -1.02123737e-01 -8.58891457e-02
     2.08007568e-03]]]


 [[[ 1.00175468e-02  4.08058465e-02  7.75802657e-02  7.63740018e-02
     1.75012331e-02]
   [ 3.37561853e-02  8.29773694e-02  1.10327430e-01  1.40378565e-01
     6.88605905e-02]
   [ 1.75063461e-02  9.13170129e-02  1.84894338e-01  1.67171553e-01
     6.75908253e-02]
   [-1.76593028e-02  6.35079741e-02  1.61732405e-01  1.33621678e-01
     4.16184366e-02]
   [-2.77881324e-02  3.32696643e-03  2.85676867e-02  3.92759107e-02
    -1.68471280e-02]]]


 [[[ 1.00006936e-02  1.53361792e-02  5.59914783e-02  3.06672715e-02
     1.68727655e-02]
   [ 2.11604889e-02  6.57129213e-02  1.38284639e-01  1.07365757e-01
     1.04211792e-02]
   [ 1.38717480e-02  1.30365521e-01  1.92596823e-01  1.74755588e-01
     7.35932738e-02]
   [-4.47383802e-03  8.77203420e-02  1.81915790e-01  1.62532896e-01
     6.94422945e-02]
   [-2.32007019e-02  2.41367184e-02  8.44761804e-02  8.06526914e-02
    -1.31078241e-02]]]


 [[[-5.36847040e-02 -3.48478928e-02  3.57019901e-02  1.57171488e-02
    -4.65973727e-02]
   [ 1.29905986e-02  5.03999703e-02  1.16781615e-01  9.14730355e-02
    -1.37373609e-02]
   [ 3.75087820e-02  1.09955758e-01  1.96924910e-01  1.80805534e-01
     7.93449059e-02]
   [-4.11192216e-02  7.13082254e-02  1.74724147e-01  1.63183019e-01
     5.10121658e-02]
   [-5.36881573e-02 -1.47897303e-02  7.55566284e-02  4.70713526e-02
    -4.49569412e-02]]]


 [[[ 2.93024704e-02  1.02414964e-02  6.26836158e-03  4.02876688e-03
     2.14528199e-02]
   [-1.74796190e-02 -5.23682162e-02 -8.77698511e-02 -6.49277791e-02
    -3.68593866e-03]
   [-4.09199148e-02 -8.54433253e-02 -1.40002385e-01 -1.19994365e-01
    -4.95756939e-02]
   [-5.99897914e-02 -9.19275358e-02 -1.43696830e-01 -1.29862890e-01
    -7.62130618e-02]
   [-3.10613960e-02 -5.07684834e-02 -1.14473902e-01 -1.03918992e-01
    -3.38998511e-02]]]


 [[[-2.12440379e-02 -1.03150178e-02  3.27252969e-03  1.86066888e-02
    -5.67657594e-03]
   [ 4.84499568e-03  5.81762828e-02  9.54666510e-02  1.07904784e-01
     1.86858196e-02]
   [ 1.49723860e-02  1.29378304e-01  2.03120738e-01  1.70319572e-01
     6.25258386e-02]
   [ 8.49681254e-03  1.15268551e-01  2.00484455e-01  1.60571024e-01
     6.58444837e-02]
   [-3.28922085e-02  2.82662436e-02  7.75242001e-02  7.70145655e-02
    -5.75624779e-03]]]


 [[[-1.49106858e-02  4.21499368e-03  4.78259847e-02  4.55705263e-02
     5.77639276e-03]
   [-5.06955804e-03  7.42415190e-02  1.31419957e-01  1.08353384e-01
     3.11360285e-02]
   [ 1.32057816e-02  1.15121432e-01  1.94143549e-01  1.45950332e-01
     8.47651362e-02]
   [-1.11024333e-02  7.09731206e-02  1.50392935e-01  1.59356639e-01
     3.08605321e-02]
   [-2.46091280e-02 -1.61322337e-02  5.66466898e-02  5.87570518e-02
    -4.90881838e-02]]]


 [[[-3.32856388e-03 -2.97721215e-02 -6.64938092e-02 -5.66127189e-02
     4.34498815e-03]
   [-1.55901480e-02 -5.77748828e-02 -1.06114306e-01 -1.19883470e-01
    -4.10730578e-02]
   [-5.72669357e-02 -9.96375456e-02 -1.48787305e-01 -1.54917076e-01
    -8.51357281e-02]
   [-3.32550406e-02 -6.77158162e-02 -1.26318157e-01 -1.25696108e-01
    -5.93849719e-02]
   [-2.05961568e-03 -1.74809340e-02 -6.54062331e-02 -5.28020486e-02
    -6.87063951e-03]]]


 [[[ 8.98355991e-03  5.14421379e-03  1.15167862e-02 -3.23978777e-04
     1.94238443e-02]
   [-6.30660495e-03 -5.98713271e-02 -7.82487467e-02 -6.83459416e-02
    -6.33126451e-03]
   [-3.07834912e-02 -9.65707898e-02 -1.84311509e-01 -1.64761782e-01
    -4.28633690e-02]
   [-1.05645992e-02 -8.39636624e-02 -1.69878677e-01 -1.63448691e-01
    -3.72612104e-02]
   [-8.34652968e-03 -2.46396605e-02 -4.91348803e-02 -3.28677744e-02
     1.46366350e-04]]]


 [[[ 9.52094980e-03 -6.60951846e-05 -1.30797597e-02 -9.39182751e-03
     1.95785742e-02]
   [ 1.99460648e-02 -6.41747192e-02 -1.08922638e-01 -1.05316766e-01
    -1.81132387e-02]
   [-2.05509420e-02 -1.05274603e-01 -1.69276208e-01 -1.63772553e-01
    -8.16083178e-02]
   [-3.59179964e-03 -9.48659852e-02 -1.65393203e-01 -1.49291098e-01
    -6.11541830e-02]
   [ 2.22895108e-03 -3.04613020e-02 -7.31223822e-02 -6.88456744e-02
    -1.66327078e-02]]]


 [[[ 1.12550072e-02 -9.44410544e-03 -4.80914285e-04 -7.28353858e-03
    -4.84809745e-03]
   [ 5.12441806e-03  5.15047386e-02  1.23271830e-01  5.89519925e-02
     1.51434960e-02]
   [ 5.07421652e-03  6.48432672e-02  2.14115009e-01  1.72511712e-01
     2.83326618e-02]
   [ 2.98075080e-02  9.68188494e-02  2.07538828e-01  1.95647940e-01
     6.61711171e-02]
   [-2.87249871e-03 -6.74635696e-04  7.75967017e-02  6.01186901e-02
    -1.20696668e-02]]]


 [[[ 2.95569338e-02  4.59508644e-03 -3.59293632e-02 -6.82780612e-03
     1.05524054e-02]
   [-2.36385819e-02 -5.16205132e-02 -1.01757228e-01 -6.84209988e-02
    -1.48830153e-02]
   [-3.38013731e-02 -9.86572728e-02 -1.59897044e-01 -1.23400770e-01
    -5.94018735e-02]
   [-3.64158638e-02 -8.08594748e-02 -1.55945793e-01 -1.25487313e-01
    -6.65359944e-02]
   [ 3.19683994e-03 -3.78589816e-02 -8.89685079e-02 -7.44639412e-02
    -1.11946147e-02]]]


 [[[-3.09721790e-02 -1.83917172e-02 -8.59405994e-02 -3.70915458e-02
    -1.15135713e-02]
   [-1.94852799e-02 -5.59294634e-02 -6.24959394e-02 -5.51277027e-02
    -1.24893067e-02]
   [-6.23734072e-02 -4.42527831e-02 -1.00057520e-01 -5.94353676e-02
    -5.88439070e-02]
   [-3.80118042e-02 -3.11310757e-02 -5.38444184e-02 -3.91960889e-02
    -1.93437692e-02]
   [-2.85897916e-03 -9.65119712e-03 -1.86508279e-02 -1.45396627e-02
    -1.31399883e-02]]]


 [[[-3.59971239e-03 -1.65963992e-02  1.91181172e-02  1.78330019e-02
    -2.90575612e-04]
   [-5.84496884e-03  4.40476537e-02  8.59109685e-02  5.59658855e-02
     3.20244650e-03]
   [ 2.97071170e-02  1.08521961e-01  1.62239149e-01  1.63884997e-01
     5.60339242e-02]
   [ 1.01426849e-03  8.21945891e-02  1.48198381e-01  1.47726744e-01
     6.71158656e-02]
   [-1.61899365e-02  1.29752643e-02  5.01510166e-02  6.35395944e-02
    -2.72482354e-03]]]


 [[[ 1.06639760e-02  1.80200543e-02  1.49314841e-02  1.07694818e-02
     2.71880683e-02]
   [ 6.42178440e-03 -4.06043045e-02 -7.99865723e-02 -4.90539782e-02
     6.02750340e-03]
   [-5.22028236e-03 -9.76014659e-02 -1.96140483e-01 -1.54073089e-01
    -4.00866456e-02]
   [-2.31896676e-02 -8.31896886e-02 -1.72533184e-01 -1.56542033e-01
    -3.88848037e-02]
   [-6.33499760e-04 -2.83444300e-02 -7.89460093e-02 -3.20849232e-02
     2.68786289e-02]]]


 [[[ 9.12312139e-03  3.23208869e-02  3.40244956e-02  8.01418722e-03
    -1.38574336e-02]
   [ 2.02795733e-02  7.79927820e-02  8.84659067e-02  5.32169528e-02
     2.30046660e-02]
   [ 3.88048962e-02  7.34345764e-02  1.95573896e-01  1.93564773e-01
     5.52767664e-02]
   [ 2.43677851e-02  4.34479974e-02  1.53217718e-01  1.68173790e-01
     3.78582366e-02]
   [-1.75316251e-04  1.11547178e-02  4.80993725e-02  3.27612385e-02
    -2.25430541e-03]]]


 [[[-1.74184609e-02  6.42785011e-03  2.92570293e-02 -2.00713379e-03
    -2.50728372e-02]
   [-1.28766568e-02  3.41173448e-02  9.94410291e-02  9.74311605e-02
     1.84245054e-02]
   [ 8.21801648e-03  9.29773301e-02  1.45868048e-01  1.47023022e-01
     4.76561897e-02]
   [ 2.98395287e-02  8.09261575e-02  1.75918952e-01  1.60650164e-01
     5.49015701e-02]
   [-5.35923662e-03  3.63702290e-02  9.23200995e-02  5.49457222e-02
     2.17579701e-03]]]


 [[[-4.69124317e-03 -2.65072454e-02 -4.06730957e-02 -4.52998169e-02
    -1.44061493e-02]
   [-2.50466783e-02 -7.39117712e-02 -1.20338947e-01 -1.15251794e-01
    -5.15390188e-02]
   [-3.78224142e-02 -1.10938914e-01 -1.57277137e-01 -1.47853658e-01
    -9.23300982e-02]
   [ 9.14898980e-03 -5.75728230e-02 -1.52018368e-01 -1.35444567e-01
    -2.70583536e-02]
   [ 4.16724868e-02  1.66321117e-02 -6.70775026e-02 -4.13768627e-02
     4.37570326e-02]]]


 [[[-1.61054377e-02 -2.68086102e-02 -4.64313477e-02 -4.70361151e-02
     5.56151522e-03]
   [-5.43350354e-03 -4.77599651e-02 -9.41692218e-02 -5.97780049e-02
    -4.85935025e-02]
   [-3.02799344e-02 -9.22832489e-02 -1.20230205e-01 -1.02781840e-01
    -3.81907932e-02]
   [-4.21389453e-02 -9.04539898e-02 -1.55491590e-01 -1.48898587e-01
    -6.68221861e-02]
   [-1.74643770e-02 -4.93945293e-02 -1.08501159e-01 -7.09265098e-02
    -6.44231681e-03]]]


 [[[-1.41367866e-02  1.77337753e-03  3.68895791e-02  2.98309531e-02
    -5.70167881e-03]
   [ 3.95574281e-03  6.27217963e-02  1.01388380e-01  6.84542209e-02
     2.64521390e-02]
   [ 2.28783935e-02  1.02906495e-01  1.87888339e-01  1.65073097e-01
     6.50293753e-02]
   [-4.46124841e-03  7.72935748e-02  1.88265711e-01  1.63696915e-01
     3.03044152e-02]
   [-1.32750152e-02  7.92421121e-03  5.99383786e-02  5.04790395e-02
    -2.70088408e-02]]]


 [[[-1.14456574e-02 -3.23731662e-03  6.01501670e-03  2.96728667e-02
     6.83163386e-03]
   [-9.26546566e-03  6.71932399e-02  1.07242979e-01  1.00033931e-01
     3.97722386e-02]
   [ 1.47169977e-02  1.25894949e-01  1.89806238e-01  1.68112770e-01
     7.92234764e-02]
   [ 2.99384911e-02  9.03351009e-02  1.75512940e-01  1.70784801e-01
     7.17810541e-02]
   [ 1.24815004e-02  4.94970679e-02  6.99367523e-02  6.75731972e-02
     2.40903851e-02]]]


 [[[-8.67340900e-03 -2.50655506e-02 -8.77500847e-02 -4.17379253e-02
    -2.77666133e-02]
   [-5.29484265e-02 -9.44726616e-02 -1.22494623e-01 -1.22902520e-01
    -5.24211526e-02]
   [-6.31620809e-02 -1.10076942e-01 -1.21686332e-01 -1.36614695e-01
    -9.03001353e-02]
   [-4.62474041e-02 -4.74284589e-02 -1.10456608e-01 -1.00701079e-01
    -5.78788929e-02]
   [-1.31994179e-02 -2.17056368e-02 -3.81885469e-02 -5.56596667e-02
    -2.78115156e-03]]]


 [[[ 9.29041486e-03 -2.37884745e-02 -3.64831500e-02 -1.02775833e-02
    -5.13947895e-03]
   [ 1.89808551e-02 -5.87387607e-02 -1.01138249e-01 -7.44966641e-02
     1.06183300e-03]
   [-3.51087563e-02 -9.70923007e-02 -1.69242576e-01 -1.42627597e-01
    -5.80316670e-02]
   [-2.62748692e-02 -1.03072934e-01 -1.70276582e-01 -1.43110767e-01
    -4.06633839e-02]
   [ 4.53317864e-03 -2.55803037e-02 -7.55537450e-02 -4.95276712e-02
     2.68938427e-04]]]


 [[[-6.20338228e-03  3.84663325e-03 -2.06583831e-02 -5.04823448e-03
     1.73933692e-02]
   [-2.64994707e-02 -8.12316015e-02 -1.37944728e-01 -9.18413252e-02
    -2.93780435e-02]
   [-4.18022424e-02 -1.08222522e-01 -1.69359609e-01 -1.49367556e-01
    -5.75915352e-02]
   [-3.43852825e-02 -1.16295546e-01 -1.54391125e-01 -1.48639351e-01
    -7.56266937e-02]
   [-1.33740883e-02 -7.17682168e-02 -7.87597671e-02 -7.06363693e-02
    -5.79371676e-03]]]


 [[[-1.13913454e-02 -1.12608774e-02  6.59936434e-03 -2.70012822e-02
    -1.88304484e-02]
   [ 2.05672625e-02  5.07087000e-02  8.57038721e-02  3.87676843e-02
     1.67088415e-02]
   [ 3.25007178e-02  8.53868946e-02  1.80343598e-01  1.55550092e-01
     3.81246656e-02]
   [ 1.67408269e-02  8.17696154e-02  2.02821419e-01  1.77212074e-01
     2.90327985e-02]
   [-4.40954464e-03  2.66889278e-02  7.45938420e-02  6.60062805e-02
    -1.47368349e-02]]]


 [[[-7.81426951e-02 -5.30707650e-02 -2.95150019e-02 -4.04720083e-02
    -7.49881342e-02]
   [-3.60206887e-02 -3.27794962e-02  7.60463736e-05 -1.99475605e-02
    -3.44607309e-02]
   [-2.79523171e-02 -9.70998593e-03 -1.59004852e-02 -2.08059624e-02
    -4.38471464e-03]
   [-2.43395977e-02  1.65417534e-03 -1.08748041e-02 -6.43777549e-02
    -3.76668982e-02]
   [-3.84283662e-02 -1.45046494e-03 -4.57841065e-03 -3.67678306e-03
    -3.83875258e-02]]]


 [[[-2.45884769e-02 -2.83949077e-02  1.16024558e-02  9.32690781e-03
    -1.80990826e-02]
   [-1.21155307e-02  2.69497111e-02  1.06355317e-01  9.32243615e-02
     1.31144645e-02]
   [ 4.65467274e-02  8.41767117e-02  1.78582594e-01  1.73770204e-01
     7.46395513e-02]
   [ 9.92746092e-03  7.19455406e-02  1.67306095e-01  1.57154202e-01
     4.66911644e-02]
   [-2.96318028e-02  3.25530954e-02  7.73631036e-02  7.35746026e-02
     4.22577653e-03]]]


 [[[-6.78022916e-04  1.40605755e-02 -2.38737948e-02 -2.08123885e-02
     1.99923525e-03]
   [-1.09656593e-02 -4.99578677e-02 -1.26963809e-01 -8.77048075e-02
    -1.43240467e-02]
   [-2.64991652e-02 -1.12098277e-01 -1.94307044e-01 -1.76662996e-01
    -6.33861944e-02]
   [ 4.75352304e-03 -9.24942344e-02 -1.63755953e-01 -1.75702184e-01
    -5.71183600e-02]
   [ 2.58363951e-02  4.04452160e-03 -7.49746934e-02 -6.28823489e-02
     2.45322865e-02]]]


 [[[-1.84268616e-02  2.71419007e-02  3.68175842e-02  9.70423780e-03
    -1.94655191e-02]
   [-4.54841461e-03  6.66557401e-02  1.22631758e-01  1.10065386e-01
    -2.70754145e-03]
   [ 3.00283972e-02  1.26778468e-01  1.99442580e-01  1.84837386e-01
     6.81809485e-02]
   [ 2.44045593e-02  9.17367265e-02  1.69026434e-01  1.60903618e-01
     6.03235550e-02]
   [-1.52719989e-02  1.70789566e-02  7.43848681e-02  6.09068573e-02
    -1.57698616e-02]]]


 [[[-1.02074230e-02 -3.99982976e-03  4.89985198e-02  4.22141738e-02
    -9.43828665e-04]
   [ 7.87232351e-03  5.68919964e-02  1.16520576e-01  1.15943611e-01
     2.71736979e-02]
   [ 1.57306083e-02  8.17289799e-02  1.80272833e-01  1.51031956e-01
     4.07003611e-02]
   [ 2.54870746e-02  7.24994838e-02  1.53835565e-01  1.27957135e-01
     3.91780250e-02]
   [-3.14249024e-02  4.83799353e-03  5.66304438e-02  5.08983806e-02
    -1.56675484e-02]]]


 [[[-4.64241923e-04  1.33016035e-02  1.61866900e-02  1.01112295e-02
    -7.07918499e-03]
   [-1.16451709e-02  5.06703071e-02  1.08108096e-01  9.08740312e-02
     1.75792165e-02]
   [ 6.18753082e-04  8.99868533e-02  1.69777572e-01  1.57417104e-01
     7.07583502e-02]
   [ 1.26234535e-02  6.96424693e-02  1.77251920e-01  1.58172891e-01
     5.89953586e-02]
   [ 1.61030740e-02  4.43460122e-02  6.49634451e-02  5.32804355e-02
    -9.63818689e-04]]]


 [[[ 1.87297934e-03 -1.70543175e-02 -2.16640700e-02 -1.74986143e-02
    -1.85499303e-02]
   [-4.28366140e-02 -7.23289102e-02 -6.59320503e-02 -4.76455130e-02
    -6.25007972e-02]
   [-3.81629728e-02 -1.14520781e-01 -1.66920677e-01 -1.25703201e-01
    -7.58320913e-02]
   [-3.26141417e-02 -8.98380876e-02 -1.13917977e-01 -1.14886858e-01
    -8.18965435e-02]
   [-7.56604550e-03 -3.89471166e-02 -3.49701941e-02 -4.70958389e-02
    -3.10453307e-02]]]


 [[[-5.45755820e-03 -2.80100219e-02  2.10545994e-02  4.12961002e-03
    -1.77484136e-02]
   [-4.25116811e-03  5.45172095e-02  9.04391035e-02  6.94391653e-02
     4.23655193e-03]
   [-2.25485172e-02  9.03236493e-02  1.90194920e-01  1.69734567e-01
     2.47570686e-02]
   [ 4.55410453e-04  9.11565796e-02  2.11049572e-01  1.77090049e-01
     1.21739637e-02]
   [-1.80030074e-02  1.17793111e-02  7.95479938e-02  5.37719578e-02
    -5.57843177e-03]]]


 [[[ 2.57660151e-02  9.19499435e-03 -2.39368491e-02  7.07419822e-03
     3.85173149e-02]
   [ 3.13256904e-02 -5.28428331e-02 -1.30336002e-01 -7.25918636e-02
     3.68765846e-04]
   [-1.62963029e-02 -1.08827278e-01 -2.60941803e-01 -1.89744726e-01
    -3.89479473e-02]
   [-1.12661149e-03 -5.84394634e-02 -2.04275295e-01 -1.57574579e-01
    -1.97327957e-02]
   [ 8.59397557e-03 -1.81391113e-03 -3.73766162e-02 -3.27320024e-02
     3.18241492e-02]]]


 [[[ 2.29822118e-02  8.64968449e-03 -4.93049771e-02 -2.48222314e-02
     3.10675744e-02]
   [-3.43233310e-02 -3.56294960e-02 -1.02505215e-01 -9.81420651e-02
    -2.04692818e-02]
   [-3.29713561e-02 -1.17932148e-01 -1.66375950e-01 -1.43765286e-01
    -8.64681974e-02]
   [-4.48369561e-03 -9.75370258e-02 -1.52840838e-01 -1.47308156e-01
    -5.21755256e-02]
   [ 2.65743863e-02 -1.96193215e-02 -7.05634058e-02 -5.22022136e-02
     1.83846913e-02]]]


 [[[-1.55572072e-02 -2.52975188e-02 -3.57292295e-02 -1.33958189e-02
    -2.66560148e-02]
   [ 6.76879054e-03  3.31764817e-02  8.74959752e-02  5.43804802e-02
     3.32326686e-04]
   [ 4.93634343e-02  9.26817730e-02  2.18489498e-01  1.76626161e-01
     3.86122242e-02]
   [ 6.72109872e-02  7.60294795e-02  1.96537912e-01  1.90985635e-01
     4.45567220e-02]
   [ 1.22211594e-02  2.81367600e-02  7.37638026e-02  7.81519711e-02
    -6.06106035e-03]]]


 [[[-6.01959713e-02 -2.41761543e-02  3.19343768e-02  1.90862883e-02
    -3.53063792e-02]
   [ 9.15852189e-03  4.61881384e-02  1.24701872e-01  1.20920576e-01
     2.29690876e-02]
   [ 4.05352265e-02  9.25277323e-02  2.02159241e-01  1.89873725e-01
     8.28866959e-02]
   [ 1.15575083e-02  6.75861239e-02  1.79063410e-01  1.69269606e-01
     3.67256366e-02]
   [-1.95262916e-02 -1.16399312e-02  7.21084401e-02  5.05432375e-02
    -2.09379382e-02]]]


 [[[ 2.99622621e-02  3.36317159e-02  7.44928746e-03  2.35517807e-02
     1.94879211e-02]
   [ 5.53921685e-02  7.28809610e-02  6.95435628e-02  7.57750571e-02
     2.35696305e-02]
   [ 3.09514757e-02  9.85405222e-02  1.59086853e-01  1.69687793e-01
     6.40995204e-02]
   [ 3.49698551e-02  8.89917761e-02  1.42420411e-01  1.54726297e-01
     7.50199556e-02]
   [ 1.45757115e-02  4.33880724e-02  6.59327507e-02  6.38394430e-02
     2.46955100e-02]]]


 [[[-7.48748286e-03  4.28977497e-02  5.64679205e-02  4.67363782e-02
    -1.35733299e-02]
   [ 1.41627984e-02  5.30000553e-02  1.14247419e-01  9.27075893e-02
     3.13622728e-02]
   [ 4.04203199e-02  1.27330124e-01  1.75866738e-01  1.50521681e-01
     9.22946259e-02]
   [ 1.38554303e-02  1.21410571e-01  1.65037453e-01  1.42836198e-01
     7.41311088e-02]
   [ 4.34216950e-03  1.71267707e-02  8.17972496e-02  1.06928080e-01
    -1.05812736e-02]]]


 [[[-1.19390283e-02 -3.18340436e-02 -5.68889678e-02 -3.61512750e-02
    -1.94352418e-02]
   [-3.94872501e-02 -6.07964583e-02 -9.22257230e-02 -8.61313716e-02
    -4.70299274e-02]
   [-5.33573143e-02 -1.07391924e-01 -1.38885140e-01 -1.29598662e-01
    -6.39915690e-02]
   [-3.53462212e-02 -8.19579214e-02 -1.24892518e-01 -1.20149888e-01
    -5.32387979e-02]
   [-1.84018854e-02 -3.75698768e-02 -6.69027567e-02 -5.48348837e-02
    -2.33487114e-02]]]


 [[[ 5.73707558e-02  3.31937671e-02 -2.10683681e-02 -4.09258436e-03
     5.73779643e-02]
   [ 4.04240899e-02 -1.50691308e-02 -1.23466425e-01 -8.93561542e-02
     2.39984300e-02]
   [ 1.08674197e-02 -8.88044462e-02 -2.62531877e-01 -1.78470090e-01
    -2.99900156e-02]
   [ 2.33114529e-02 -6.41401932e-02 -1.73830494e-01 -1.47669598e-01
     9.32685507e-04]
   [ 1.54547505e-02  9.15911107e-04 -6.38333112e-02 -2.41083540e-02
     4.44370434e-02]]]


 [[[ 1.09798927e-02 -1.34898990e-03  2.28503440e-02  1.18138047e-03
     1.64933666e-03]
   [-1.37764579e-02  3.92405391e-02  1.04731664e-01  8.51440057e-02
     3.17002088e-02]
   [ 1.09977257e-02  8.26712325e-02  1.79531977e-01  1.63201243e-01
     6.06664196e-02]
   [ 2.07802504e-02  1.12425238e-01  1.55147806e-01  1.41775995e-01
     6.62589669e-02]
   [-1.50821765e-03  4.52356860e-02  9.40983221e-02  8.06865394e-02
     3.72209563e-03]]]


 [[[-2.96588279e-02  3.84686850e-02  4.48460318e-02  2.20301785e-02
    -3.68325189e-02]
   [ 3.40576582e-02  1.02008782e-01  1.44049853e-01  1.07873172e-01
     3.45150456e-02]
   [ 6.95288479e-02  1.22060515e-01  1.81276485e-01  1.69979513e-01
     8.12872574e-02]
   [ 1.06785465e-02  7.54518881e-02  1.39037326e-01  1.36903971e-01
     3.46830003e-02]
   [-3.01879849e-02 -6.01830380e-03  4.42720428e-02  4.38739546e-02
    -4.67062183e-02]]]


 [[[-2.28179712e-02 -2.33607236e-02 -1.44491289e-02 -1.72518138e-02
    -8.02575890e-03]
   [-3.45842391e-02 -6.89628497e-02 -8.75896960e-02 -6.48885593e-02
    -3.24139707e-02]
   [-3.20005305e-02 -1.03308879e-01 -1.56401381e-01 -1.11718878e-01
    -7.13793635e-02]
   [-4.35270518e-02 -1.11372948e-01 -1.46768242e-01 -1.23090446e-01
    -6.75960332e-02]
   [-2.57085599e-02 -4.44749333e-02 -8.96964222e-02 -8.87666494e-02
    -2.79291235e-02]]]


 [[[-1.79210342e-02  3.86624523e-02  3.38886827e-02  8.95805061e-02
     1.58357192e-02]
   [ 2.76793037e-02  5.21653928e-02  4.61823791e-02  4.97611128e-02
     5.69721274e-02]
   [ 2.15424951e-02  5.19502051e-02  1.54815406e-01  1.26221672e-01
     7.07553104e-02]
   [ 2.89861653e-02  3.09389755e-02  9.88004059e-02  1.12591565e-01
     2.28210744e-02]
   [-3.04812361e-02  9.98447370e-03  4.36906777e-02  3.14878821e-02
    -2.22014189e-02]]]


 [[[ 3.27576026e-02  3.07603572e-02  1.67262536e-02  2.77707037e-02
     1.76586192e-02]
   [ 2.08591819e-02 -1.28752068e-02 -8.83934721e-02 -5.57393469e-02
     6.98007550e-03]
   [-8.54051579e-03 -9.09188166e-02 -2.47070163e-01 -1.94235578e-01
    -3.56205590e-02]
   [ 2.82643698e-02 -6.11866005e-02 -1.98092565e-01 -1.58450752e-01
    -2.27739550e-02]
   [ 3.25252488e-02  6.22499269e-04 -3.69801931e-02 -6.50555454e-03
     3.32623385e-02]]]


 [[[-1.16696628e-02 -3.91493458e-03 -4.16377559e-03 -5.08072227e-03
    -4.10716189e-03]
   [-1.73052512e-02 -5.35214767e-02 -1.11163028e-01 -8.03187862e-02
    -3.05823218e-02]
   [-1.91023573e-03 -8.30183253e-02 -2.11757675e-01 -1.80881798e-01
    -5.44654205e-02]
   [ 1.19967749e-02 -6.39752746e-02 -1.58523634e-01 -1.47001728e-01
    -6.41775457e-03]
   [ 1.44409109e-02 -1.51325995e-02 -5.50017729e-02 -3.85070443e-02
     3.00778169e-02]]]


 [[[-1.48382690e-02 -1.19766928e-02  1.70687884e-02 -6.41482882e-03
    -2.95825582e-02]
   [-1.96687505e-02  1.72010101e-02  1.07562602e-01  8.48283619e-02
    -2.27812678e-02]
   [-1.98538322e-03  1.05206579e-01  1.94385707e-01  1.67540148e-01
     4.65281345e-02]
   [ 6.51966489e-04  8.09328333e-02  1.79316312e-01  1.51849002e-01
     2.71262527e-02]
   [-2.63918154e-02 -1.00625819e-02  6.75657839e-02  3.34292017e-02
    -3.83436829e-02]]]


 [[[ 2.45401245e-02 -4.21344079e-02 -3.20532173e-02 -2.89901178e-02
     7.54661625e-03]
   [-1.25063760e-02 -6.68686554e-02 -8.02065060e-02 -8.91060978e-02
    -2.85034850e-02]
   [-6.96224347e-02 -1.21179901e-01 -1.33110732e-01 -1.03129312e-01
    -7.16901571e-02]
   [-4.43473868e-02 -1.10249922e-01 -1.32436872e-01 -1.28149182e-01
    -6.53394461e-02]
   [-1.82120744e-02 -7.79472664e-02 -7.75914118e-02 -7.96789974e-02
    -1.04879225e-02]]]


 [[[-4.07313090e-03 -2.27851477e-02 -5.85378632e-02 -4.08983491e-02
     6.44880626e-03]
   [-1.22006601e-02 -8.32148343e-02 -1.54497489e-01 -9.93317962e-02
    -2.01072283e-02]
   [-2.52143247e-03 -1.17518328e-01 -1.93955213e-01 -1.58448428e-01
    -5.49712591e-02]
   [-2.66619045e-02 -5.70556633e-02 -1.30569011e-01 -1.05144314e-01
    -2.90784519e-02]
   [-1.66425593e-02  8.35630577e-03 -6.36662692e-02 -5.55167161e-02
     1.21844290e-02]]]


 [[[-3.28175817e-03  5.32547012e-03 -2.85563190e-02 -2.47805752e-02
    -6.72705472e-03]
   [ 6.02262141e-03 -6.55894801e-02 -9.79780033e-02 -8.86726677e-02
     3.67494446e-04]
   [-3.09195071e-02 -1.03173248e-01 -1.58522353e-01 -1.34969130e-01
    -8.66264179e-02]
   [-4.52872291e-02 -8.60675201e-02 -1.35620862e-01 -1.34687230e-01
    -6.11264408e-02]
   [-2.41027940e-02 -8.47082026e-03 -8.31851512e-02 -6.44945502e-02
    -7.86474347e-03]]]


 [[[-2.51182611e-03  1.63325686e-02  3.91848907e-02  4.70605493e-02
    -1.34327896e-02]
   [ 2.86380798e-02  6.32355511e-02  9.80737060e-02  8.05600286e-02
     2.27202084e-02]
   [ 4.38303165e-02  7.33731017e-02  1.58670440e-01  1.42221019e-01
     5.95637895e-02]
   [ 3.67534421e-02  6.50323331e-02  1.60873801e-01  1.79738253e-01
     6.95501342e-02]
   [ 1.86024345e-02  3.25918496e-02  4.42944355e-02  7.91223720e-02
    -8.01374018e-03]]]


 [[[ 3.29395533e-02 -2.33577173e-02 -5.75848706e-02 -6.00805543e-02
    -2.00519748e-02]
   [ 2.39372626e-03 -8.01075920e-02 -1.15437225e-01 -1.02900162e-01
    -6.64808378e-02]
   [-2.14631036e-02 -1.01138167e-01 -1.57970965e-01 -1.39903739e-01
    -8.92064348e-02]
   [-3.35394312e-03 -7.57286623e-02 -1.38167396e-01 -1.36443868e-01
    -6.27325177e-02]
   [ 2.27104202e-02 -1.41752306e-02 -6.03169985e-02 -5.83116971e-02
    -1.44733004e-02]]]


 [[[ 3.51445042e-02  2.62479484e-02  3.84300714e-03  1.50622213e-02
     4.10257131e-02]
   [-5.14537934e-03 -4.92214300e-02 -6.92074299e-02 -6.00209050e-02
    -2.81724334e-03]
   [-3.31538059e-02 -8.37788954e-02 -1.50739819e-01 -1.41987756e-01
    -5.03598824e-02]
   [-3.63209322e-02 -9.98939946e-02 -1.61461204e-01 -1.58887804e-01
    -7.31780753e-02]
   [-8.77458695e-03 -3.68113033e-02 -1.10310495e-01 -9.53387171e-02
    -2.05395408e-02]]]


 [[[ 1.65487770e-02  8.69020727e-03  1.88763514e-02  1.41389621e-02
     2.15920527e-02]
   [ 1.54137034e-02 -4.15603630e-02 -8.55986997e-02 -7.30258375e-02
    -1.33574484e-02]
   [-2.92573031e-02 -8.92486498e-02 -1.51362240e-01 -1.20506026e-01
    -5.37001677e-02]
   [-6.78559914e-02 -8.89849514e-02 -1.49630278e-01 -1.47808731e-01
    -9.19184610e-02]
   [-1.64636802e-02 -3.96346003e-02 -9.70396549e-02 -9.69305560e-02
    -2.50877477e-02]]]


 [[[-1.56059125e-02 -1.52610531e-02  6.55581290e-03  3.51864006e-03
    -1.28649985e-02]
   [ 2.59417784e-03  4.00262065e-02  1.03751503e-01  9.98849943e-02
     7.38975825e-03]
   [ 1.63115580e-02  7.92667121e-02  1.72731847e-01  1.55850172e-01
     4.39037643e-02]
   [ 1.51996631e-02  9.13067609e-02  1.75865471e-01  1.66994691e-01
     8.57415572e-02]
   [-2.06973329e-02  3.09570320e-02  8.32989514e-02  8.41415897e-02
     5.40143158e-03]]]


 [[[-8.77716765e-03  6.32084114e-03  2.51573343e-02  1.97677617e-03
    -1.38792489e-02]
   [-1.69633911e-03  5.84911183e-02  1.18832007e-01  1.02332011e-01
     1.23486975e-02]
   [ 1.98648125e-02  9.07033458e-02  1.51388034e-01  1.52127236e-01
     5.14336415e-02]
   [ 3.29312719e-02  9.18665528e-02  1.50816470e-01  1.37497619e-01
     5.44578470e-02]
   [-6.13180222e-03  4.16659825e-02  8.74827057e-02  5.74691296e-02
     1.42504405e-02]]]


 [[[-6.38616504e-03 -4.30144108e-04 -5.50042465e-02 -3.38667072e-02
     4.30486165e-03]
   [ 7.22671335e-04 -8.81792754e-02 -1.05719276e-01 -1.07764937e-01
    -5.50263338e-02]
   [-1.42441094e-02 -1.13666736e-01 -1.36344269e-01 -1.39784977e-01
    -9.41367820e-02]
   [-2.33534072e-02 -8.28085914e-02 -1.36278182e-01 -1.21302374e-01
    -7.03160241e-02]
   [ 7.54412636e-03 -3.32973823e-02 -9.37978923e-02 -6.89759105e-02
    -3.55006545e-03]]]


 [[[ 3.69509980e-02 -1.96080692e-02 -5.37699796e-02 -4.95386682e-02
     2.65483782e-02]
   [-2.83406395e-02 -6.59764260e-02 -1.14022359e-01 -8.81487355e-02
    -4.89912666e-02]
